tree
version=v4
num_class=1
num_tree_per_iteration=1
label_index=0
max_feature_idx=6
objective=binary sigmoid:1
feature_names=perc_cov_diff cov_change_dir perc_binarized num_samples_scaled cov_diff_norm junc_len_log smooth_metric_scaled
feature_infos=[0:1] [0:1] [0:1] [1:2388608] [1.7235272674940173e-05:1] [0:15.98246079045272] [-0.13297349680511844:239.14632170232255]
tree_sizes=3495 3546 3561 3564 3564 3584 3582 3574 3584 3594 3592 3589 3603 3580 3603 3604 3599 3585 3608 3586 3604 3590 3586 3582 3599 3589 3590 3594 3586 3583 3583 3598 3580 3569 3579 3582 3575 3577 3577 3578 3581 3575 3569 3586 3590 3578 3586 3588 3579 3581 3595 3579 3598 3583 3584 3567 3577 3595 3576 3550 3591 3584 3573 3575 3593 3581 3585 3583 3591 3578 3587 3577 3586 3578 3578 3572 3567 3583 3552 3576 3587 3584 3579 3551 3596 3600 3567 3594 3609 3564 3578 3586 3615 3596 3557 3599 3557 3566 3573 3534 3559 3599 3606 3561 3575 3543 3539 3585 3612 3617 3583 3584 3556 3584 3620 3639 3566 3605 3624 3551 3596 3601 3585 3596 3616 3593 3593 3541 3592 3592 3611 3569 3590 3579 3568 3582 3556 3630 3542 3561 3572 3555 3551 3557 3566 3553 3537 3557 3573 3575 3576 3547 3560 3560 3543 3543 3620 3584 3519 3631 3490 3551 3586 3541 3491 3613 3447 3514 3603 3559 3494 3429 3577 3604 3483 3618 3482 3469 3419 3536 3597 3593 3475 3458 3454 3423 3506 3524 3586 3613 3449 3485 3499 3589 3545 3551 3573 3556 3455 3579 3596 3477 3472 3556 3527 3588 3549 3516 3483 3522 3476 3542 3540 3592 3529 3588 3575 3570 3493 3454 3598 3546 3501 3464 3469 3490 3526 3467 3523 3532 3466 3430 3553 3572 3555 3481 3469 3479 3440 3463 3457 3572 3462 3457 3473 3515 3487 3520 3464 3583 3495 3530 3462 3500 3598 3531 3481 3439 3555 3492 3427 3451 3519 3464 3531 3448 3478 3542 3461 3467 3400 3522 3442 3477 3473 3439 3489 3501 3513 3430 3594 3452 3442 3536 3597 3473 3461 3463 3603 3478 3488 3421 3495 3476 3485 3578 3481 3517 3483 3457 3596 3512 3515 3560 3519 3524 3425 3481 3499 3441 3518 3490 3435 3506 3502 3455 3443 3443 3531 3443 3563 3481 3550 3574 3443 3561 3504 3447 3444 3494 3467 3547 3540 3459 3560 3544 3464 3457 3518 3429 3504 3494 3480 3492 3482 3525 3554 3551 3578 3479 3518 3433 3454 3576 3549 3513 3503 3466 3480 3553 3557 3471 3474 3575 3506 3549 3451 3476 3524 3469 3459 3549 3488 3443 3505 3413 3516 3495 3496 3445 3532 3522 3488 3428 3560 3488 3471 3522 3504 3592 3534 3439 3432 3525 3586 3435 3500 3494 3524 3418 3440 3466 3446 3457 3427 3447 3530 3468 3566 3446 3587 3508 3460 3463 3455 3449 3518 3514 3448 3496 3457 3455 3513 3576 3465 3469 3532 3528 3460 3525 3597 3528 3488 3458 3482 3431 3441 3499 3507 3481 3469 3483 3491 3431 3545 3432 3484 3484 3443 3511 3468 3496 3440 3465 3492 3506 3461 3455 3494 3494 3499 3424 3507 3458 3465 3461 3506 3487 3475 3460 3532 3489 3433 3520 3410 3475 3405 3451 3417 3434 3439 3518 3459 3461 3519 3438 3431 3474 3524 3453 3444 3439 3487 3395 3538 3512 3425 3493 3410 3579 3494 3418 3471 3492 3452 3450 3457 3480 3439 3440 3411 3532 3539 3473 3514 3449 3430 3488 3493 3550 3515 3487 3438 3490 3509 3490 3531 3440 3519 3598 3450 3452 3480 3563 3509 3520 3507 3445 3532 3495 3463 3484 3552 3510 3474 3506 3509 3537 3434 3530 3552 3459 3545 3475 3456 3456 3534 3481 3574 3459 3494 3489 3477 3478 3489 3518 3455 3476 3476 3508 3454 3529 3489 3455 3523 3547 3481 3413 3511 3521 3516 3526 3489 3525 3526 3448 3503 3514 3516 3534 3454 3453 3532 3436 3439 3536 3524 3526 3512 3495 3539 3598 3471 3509 3506 3486 3481 3509 3441 3463 3404 3494 3455 3442 3505 3401 3529 3467 3503 3481 3443 3418 3495 3495 3554 3539 3474 3493 3501 3390 3535 3465 3491 3443 3508 3413 3424 3420 3435 3497 3414 3405 3436 3433 3436 3431 3437 3449 3458 3445 3471 3464 3486 3520 3442 3520 3522 3478 3418 3523 3537 3559 3416 3498 3477 3539 3547 3486 3461 3453 3418 3531 3479 3436 3435 3508 3490 3457 3407 3416 3423 3472 3415 3457 3458 3431 3504 3442 3450 3518 3542 3464 3512 3514 3513 3457 3471 3431 3492 3521 3585 3483 3417 3446 3435 3480 3431 3420 3414 3426 3504 3525 3452 3465 3470 3475 3498 3452 3472 3466 3491 3463 3475 3467 3498 3423 3473 3494 3383 3504 3514 3466 3479 3530 3449 3493 3512 3503 3547 3488 3445 3449 3516 3485 3514 3499 3445 3498 3433 3474 3511 3433 3511 3482 3508 3456 3444 3516 3491 3504 3480 3409 3447 3483 3398 3545 3507 3466 3475 3525 3381 3509 3494 3426 3499 3507 3525 3470 3456 3428 3472 3456 3486 3494 3393 3520 3408 3478 3512 3528 3460 3449 3412 3477 3476 3527 3456 3502 3482 3520 3504 3455 3447 3543 3474 3539 3489 3447 3433 3446 3437 3455 3479 3429 3460 3484 3446 3399 3444 3453 3489 3505 3493 3451 3461 3458 3501 3457 3445 3442 3419 3523 3426 3452 3437 3433 3401 3428 3436 3534 3479 3528 3459 3504 3489 3448 3399 3583 3501 3430 3425 3496 3496 3478 3407 3434 3452 3467 3429 3411 3459 3435 3465 3438 3463 3434 3432 3502 3461 3432 3409 3489 3458 3401 3451 3449 3436 3448 3448 3448 3419 3547 3459 3484 3432 3456 3470 3412 3450 3413 3455 3459 3509 3492 3476 3559 3448 3436 3447 3420 3413 3496 3455 3476 3431 3495 3478 3485 3405 3432 3440 3430 3446 3461 3432 3463 3421 3420 3514 3430 3492 3439 3404 3420 3511 3436 3456 3494 3457 3496 3453 3486 3436 3465 3482 3469 3456 3376 3412 3430 3414 3581 3450 3446 3414 3473 3453 3429 3458 3400 3483 3509 3477 3455 3447 3491 3427 3479 3413 3449 3398 3459 3397 3475 3482 3459 3424 3397 3452 3465 3492 3431 3421 3490 3483 3465 3491 3461 3421 3440 3433 3405 3456 3421 3432 3420 3467 3556 3482 3555 3449 3445 3438 3446 3540 3468 3488 3432 3454 3458

Tree=0
num_leaves=31
num_cat=0
split_feature=6 6 6 1 3 3 1 5 2 1 2 0 3 4 1 5 4 5 2 4 1 6 5 2 4 1 4 5 5 6
split_gain=2.36171e+07 524331 484327 239376 141430 123790 107700 78682.2 71817.7 64068.6 55069.8 54346.6 51729.9 44457.1 40547.9 47212.9 38636.8 29351.2 28707.1 25934.8 25019.2 22633.1 21044.5 18937.9 18316.2 19461.7 17732.3 15680.8 14800.3 14202.9
threshold=-0.12647843137389289 -0.13019190385456983 -0.10886153695467742 1.0000000180025095e-35 2.5000000000000004 3.5000000000000004 1.0000000180025095e-35 4.4248287033199558 1.0000000180025095e-35 1.0000000180025095e-35 1.0000000180025095e-35 0.76665000000000016 20.500000000000004 0.013362076023064244 1.0000000180025095e-35 3.4175922930736511 0.016406686941092426 5.0466405620843924 1.0000000180025095e-35 0.01418678382056013 1.0000000180025095e-35 -0.13115400700573196 7.8514665874995755 1.0000000180025095e-35 0.005271839029447326 1.0000000180025095e-35 0.014958924036397451 4.297262267176281 2.8617925509761908 -0.13135101680541586
decision_type=2 2 2 2 2 2 2 2 2 2 2 2 2 2 2 2 2 2 2 2 2 2 2 2 2 2 2 2 2 2
left_child=1 4 6 11 10 14 -2 8 16 -6 21 -4 18 20 -3 19 -8 -5 26 -16 -7 -1 -14 27 25 -23 29 -22 -18 -11
right_child=2 5 3 17 9 13 7 -9 -10 12 -12 -13 22 -15 15 -17 28 -19 -20 -21 23 24 -24 -25 -26 -27 -28 -29 -30 -31
leaf_value=-1.8927104842955971 -1.8104435494862441 -1.8935221122723112 -1.8100747043151999 -1.5240036258513008 -1.8776996483146606 -1.8660681597162441 -1.618764276539445 -1.5442393495549369 -1.5249563783050637 -1.8293939608403549 -1.7689469380049914 -1.6113227693372325 -1.6878377390862944 -1.7751086577613941 -1.7633369025159196 -1.7085800484310729 -1.7609538810910608 -1.4851904105879881 -1.6585772045938509 -1.8487994955852494 -1.6953969164403562 -1.8980409504053033 -1.8612672064635021 -1.5543405294060952 -1.8809270057765479 -1.8115460892393431 -1.8671540668172095 -1.6041292597719516 -1.674462216566925 -1.7652177311361814
leaf_weight=603416.61732625961 5915.7925198078156 9755.7730782032013 4087.2235352993011 52359.213071107864 41250.80269408226 1277.4933977127075 27477.929606437683 48971.248318910599 12973.289581775665 25993.08248257637 9704.619003534317 21701.907693862915 11918.429951190948 9723.8899102210999 15196.587143421173 15273.383652448654 8300.9147064685822 698628.75638246536 2632.3930697441101 21346.955791473389 12595.550517320633 9101.5386400222778 2050.043247461319 5211.3527970314026 81624.660063266754 22781.799888372421 18891.614913225174 7513.7119929790497 12238.297751188278 12899.768107652664
leaf_count=5011681 40937 81160 28258 109728 332180 10037 101439 119318 27396 188167 60373 77396 57864 61502 93103 79488 50523 1007407 11483 161510 62755 76410 15941 13584 661735 158072 148773 25886 56660 79440
internal_value=-1.84585 -1.86635 -1.50726 -1.49304 -1.87908 -1.75683 -1.60262 -1.59144 -1.62934 -1.82772 -1.88726 -1.64282 -1.80001 -1.68362 -1.80001 -1.7824 -1.65754 -1.4879 -1.82006 -1.81326 -1.65017 -1.88886 -1.71329 -1.63928 -1.86837 -1.83624 -1.82741 -1.6613 -1.70942 -1.80811
internal_weight=0 940160 892655 776777 842265 97894.7 115877 109962 60990.4 115636 726629 25789.1 74385.3 36322 61572.7 51816.9 48017.1 750988 60416.9 36543.5 26598.1 716925 13968.5 25320.6 113508 31883.3 57784.5 20109.3 20539.2 38892.9
internal_count=9010206 7391144 1619062 1222789 6802119 589025 396273 355336 236018 833848 5968271 105654 501668 173764 415261 334101 208622 1117135 427863 254613 112262 5907898 73805 102225 896217 234482 416380 88641 107183 267607
is_linear=0
shrinkage=1


Tree=1
num_leaves=31
num_cat=0
split_feature=6 6 6 1 3 3 1 4 2 4 0 5 6 1 5 1 3 4 1 6 5 4 5 2 2 4 5 3 4 6
split_gain=1.52374e+07 361712 294954 128087 118687 104089 60313.9 53558.9 51103.2 47945.7 35214.8 33651.9 30276.7 29776.7 33787.8 27110.1 23855.5 23419.2 37474.3 23449.4 22871.9 20208.4 18060.8 20808.1 17725 15462.6 13884.6 13430.8 13000.2 12126.5
threshold=-0.12740961557531644 -0.13065568810064918 -0.11628287293114613 1.0000000180025095e-35 2.5000000000000004 7.5000000000000009 1.0000000180025095e-35 0.026705624128002928 1.0000000180025095e-35 0.01479777423688676 0.76665000000000016 7.0846453580252318 -0.082832509509947694 1.0000000180025095e-35 3.4175922930736511 1.0000000180025095e-35 50.500000000000007 0.010280409268784941 1.0000000180025095e-35 -0.1320464845759235 3.4175922930736511 0.010774199830921977 4.7317931335534196 1.0000000180025095e-35 1.0000000180025095e-35 0.093415608779992623 3.9219243190762363 1.5000000000000002 0.0044402371228814625 -0.071763710924507937
decision_type=2 2 2 2 2 2 2 2 2 2 2 2 2 2 2 2 2 2 2 2 2 2 2 2 2 2 2 2 2 2
left_child=1 5 6 10 13 8 -2 22 17 15 -4 16 -5 -3 21 -6 -7 18 -1 -20 25 -15 23 -8 26 -9 -17 -21 -10 -12
right_child=2 4 3 12 9 11 7 20 28 -11 29 -13 -14 14 -16 24 -18 -19 19 27 -22 -23 -24 -25 -26 -27 -28 -29 -30 -31
leaf_value=-0.049520050036391892 0.0084599797777668538 -0.050263463369514698 0.040103047909098619 0.24099820858072973 -0.027305738579647118 0.044854124679032853 0.16587701416550957 0.052987081598653646 0.12167598896173684 0.033900736516269507 0.071052130443016268 -0.033681251204946382 0.26677238537713355 0.051259826379544009 0.088970465109283303 0.10640336082307066 0.15014260358362166 -0.049363026167240191 -0.035545438037399242 -0.010518369351709148 0.16941858367535811 -0.016023936552642861 0.23247982792475699 0.24076843303613538 0.22132031456615209 0.21902539320569289 0.17667642117337587 0.031280417947109805 0.0120529681488909 0.19424466757317194
leaf_weight=150757.33815839887 5206.4141169264913 14344.41869546473 5052.1254039481282 131210.76885999739 2283.0995856299996 23128.293564207852 38421.832887642086 11540.545534037054 5537.7630213946104 14674.751850955188 2176.1622767969966 10754.146325029433 865683.47631014884 17294.740171581507 17420.310158364475 18351.041591472924 7010.4946346208453 402520.11602827907 78775.914680853486 67268.908053308725 11638.851402677596 31459.004761733115 30860.072841472924 12226.273315660655 7085.1766870692372 1596.1222307011485 11392.811091057956 26904.873182676733 5286.0670012682676 24343.623794406652
leaf_count=1303073 37661 124115 33443 224870 18612 151167 136736 69290 27367 98233 11937 87691 971700 109315 94770 91737 30157 3474082 658845 531460 38649 247268 62075 21503 17013 4987 38914 186249 36025 71262
internal_value=0 -0.022314 0.251866 0.26024 0.0534604 -0.0353958 0.174619 0.182759 -0.0397037 0.110969 0.161088 0.0422508 0.26338 0.015044 0.0292006 0.139885 0.069345 -0.0413111 -0.0312987 -0.0154154 0.11838 0.00784408 0.202327 0.183956 0.15025 0.073161 0.13332 0.00142329 0.0681391 0.184136
internal_weight=0 912249 1.13996e+06 1.02847e+06 134305 777944 111490 106284 737051 53786.9 31571.9 40892.9 996894 80518.5 66174.1 39112.1 30138.8 726227 323707 172950 24775.5 48753.7 81508.2 50648.1 36829 13136.7 29743.9 94173.8 10823.8 26519.8
internal_count=9010206 7326093 1684113 1313212 839977 6486116 370901 333240 6217101 264509 116642 269015 1196570 575468 451353 166276 181324 6153709 2679627 1376554 112926 356583 220314 158239 147664 74277 130651 717709 63392 83199
is_linear=0
shrinkage=0.05


Tree=2
num_leaves=31
num_cat=0
split_feature=6 6 3 1 1 6 6 1 4 4 1 4 5 0 3 5 0 2 2 5 2 4 4 2 3 4 5 4 0 1
split_gain=1.10399e+07 263195 243376 94438.1 84485.3 64927.7 53161.1 49117.6 46759.4 34329 36368.1 31179.5 28378.1 26596.6 23704.1 21364.8 17655.4 17160.1 15974.1 14576.7 17543.4 12276.2 12026.9 11166.4 10992.9 10954 10506.9 9403.27 16320.8 10529.2
threshold=-0.12833013806993354 -0.11995967841145834 2.5000000000000004 1.0000000180025095e-35 1.0000000180025095e-35 -0.13115400700573196 -0.13109026854112835 1.0000000180025095e-35 0.023379216501739474 0.011440343119808414 1.0000000180025095e-35 0.012116827572299817 4.9089648320872419 0.75970000000000015 14.500000000000002 3.725620842493838 0.0059500000000000013 1.0000000180025095e-35 1.0000000180025095e-35 3.9607678160667747 1.0000000180025095e-35 0.093415608779992623 0.10351590944932444 1.0000000180025095e-35 17.500000000000004 0.031548735749661119 3.4811217321331038 0.0043893930684903897 1.0000000180025095e-35 1.0000000180025095e-35
decision_type=2 2 2 2 2 2 2 2 2 2 2 2 2 2 2 2 2 2 2 2 2 2 2 2 2 2 2 2 2 2
left_child=2 7 5 -4 13 17 14 -2 19 10 -7 23 18 -3 -5 21 -12 27 -6 20 -9 -10 -11 24 -8 -16 -18 28 -1 -30
right_child=1 4 3 6 12 9 11 8 15 22 16 -13 -14 -15 25 -17 26 -19 -20 -21 -22 -23 -24 -25 -26 -27 -28 -29 29 -31
leaf_value=0.029656227650831497 -0.01179699418339448 0.036525935943963979 -0.030772271361192295 0.0062645590145881773 0.17460583207212435 -0.049978223316003836 0.087379941544872886 0.12100169209178331 0.038850819619204821 -0.030636860454525468 0.11943443386183722 0.032847747076484787 0.21491550459536879 0.15360642362307572 0.096728728059685562 0.14286325519701745 0.014815258296010032 0.033977000465458047 0.21623482017705672 0.18119089402343658 0.1929736158704756 0.17421614934571902 0.11603191922477403 0.1802392921728557 0.15352118185641406 -0.029387362065923652 0.070936594932178743 -0.049698685781589695 -0.051024754443511101 -0.025558709861807256
leaf_weight=9053.7861372902989 5671.8653100803494 5772.8865967094898 41616.217484600842 42989.830115400255 72472.326322928071 14643.352740697563 21032.739878840744 33851.960667088628 16778.579715617001 86627.4813497141 6072.1008491888642 14365.446631118655 1086806.8594224453 30362.13471122086 12763.439285673201 10031.088171303272 33940.965789221227 6888.5136921107769 33788.077173665166 37469.743713706732 11291.021231964231 1860.6314539238811 1420.6366020441055 6325.3213226944208 8957.5874877125025 1990.2393954545259 11056.612731613219 392121.0511238277 88233.904229931533 75168.209815882146
leaf_count=67938 43798 37314 347973 316776 149828 131665 100216 127954 101669 722783 30852 93563 1068723 86240 61320 31241 235806 42132 38608 78851 18528 5633 8062 14023 28454 15054 61459 3517112 795357 631274
internal_value=0 0.203403 -0.0247096 0.033256 0.210223 -0.036702 0.0578317 0.131729 0.139044 -0.00786039 0.0194867 0.0952024 0.212504 0.134902 0.0250317 0.0840273 0.0394046 -0.0444623 0.187843 0.158138 0.139003 0.0523635 -0.0282704 0.119868 0.107135 0.0797159 0.0286052 -0.0454193 -0.0356892 -0.0393099
internal_weight=0 1.34616e+06 875267 150041 1.2292e+06 725227 108425 116955 111283 153761 65713 50681.1 1.19307e+06 36135 57743.5 28670.3 51069.7 571465 106260 82612.7 45143 18639.2 88048.1 36315.6 29990.3 14753.7 44997.6 564577 172456 163402
internal_count=9010206 1788387 7221819 977379 1380713 6244440 629406 407674 363876 1190627 459782 236256 1257159 123554 393150 138543 328117 5053813 188436 225333 146482 107302 730845 142693 128670 76374 297265 5011681 1494569 1426631
is_linear=0
shrinkage=0.05


Tree=3
num_leaves=31
num_cat=0
split_feature=6 3 6 1 6 1 4 6 1 4 4 1 6 5 0 2 3 2 2 3 4 4 4 1 0 6 6 4 3 5
split_gain=8.50654e+06 224278 186370 81818.9 62661 61228.9 45674.8 37053.9 36130.8 34123.8 31337.3 32666.2 26193 21261.9 20237.7 16170.2 15228.7 14954.2 14067.7 13649.3 11482.3 10407.9 9429.71 14504.5 14082.2 8738.71 8582.57 7802.32 7799.2 7329.26
threshold=-0.12833013806993354 2.5000000000000004 -0.12091645070921729 1.0000000180025095e-35 -0.13115400700573196 1.0000000180025095e-35 0.023379216501739474 -0.13155192044584643 1.0000000180025095e-35 0.01479777423688676 0.011440343119808414 1.0000000180025095e-35 -0.095882067799032786 3.4175922930736511 0.77545000000000008 1.0000000180025095e-35 33.500000000000007 1.0000000180025095e-35 1.0000000180025095e-35 17.500000000000004 0.028327463286714798 0.10351590944932444 0.0097736922521416986 1.0000000180025095e-35 1.0000000180025095e-35 -0.071763710924507937 -0.13019190385456983 0.093415608779992623 1.5000000000000002 9.6281292276050614
decision_type=2 2 2 2 2 2 2 2 2 2 2 2 2 2 2 2 2 2 2 2 2 2 2 2 2 2 2 2 2 2
left_child=1 4 8 -3 15 14 7 19 -2 -10 11 -6 20 27 -4 22 18 26 -9 -5 -7 -12 23 -1 -25 -16 28 -11 -13 -15
right_child=2 3 5 6 10 12 -8 16 9 13 21 17 -14 29 25 -17 -18 -19 -20 -21 -22 -23 -24 24 -26 -27 -28 -29 -30 -31
leaf_value=-0.04967606265287941 -0.015144657735255425 -0.029926517372583058 0.036704873985008907 0.010756274752559329 -0.049351613058090042 0.16800142703440835 -0.010115314445263777 0.070223527311810349 0.13820046469146746 0.037772459845142388 -0.029790713872163106 0.001703416376913491 0.18298863310208863 0.13245550401260417 0.051291955705684067 0.031513571782867005 0.15023124583355132 0.14547749585804848 0.14877889822998538 0.08125697401681016 0.13415416118569173 0.10121984390918111 -0.050417417084501787 0.036989963231017942 -0.029643142792800531 0.14125299521511972 0.062852077496634726 0.1480222673846843 0.053345131419501306 -0.019481180631178603
leaf_weight=116574.81851030141 5271.0772409662604 40676.916430898011 6508.4425581097603 26195.37045635283 14101.583227023482 126779.21601672471 22956.429480306804 37259.628486193717 74689.293352067471 19485.268969409168 84683.656999081373 25146.883471541107 1180837.233332172 14485.024709001184 2965.8818497061729 7051.2638514190912 10132.408172920346 2962.7618917375803 6728.3360491618514 9303.7506098896265 31228.462612852454 1543.601717710495 310208.61185094714 8543.50073505193 110279.07214406133 30052.169454216957 14086.354840874672 1748.7758785933256 10308.20246758312 839.7488521784544
leaf_count=1088109 41494 347973 40420 188111 131665 178968 173617 183731 181997 111881 722783 180222 1030378 39947 14479 42132 26508 11219 15410 42029 68623 8062 2902145 62161 959266 70959 74221 4816 62455 4425
internal_value=0 -0.0239735 0.173487 0.0308508 -0.0358829 0.17862 0.0528114 0.0689303 0.112766 0.118826 -0.00754666 0.0182141 0.18043 0.0792456 0.117288 -0.0437191 0.0949687 0.0363609 0.0822392 0.0292334 0.161312 -0.0274454 -0.0446914 -0.0371456 -0.0248521 0.133172 0.0298353 0.0468523 0.0167177 0.12413
internal_weight=0 858743 1.49489e+06 153253 705490 1.37837e+06 112576 89619.5 116519 111248 152833 66605.8 1.33884e+06 36558.8 39526.5 552657 54120.4 52504.2 43988 35499.1 158008 86227.3 545606 235397 118823 33018.1 49541.4 21234 35455.1 15324.8
internal_count=9010206 7221819 1788387 977379 6244440 1403827 629406 455789 384560 343066 1190627 459782 1277969 161069 125858 5053813 225649 328117 199141 230140 247591 730845 5011681 2109536 1021427 85438 316898 116697 242677 44372
is_linear=0
shrinkage=0.05


Tree=4
num_leaves=31
num_cat=0
split_feature=6 6 3 1 1 6 1 4 4 4 1 5 6 0 2 5 2 5 0 4 4 3 4 1 0 3 2 4 0 6
split_gain=6.83495e+06 217458 161991 57079.8 48479.9 43943.7 43411.9 38082 33111.9 25032 23976.5 23557.8 20848.9 16187.7 15256.1 14818 16568.7 13848 13665.9 12212.8 10813.9 10518.6 9486.02 15491.6 14974.7 9027.6 8292.66 7856.86 7064.52 6828.29
threshold=-0.12926285199450757 -0.12184666145045414 2.5000000000000004 1.0000000180025095e-35 1.0000000180025095e-35 -0.13115400700573196 1.0000000180025095e-35 0.028327463286714798 0.015410488180480882 0.0090360225816542607 1.0000000180025095e-35 4.6774800307930642 -0.13155192044584643 0.75970000000000015 1.0000000180025095e-35 3.725620842493838 1.0000000180025095e-35 3.1984648276080736 0.0059500000000000013 0.012258156808234326 0.093415608779992623 26.500000000000004 0.0043893930684903897 1.0000000180025095e-35 1.0000000180025095e-35 26.500000000000004 1.0000000180025095e-35 0.0036499998707354552 0.22585000000000002 -0.082832509509947694
decision_type=2 2 2 2 2 2 2 2 2 2 2 2 2 2 2 2 2 2 2 2 2 2 2 2 2 2 2 2 2 2
left_child=2 6 5 -4 13 14 -2 15 12 10 -7 19 21 -3 22 16 27 20 -12 -6 -9 -5 23 -1 -25 26 -14 -8 -26 -15
right_child=1 4 3 8 11 9 7 17 -10 -11 18 -13 25 29 -16 -17 -18 -19 -20 -21 -22 -23 -24 24 28 -27 -28 -29 -30 -31
leaf_value=-0.04862709515774459 -0.026616932933186732 0.031693829648407223 -0.029003009096438759 0.014680419333110338 0.14906922040459231 -0.048885037609397913 0.10377796849473607 0.007066425001088986 -0.0067561162213412608 -0.028815339755800987 0.10202024327531732 0.15991446600189632 0.059206440919161302 0.044726294498408779 0.029287864719048453 0.1331674839761833 0.14463205446853586 0.089325492409497304 0.02044828260408902 0.11602520788364268 0.13382647700092909 0.082698269643372457 -0.048459119117965077 0.062017586143800853 -0.029028218857198525 0.12542404143142966 0.12904409648513152 0.061168920824753906 0.023195510238196118 0.12360945126085382
leaf_weight=85524.227411232889 7357.5226402133703 6577.2690815776587 39150.780348420143 26584.509324938059 75018.964080199599 11773.019443124533 19777.203505456448 15930.760114111006 26015.361801974475 83005.732394434512 5934.7007850706577 1337692.5378724784 28383.726459778845 2993.2033489868045 7203.6682944148779 47223.5220387429 13074.142640255392 12365.864385008812 38078.119473040104 44577.433861985803 1881.1822041720152 7229.7320300638676 364208.90498903394 5466.0522367805243 64929.884520761669 9276.1971288919449 4999.3198041319847 23885.090752065182 7193.0967598557472 32867.014544203877
leaf_count=828226 62114 40610 342640 183350 98964 114238 63270 106205 195835 720792 26095 1104194 136757 14559 42132 97424 19930 43774 245184 94728 5216 29082 3517112 35069 574655 24129 10791 103833 56619 72679
internal_value=0 0.150889 -0.0262508 0.0223525 0.15648 -0.0364751 0.0916364 0.0981227 0.0419703 -0.0114075 0.0144941 0.158014 0.0585464 0.1038 -0.0429839 0.112476 0.0952545 0.0486753 0.0314475 0.136753 0.020454 0.0292231 -0.0439712 -0.0339504 -0.0177726 0.0817898 0.0696651 0.080469 -0.0238197 0.117025
internal_weight=0 1.64122e+06 814957 141640 1.49973e+06 673317 141495 134138 102489 138792 55785.8 1.45729e+06 76473.5 42437.5 534526 103960 56736.4 30177.8 44012.8 119596 17811.9 33814.2 527322 163113 77589 42659.2 33383 43662.3 72123 35860.2
internal_count=9010206 1927500 7082706 922584 1425734 6160122 501766 439652 579944 1106309 385517 1297886 384109 127848 5053813 284457 187033 155195 271279 193692 111421 212432 5011681 1494569 666343 171677 147548 167103 631274 87238
is_linear=0
shrinkage=0.05


Tree=5
num_leaves=31
num_cat=0
split_feature=6 6 3 1 6 1 1 4 4 6 4 1 6 2 0 2 5 5 2 3 4 1 0 4 4 3 2 3 4 6
split_gain=5.65427e+06 178082 150797 50438.3 42557.9 40959.2 34368.8 28811.3 28331.9 25776.8 23111.7 22132.4 18099.2 14408.8 13574.2 12181.4 11605.3 10840 11273.6 10287.9 9525.6 14201.4 12034.9 8964.96 8729.09 8669.93 7957.15 6637.17 6577.54 6208.95
threshold=-0.12926285199450757 -0.12277089236483001 2.5000000000000004 1.0000000180025095e-35 -0.13115400700573196 1.0000000180025095e-35 1.0000000180025095e-35 0.026934853254579633 0.024280621262638847 -0.099581170153144535 0.011440343119808414 1.0000000180025095e-35 -0.13156494627024909 1.0000000180025095e-35 0.75970000000000015 1.0000000180025095e-35 3.725620842493838 4.2413008733233104 1.0000000180025095e-35 9.5000000000000018 0.0097736922521416986 1.0000000180025095e-35 1.0000000180025095e-35 0.029759714446002325 0.093415608779992623 17.500000000000004 1.0000000180025095e-35 1.5000000000000002 0.10351590944932444 -0.05601595277419924
decision_type=2 2 2 2 2 2 2 2 2 2 2 2 2 2 2 2 2 2 2 2 2 2 2 2 2 2 2 2 2 2
left_child=2 6 4 -4 13 14 -2 17 12 23 11 -6 19 20 29 27 24 18 -8 -5 21 -1 -23 -7 -9 26 -14 -13 -12 -3
right_child=1 5 3 8 10 9 7 16 -10 -11 28 15 25 -15 -16 -17 -18 -19 -20 -21 -22 22 -24 -25 -26 -27 -28 -29 -30 -31
leaf_value=-0.048474154999686415 -0.028866553443710787 0.060406699389039198 -0.028179080935051195 0.0038793755854386659 -0.048569106265443772 0.12909199750768718 0.07526789272877793 0.0097889394110901844 -0.014637067357003481 0.14367602393954762 -0.031408884958698514 0.0076890761869405832 0.048786219220113815 0.027268380752466681 0.10473539391850797 0.11919016869559883 0.087849989322471261 0.12045033092412945 0.12759585267584203 0.057984421621828264 -0.049268116985122325 0.032609679922247878 -0.027909790581193368 0.10095019589496977 0.11699504869289781 0.10677777153053983 0.11497090199346056 0.049207224675484662 0.081576924227059117 -0.041554481938128614
leaf_weight=108083.56299743056 6848.7637733072042 4847.0554128587246 38302.606693193316 22414.812509745359 12198.815274387598 149502.7014695853 49008.238180652261 17900.095356740057 20038.308607533574 1371062.3428190649 74493.171510137618 32529.738496936858 29930.306750550866 7346.4802472889423 38063.962991774082 3315.7362481802702 9675.8708628714085 37007.353322014213 13029.214434862137 14449.915565438569 287467.49861279875 8910.1073824167252 105253.98399094492 34907.653092682362 2124.0716341137886 12864.593775339425 5353.6290885210037 13671.664774514735 1310.7848239988089 2157.7877289354801
leaf_count=1088109 59549 27183 342640 162048 122783 197518 173639 115283 156592 1051140 672053 217604 146607 42132 87751 10980 30526 69377 18960 68769 2902145 62161 959266 75568 5527 34661 11267 76012 6877 15479
internal_value=0 0.135293 -0.0255092 0.0209379 -0.0356811 0.139954 0.0802753 0.0860813 0.0388464 0.141315 -0.0109601 0.0117569 0.0514529 -0.042256 0.0929639 0.0266185 0.0428873 0.0990336 0.0862579 0.025087 -0.0432581 -0.0354844 -0.0231865 0.123765 0.0211609 0.0716398 0.0588284 0.0199749 -0.0294552 0.0289983
internal_weight=0 1.73614e+06 797936 143354 654582 1.60054e+06 135594 128745 105052 1.55547e+06 137520 61716 85013.3 517062 45068.8 49517.1 29700 99044.8 62037.5 36864.7 509715 222248 114164 184410 20024.2 48148.5 35283.9 46201.4 75804 7004.84
internal_count=9010206 1927500 7082706 922584 6160122 1454639 472861 413312 579944 1324226 1106309 427379 423352 5053813 130413 304596 151336 261976 192599 230817 5011681 2109536 1021427 273086 120810 192535 157874 293616 678930 42662
is_linear=0
shrinkage=0.05


Tree=6
num_leaves=31
num_cat=0
split_feature=6 6 3 1 6 1 1 4 4 4 1 3 6 5 2 5 5 2 0 4 1 0 0 4 2 6 0 0 1 5
split_gain=4.77707e+06 152656 140431 44723.6 41159.5 33017.4 32939.9 25729.4 24542.2 21510.2 19441.3 16542.5 15129.4 14907.9 13620.2 11723 11194 12869.8 9751.13 9551.69 14236 11349.8 9478.06 9113.81 8997.05 6216.56 6111.72 6109.68 6090.63 10686
threshold=-0.12926285199450757 -0.11905514847705087 2.5000000000000004 1.0000000180025095e-35 -0.13115400700573196 1.0000000180025095e-35 1.0000000180025095e-35 0.031039433442116633 0.030279357917151771 0.0047883896309152537 1.0000000180025095e-35 33.500000000000007 -0.13135101680541586 5.3867833963027953 1.0000000180025095e-35 3.2769667020129059 4.0517471391904856 1.0000000180025095e-35 0.77545000000000008 0.0079553709849355114 1.0000000180025095e-35 1.0000000180025095e-35 0.0059500000000000013 0.093415608779992623 1.0000000180025095e-35 -0.038599081245721638 0.0068500000000000011 0.52055000000000007 1.0000000180025095e-35 3.3140206880897671
decision_type=2 2 2 2 2 2 2 2 2 2 2 2 2 2 2 2 2 2 2 2 2 2 2 2 2 2 2 2 2 2
left_child=2 6 4 -4 14 18 -2 16 11 10 -6 12 -5 24 19 23 17 -8 25 20 -1 -22 -12 -9 -7 27 -14 -3 -11 -30
right_child=1 5 3 8 9 13 7 15 -10 28 22 -13 26 -15 -16 -17 -18 -19 -20 -21 21 -23 -24 -25 -26 -27 -28 -29 29 -31
leaf_value=-0.047809087841592553 -0.018183817982546074 -0.013028578161117191 -0.027365894278777649 0.012632943447309206 -0.047060944127763432 0.10869972939363109 0.071134377562216716 0.0077937416130108381 -0.018679264622160557 -0.052595386937630967 0.10135312699276754 0.091557395852900139 0.11905993500676822 0.1310801628100664 0.025429046683928775 0.078499904428654843 0.11029175431840993 0.11835559280635716 0.095538045854592302 -0.048347371753221215 0.034874218994684777 -0.026129677501777256 0.025648678735307726 0.10820948124231983 0.13225760140136633 -0.044227305412048556 0.051509554572281097 0.10760971864781635 -0.025920810130219653 0.025645980486974834
leaf_weight=98373.311490774155 8107.7594269737601 1687.5434616655111 37489.716886803508 35163.211307175457 8760.8945986256003 129238.52079002559 62198.270400770009 17084.292804412544 17192.219882450998 15372.176397703588 4837.7839663475752 16620.979049995542 3706.4229369536042 1388778.24360241 7480.3872743099928 16200.555396184325 62211.266378715634 18787.472808495164 39208.413961842656 290943.43194259703 8288.6552919074893 95161.255598731339 28437.69466946274 2604.0443034172058 59046.063112288713 1991.9776894748211 34672.813068084419 2775.8920753598213 67022.307198636234 11818.049012176692
leaf_count=1028534 68193 10869 342640 234702 91803 178149 205047 108336 137437 152518 17506 47289 9365 1015072 42132 47841 104041 24695 84457 3045454 55196 882497 171063 6076 48281 14644 151151 11799 589173 84246
internal_value=0 0.123145 -0.0247854 0.0196498 -0.0348973 0.128077 0.0803909 0.0848537 0.0360681 -0.0105342 0.0192076 0.0465073 0.0363257 0.12929 -0.041533 0.0469971 0.0943415 0.082089 0.0861628 -0.0425495 -0.0341914 -0.0212419 0.036655 0.0210751 0.116087 0.02922 0.0580331 0.0619986 -0.0238046 -0.018191
internal_weight=0 1.80992e+06 781341 144845 636496 1.62273e+06 187194 179086 107356 136249 42036.4 90163.4 73542.4 1.57706e+06 500247 35888.9 143197 80985.7 45663.8 492767 201823 103450 33275.5 19688.3 188285 6455.41 38379.2 4463.44 94212.5 78840.4
internal_count=9010206 1927500 7082706 922584 6160122 1363271 564229 496036 579944 1106309 280372 442507 395218 1241502 5053813 162253 333783 229742 121769 5011681 1966227 937693 188569 114412 226430 37312 160516 22668 825937 673419
is_linear=0
shrinkage=0.05


Tree=7
num_leaves=31
num_cat=0
split_feature=6 6 3 1 4 1 1 6 4 5 1 4 0 0 6 3 2 6 2 6 0 3 6 4 5 6 5 4 6 0
split_gain=4.10231e+06 136029 132731 61287 40353.6 30472.5 27712.2 24642.2 24398 21411 20827.8 27263.2 21140 13325.8 12235 11252.7 9926.11 9845.28 8068.71 7747.43 7613.12 7306.13 6933.38 6149.46 5900.79 5491.06 5202.59 5164.34 5161.21 5105.28
threshold=-0.12926285199450757 -0.1153045917987864 1.5000000000000002 1.0000000180025095e-35 0.015410488180480882 1.0000000180025095e-35 1.0000000180025095e-35 -0.13156494627024909 0.011308493283845122 3.4175922930736511 1.0000000180025095e-35 0.0043893930684903897 1.0000000180025095e-35 0.087950000000000014 -0.13111896243901175 9.5000000000000018 1.0000000180025095e-35 -0.073613656121163176 1.0000000180025095e-35 -0.13109026854112835 0.75970000000000015 10.500000000000002 -0.12462816169050879 0.093415608779992623 10.304475988056664 -0.05601595277419924 3.1984648276080736 0.10982617365743691 -0.12462816169050879 0.0059500000000000013
decision_type=2 2 2 2 2 2 2 2 2 2 2 2 2 2 2 2 2 2 2 2 2 2 2 2 2 2 2 2 2 2
left_child=2 5 10 -4 7 -2 20 15 22 18 -1 12 -12 -14 27 -5 21 -8 23 -6 25 29 -7 28 -11 -3 -21 -13 -10 -9
right_child=1 6 3 4 19 8 17 16 9 24 11 14 13 -15 -16 -17 -18 -19 -20 26 -22 -23 -24 -25 -26 -27 -28 -29 -30 -31
leaf_value=-0.050439883447296288 -0.010891841492579732 0.063615899521536803 -0.034371807526689391 -0.0016655419435212219 -0.02900459306652475 0.082396577720934977 0.1103094536075318 0.091808195894762551 0.0076337036614729211 0.089283565940346907 0.064095538701696639 -0.04356923212324891 -0.033777242967521874 0.0082641282425456788 -0.010322266271282148 0.049986952230077923 0.10496008071276192 0.12127845834581204 0.10659129101409787 -0.0044428643872018491 0.087726029533142985 0.079883331392487988 0.10438620440980045 0.094714783074164741 -0.029519669000639931 -0.039898554742486728 0.059135897898820657 0.064328614167251441 0.048038444894960904 0.034151028028123608
leaf_weight=202691.93697668612 9321.9444089755416 3425.0248390734196 63577.138581104577 37350.532626055181 32853.716201655567 69570.941395238042 241258.57799427211 4269.3679324835539 22801.56278770417 37814.040525361896 9606.0637558400631 210445.33494278044 41378.299513474107 34617.477909043431 33128.685277171433 14691.667681843042 9881.8368229418993 1345052.9275764376 3539.752598375082 11368.52391307056 40564.939636766911 15705.254707567394 73949.513740837574 3137.7790161222219 1074.8958444297314 2046.7046947777271 4487.8036267459393 1114.8687759339809 12096.655625388026 38114.328592911363
leaf_count=2202895 74961 16408 631877 298737 305832 164537 247493 15929 136603 81421 49354 2201012 392297 257328 273901 64959 20886 937706 7336 88007 83114 45342 104762 7033 4901 15479 27199 9213 45746 197938
internal_value=0 0.113396 -0.0240754 0.00746572 0.0232307 0.0776843 0.1185 0.0388089 0.0813707 0.0593317 -0.0378226 -0.0300797 -0.00579258 -0.0146266 -0.0385763 0.0129161 0.0586339 0.11961 0.034387 -0.0151514 0.0802583 0.0507531 0.0937268 0.0276674 0.0859998 0.0248962 0.0135518 -0.0430006 0.0216391 0.0399589
internal_weight=0 1.86566e+06 765283 232300 168723 233307 1.63235e+06 120013 223985 80464.7 532983 330291 85601.8 75995.8 244689 52042.2 67970.8 1.58631e+06 41575.8 48710 46036.7 58089 143520 38036 38888.9 5471.73 15856.3 211560 34898.2 42383.7
internal_count=9010206 1927500 7082706 1696706 1064829 627300 1300200 643791 552339 283040 5386000 3183105 698979 649625 2484126 363696 280095 1185199 196718 421038 115001 259209 269299 189382 86322 31887 115206 2210225 182349 213867
is_linear=0
shrinkage=0.05


Tree=8
num_leaves=31
num_cat=0
split_feature=6 3 6 1 4 1 6 4 1 4 0 5 6 1 0 3 6 6 2 6 0 6 3 5 5 5 6 0 4 2
split_gain=3.56854e+06 133607 111270 59419.3 36846.7 25041.9 22198.9 22089.5 21968.2 26411 18302.4 17028.1 14835.2 14770 12914.3 9120.97 8708.06 7780.73 7538.67 7491.25 6696.27 6562.43 5888.46 5825.01 5708.4 5288.87 4931.26 5272.36 4776.74 4758.98
threshold=-0.12880129280028343 1.5000000000000002 -0.11348412853921327 1.0000000180025095e-35 0.012258156808234326 1.0000000180025095e-35 -0.13156494627024909 0.014339315983733352 1.0000000180025095e-35 0.0038085643793449048 1.0000000180025095e-35 3.7726948748059121 -0.13111896243901175 1.0000000180025095e-35 0.087950000000000014 7.5000000000000009 -0.13109026854112835 -0.065275320648848167 1.0000000180025095e-35 -0.12555503485396274 0.77545000000000008 -0.12462816169050879 10.500000000000002 3.4498615536424366 3.1984648276080736 10.304475988056664 -0.036022795684067126 0.52055000000000007 0.099390216052760619 1.0000000180025095e-35
decision_type=2 2 2 2 2 2 2 2 2 2 2 2 2 2 2 2 2 2 2 2 2 2 2 2 2 2 2 2 2 2
left_child=1 8 7 -3 6 20 15 13 -1 10 -10 19 28 -2 -12 -5 -6 -7 22 -9 26 -15 -8 -14 29 -13 27 -4 -11 -18
right_child=2 3 5 4 16 17 18 11 9 12 14 25 23 21 -16 -17 24 -19 -20 -21 -22 -23 -24 -25 -26 -27 -28 -29 -30 -31
leaf_value=-0.049935540307870542 0.0024049679853640747 -0.033550585779734486 -0.030298518425367044 -0.0020981933475115867 -0.025347415249844841 0.10361593113996077 0.03960700668879303 0.011563493371194451 0.062976389034066951 -0.042498118211034525 -0.032389202462202858 0.083743380363116418 -0.020503783513750751 0.075805345324953893 0.010637486292283792 0.043111728690415158 -0.010071016411283324 0.11302844709147231 0.095424743011811766 0.052234300926947912 0.081352079505794692 0.096100982247075362 0.073565514920931635 0.023111064841461557 0.056368193567566539 -0.01477629316174525 -0.043510134224263676 0.096918497289402092 0.048982870990403451 0.106710665182821
leaf_weight=195327.27557303756 5280.9882194846869 62291.102767214179 1198.5476202368736 33304.964798621833 35667.138913378119 262615.48711967468 42997.954327061772 21853.971153557301 9131.0463894307613 209031.65925371647 37322.104693748057 32228.16226092726 25028.336933165789 69890.32862791419 32736.120553940535 16775.341464288533 12569.8275578022 1339121.3039760739 10566.786561638117 23493.885568320751 41205.53903503716 92599.302619993687 18156.08146969974 11028.773442998528 6082.2325715199113 1422.3728199005127 1857.9992886930704 2541.2587296664715 1436.7608029171824 937.43819043785334
leaf_count=2209620 39734 635660 7808 267569 334014 251328 203483 128216 44224 2251379 362658 68390 217306 159586 237013 76400 96917 911774 20645 77855 80489 125867 49010 73588 32778 7309 14466 9328 11882 3910
internal_value=0 -0.0224727 0.105745 0.00845069 0.0232273 0.110432 0.0385904 0.0744316 -0.0366778 -0.0287274 -0.00360608 0.0526311 -0.0367969 0.0846969 -0.0122841 0.0130457 -0.0106373 0.111485 0.0564273 0.0326343 0.0743813 0.0873714 0.049689 -0.00716333 0.0161458 0.0795791 0.0230696 0.0561475 -0.0418736 -0.00196607
internal_weight=0 760391 1.89531e+06 239349 177058 1.64854e+06 121801 246769 521042 325715 79189.3 78998.4 246526 167771 70058.2 50080.3 55256.6 1.60174e+06 71720.8 45347.9 46803.3 162490 61154 36057.1 19589.5 33650.5 5597.81 3739.81 210468 13507.3
internal_count=9010206 7128056 1882150 1720386 1084726 1275193 617107 606957 5407670 3198050 643895 281770 2554155 325187 599671 343969 467619 1163102 273138 206071 112091 285453 252493 290894 133605 75699 31602 17136 2263261 100827
is_linear=0
shrinkage=0.05


Tree=9
num_leaves=31
num_cat=0
split_feature=6 3 6 1 4 1 1 5 2 1 4 6 6 4 6 0 5 6 5 2 3 6 3 0 2 0 3 5 4 6
split_gain=3.13732e+06 117526 116000 50603.3 31532.6 23809.9 23794.3 21083.7 22338.3 20557.3 25036.1 18299.6 17155.2 11611.4 11535.6 9321.28 8287.15 8032.75 7819.45 7794.27 7761.12 6616.9 6018.07 5742.27 5176.82 4707.71 4596.63 7690.32 4487.58 4359.62
threshold=-0.12926285199450757 1.5000000000000002 -0.11348412853921327 1.0000000180025095e-35 0.015410488180480882 1.0000000180025095e-35 1.0000000180025095e-35 3.9219243190762363 1.0000000180025095e-35 1.0000000180025095e-35 0.0043893930684903897 -0.13173729507853724 -0.1320464845759235 0.0047883896309152537 -0.13111896243901175 0.0041500000000000009 10.72773974544034 -0.12555503485396274 5.4531797844617014 1.0000000180025095e-35 9.5000000000000018 -0.13102277530151898 17.500000000000004 0.77545000000000008 1.0000000180025095e-35 0.48290000000000005 8.5000000000000018 6.7184089247044758 0.099390216052760619 -0.036022795684067126
decision_type=2 2 2 2 2 2 2 2 2 2 2 2 2 2 2 2 2 2 2 2 2 2 2 2 2 2 2 2 2 2
left_child=1 9 5 26 11 -2 23 8 13 -1 12 20 -11 -7 28 -14 -9 -15 24 22 -5 -6 -13 29 -8 -17 -3 -28 -12 -4
right_child=2 3 6 4 21 7 18 16 -10 10 14 19 15 17 -16 25 -18 -19 -20 -21 -22 -23 -24 -25 -26 -27 27 -29 -30 -31
leaf_value=-0.04945838072089323 -0.0078147860670997049 -0.039883924839047742 0.05151472528209227 -0.0037688074236325074 -0.027316775039242305 0.068190666082812129 0.088587250817473914 0.087326635418478238 0.097033648269610029 -0.034410067916482365 -0.042276832714630279 0.034486145594663953 0.055042983843628629 0.01628064340078339 -0.0095485127515495295 -0.0046376076697326575 -0.038320208133497104 0.05114792478513297 0.10577207236708613 0.087779467022866847 0.040707173547995017 0.012184750198025651 0.071509513366517716 0.075169518900032498 0.10687838404717542 0.044104412549947347 0.032131638535066079 -0.045900137252514558 0.044781195140469937 -0.042666989159542298
leaf_weight=186952.68730699271 10007.157906591892 47629.423052027822 3864.9773051589727 33567.753431469202 31761.141374267638 38938.727230876684 117807.99333781004 119324.84094721079 27666.481792233884 31639.325167410076 196241.35342478007 52459.345302499831 10209.973202452064 32932.634141981602 32669.839138656855 37079.370572216809 1326.9196351021528 33141.627116695046 1446405.2201486528 10942.099872559309 13858.208368584514 15913.077047593892 13880.168444007635 42333.946054264903 57594.939801946282 5717.7492500767112 6467.691929847002 6169.2932196259499 1491.4982590377331 1801.4255394041538
leaf_count=2202895 77871 515586 17136 271502 307642 92608 134175 179343 33354 319150 2198343 257745 48297 166817 273901 294633 5766 96548 986683 21744 58743 113396 34057 80489 42244 36899 53305 62986 11882 14466
internal_value=0 -0.0227094 0.0986723 0.00666705 0.0204551 0.0678303 0.103536 0.0708184 0.0570633 -0.0363236 -0.0285293 0.0336771 -0.00527495 0.0465328 -0.0370726 0.0121155 0.0859448 0.0337694 0.104563 0.0486814 0.0092274 -0.0141316 0.0422325 0.0688425 0.0945933 0.00187439 -0.0327712 -0.00596296 -0.0416202 0.0215731
internal_weight=0 734650 1.93315e+06 232648 172382 263338 1.66981e+06 253331 132679 502002 315049 124708 84646.4 105013 230403 53007.1 120652 66074.3 1.62181e+06 77281.6 47426 47674.2 66339.5 48000.3 175403 42797.1 60266.4 12637 197733 5666.4
internal_count=9010206 7082706 1927500 1696706 1064829 652307 1275193 574436 389327 5386000 3183105 643791 698979 355973 2484126 379829 185109 263365 1163102 313546 330245 421038 291802 112091 176419 331532 631877 116291 2210225 31602
is_linear=0
shrinkage=0.05


Tree=10
num_leaves=31
num_cat=0
split_feature=6 3 6 1 4 6 6 1 4 2 1 3 1 4 5 2 6 5 1 5 4 2 5 4 6 0 5 0 6 6
split_gain=2.78249e+06 133206 78378.5 55049.9 30819.8 25631.1 21570.6 20413.8 16046.2 15030.6 12943.4 10511.5 10250.1 15670.1 9077.24 9804.9 8971.67 8386.35 8011.9 8355.35 7438.5 7236.79 8107.92 7718.5 6225.82 5205.49 5048.19 4970.24 4820.22 4522.25
threshold=-0.12833013806993354 1.5000000000000002 -0.10700491660245642 1.0000000180025095e-35 0.023379216501739474 -0.13065568810064918 -0.13135101680541586 1.0000000180025095e-35 0.033481671580155657 1.0000000180025095e-35 1.0000000180025095e-35 6.5000000000000009 1.0000000180025095e-35 0.0043893930684903897 5.2284276452838947 1.0000000180025095e-35 -0.1320464845759235 3.7726948748059121 1.0000000180025095e-35 3.4498615536424366 0.091304287877312443 1.0000000180025095e-35 4.3241107269113215 0.0034405913077349324 -0.13109026854112835 0.75970000000000015 9.510296802559056 0.0041500000000000009 -0.12462816169050879 -0.05601595277419924
decision_type=2 2 2 2 2 2 2 2 2 2 2 2 2 2 2 2 2 2 2 2 2 2 2 2 2 2 2 2 2 2
left_child=1 5 8 -3 6 9 11 25 10 12 -2 -5 -1 16 15 28 -14 20 -7 -20 -10 22 23 -8 -6 -4 -24 -18 -12 -9
right_child=2 3 7 4 24 18 21 29 17 -11 14 -13 13 -15 -16 -17 27 -19 19 -21 -22 -23 26 -25 -26 -27 -28 -29 -30 -31
leaf_value=-0.04915863681460856 0.010340846038391747 -0.032069311133943887 0.015017326484355215 -0.0045752651615048592 -0.03145306343429416 -0.046588490265161112 0.049692200746678059 0.093024018957910765 0.013224317140325995 0.029463237279292245 0.050337266619675226 0.037653630555453566 -0.033963611619156779 -0.040829967161756298 0.091120128464335357 0.093508350169924606 0.037882456994271896 0.065608442021721378 -0.0072543018384106997 0.040056829564404255 0.081098071615072528 0.08162900745406354 0.073298782720027697 0.011795918120112492 0.008301304577051442 0.071214056623213062 -0.057232252311271541 -0.0065859587231994476 0.071397668261563491 0.10036005898616518
leaf_weight=171452.21013934165 7372.9617678150535 59544.440059050918 4564.1687505245209 40322.569018147886 24694.928717106581 8370.6395258009434 29506.76459415257 249536.64766591787 22098.70959995687 8017.3299776464701 44243.768787935376 23223.24198487401 30580.289174288511 195005.75182911009 81011.767668455839 34990.079257428646 7750.1192782372236 25461.226613931358 31651.840589098632 13233.887533456087 4938.7976117804646 14226.051098160446 20840.857169084251 24670.1887832582 16381.36907248944 42418.99320012331 768.00625666230917 33209.299824982882 70399.766249135137 1328360.6420355886
leaf_count=2111674 47957 639883 26733 330881 249727 97289 111880 215525 103405 44930 124329 104110 317945 2251547 88232 35639 39139 52873 244237 66343 9343 26334 55633 132448 114222 77040 4270 279327 121000 886311
internal_value=0 -0.0194646 0.0939561 0.0100002 0.0228705 -0.0344651 0.033161 0.0982328 0.0700359 -0.0383798 0.0755547 0.0108576 -0.0396216 -0.033487 0.0776393 0.0703408 -0.0134714 0.0450152 -0.00168017 0.00669468 0.0256225 0.0489066 0.0427642 0.0324356 -0.0155989 0.0657548 0.0686595 0.00182811 0.0632699 0.0991999
internal_weight=0 753450 1.9154e+06 254178 194634 499271 153558 1.62488e+06 290517 446015 238018 63545.8 437998 266545 230645 149634 71539.7 52498.7 53256.4 44885.7 27037.5 90011.9 75785.8 54177 41076.3 46983.2 21608.9 40959.4 114644 1.5779e+06
internal_count=9010206 7221819 1788387 1769388 1129505 5452431 765556 1205609 582778 5044562 417157 434991 4999632 2887958 369200 280968 636411 165621 407869 310580 112748 330565 304231 244328 363949 103773 59903 318466 245329 1101836
is_linear=0
shrinkage=0.05


Tree=11
num_leaves=31
num_cat=0
split_feature=6 3 6 1 4 1 1 4 4 6 6 1 6 5 2 5 4 0 6 3 2 3 6 3 5 0 6 4 5 4
split_gain=2.48556e+06 110355 94961.9 44502.4 25885 22106.3 21426 23336.1 16670.7 16319 16098.5 12048.8 11976.1 8672.35 9334.71 8002.2 7685.61 7470.33 7215.72 7208.09 6715.12 6641.86 4629.49 4563.64 7405.54 4550.06 4538.16 4386.08 4382.82 4291.05
threshold=-0.12880129280028343 1.5000000000000002 -0.11255266620630784 1.0000000180025095e-35 0.023379216501739474 1.0000000180025095e-35 1.0000000180025095e-35 0.005271839029447326 0.031305718404944463 -0.13173729507853724 -0.1320464845759235 1.0000000180025095e-35 -0.13111896243901175 4.7492611597348082 1.0000000180025095e-35 3.9219243190762363 0.093415608779992623 0.0041500000000000009 -0.079199556093282775 6.5000000000000009 1.0000000180025095e-35 12.500000000000002 -0.12462816169050879 9.5000000000000018 6.7184089247044758 0.52055000000000007 -0.13109026854112835 0.099390216052760619 3.3140206880897671 0.0031381122722897322
decision_type=2 2 2 2 2 2 2 2 2 2 2 2 2 2 2 2 2 2 2 2 2 2 2 2 2 2 2 2 2 2
left_child=1 6 8 23 9 25 -1 10 11 19 -8 -2 27 14 22 16 -10 -12 -7 -5 21 29 -13 -3 -25 -4 -6 -9 -14 -11
right_child=2 3 5 4 26 18 7 12 15 20 17 13 28 -15 -16 -17 -18 -19 -20 -21 -22 -23 -24 24 -26 -27 -28 -29 -30 -31
leaf_value=-0.048497009953328118 0.0013804224985971305 -0.038176075685271094 -0.026899774264957627 -0.0075842704053170193 -0.0306488901715261 0.085003084676584129 -0.03364463914609727 -0.041552868489341609 0.0092467111117288669 0.040313301367872659 0.045498184483073849 0.043561310148108601 -0.020692848270100664 0.08230166547274663 0.085520326511675265 0.059339427638876334 0.077959967916771775 0.0010645984867643178 0.095073000335075639 0.031336523106383705 0.07541666963572323 0.060776330625606223 0.064875615161290284 0.03619513912091242 -0.044437279508863801 0.062536093670558041 0.0053392422708993057 0.044411014283789546 0.018150705171539602 0.013450350395284062
leaf_weight=173078.55499389768 6777.9765870645642 46197.909884370863 1465.5119335949421 33143.8293595016 24091.268565133214 203373.11039364338 33174.798045821488 176177.1722092852 26743.740067027509 31668.262806162238 11747.800646692514 51812.458748817444 22360.693723164499 78296.465836629272 30626.743913903832 21353.5472047925 4799.8330191969872 48557.386093080044 1420109.9320703745 18555.921221964061 12575.722766950727 20357.540554106236 50119.62694054842 5879.9079344645143 5521.6973802149296 48020.278136387467 13765.166225075722 1496.4341618344188 10754.784145399928 28019.075334571302
leaf_count=2209620 49976 527833 9753 280873 249727 194751 356216 2119466 136003 136318 55792 156744 204279 94487 33242 48731 9127 378340 957292 84722 24367 51322 91178 47985 59842 100866 98959 11882 72075 158438
internal_value=0 -0.0205505 0.0883636 0.00712425 0.0192364 0.0928081 -0.0344517 -0.0264623 0.0608791 0.0288892 -0.0056692 0.0669983 -0.0356836 0.0691076 0.0613144 0.0357031 0.0197025 0.00972052 0.0938115 0.00638507 0.0414508 0.0361144 0.0540415 -0.0311843 -0.00285443 0.0598875 -0.0175631 -0.0408288 -0.00807778 0.027703
internal_weight=0 717124 1.9435e+06 239776 182177 1.67297e+06 477348 304269 270530 144320 93480 217633 210789 210855 132559 52897.1 31543.6 60305.2 1.62348e+06 51699.8 92620.6 80044.9 101932 57599.5 11401.6 49485.8 37856.4 177674 33115.5 59687.3
internal_count=9010206 7128056 1882150 1720386 1084726 1262662 5407670 3198050 619488 736040 790348 425627 2407702 375651 281164 193861 145130 434132 1152043 365595 370445 346078 247922 635660 107827 110619 348686 2131348 276354 294756
is_linear=0
shrinkage=0.05


Tree=12
num_leaves=31
num_cat=0
split_feature=6 3 6 1 4 6 1 6 6 0 4 3 4 1 4 0 1 5 2 5 0 2 5 4 6 0 1 0 3 5
split_gain=2.23496e+06 116424 74422.7 45380.7 24256.9 23756.8 19467 16571.1 14185.7 14147.6 14147.4 8248.42 7575.94 7527.28 11063.8 7878.44 6926.96 7073.83 6579.84 8067.94 5852.49 5534.94 6490.35 6243.61 5372.84 4673.84 4462.14 4442.01 4391.79 6679.21
threshold=-0.12833013806993354 1.5000000000000002 -0.10514092576596491 1.0000000180025095e-35 0.023379216501739474 -0.13061545174626668 1.0000000180025095e-35 -0.13135101680541586 -0.12462816169050879 1.0000000180025095e-35 0.0025848600194241528 5.5000000000000009 0.018375385962387466 1.0000000180025095e-35 0.0043893930684903897 0.22925000000000004 1.0000000180025095e-35 3.4498615536424366 1.0000000180025095e-35 4.1026092131977068 0.26365000000000005 1.0000000180025095e-35 4.1510089048756029 0.0031872327994133119 -0.13109026854112835 0.75970000000000015 1.0000000180025095e-35 0.38755000000000006 8.5000000000000018 6.7184089247044758
decision_type=2 2 2 2 2 2 2 2 2 2 2 2 2 2 2 2 2 2 2 2 2 2 2 2 2 2 2 2 2 2
left_child=1 5 8 28 7 9 25 11 12 10 -1 -5 26 -11 15 -15 -7 -18 19 -10 -21 22 23 -9 -6 -4 -2 -14 -3 -30
right_child=2 3 6 4 24 16 -8 21 18 13 -12 -13 27 14 -16 -17 17 -19 -20 20 -22 -23 -24 -25 -26 -27 -28 -29 29 -31
leaf_value=0.043862183672812423 -0.014473096073300338 -0.037918125067680837 0.0091752278010662873 -0.0054747185095683076 -0.029851346776431704 -0.045387874212336976 0.089982822597729439 0.043615598512768285 0.051802072238823632 -0.04892279451712709 -0.024999324995291009 0.03088962048555214 0.045299798952512613 -0.025041964432634851 -0.041249677020311959 0.020438808063644443 -0.0066865739892037167 0.036787938779942263 0.08854097107815645 0.011752823792319908 0.075762516516777095 0.07052983974960933 0.05880328350887222 0.0097168438368296049 0.0073180515847797584 0.062687555674247303 0.057473191229841451 0.0046755679330007958 0.029500995332003035 -0.043995045438518489
leaf_weight=9501.7578922435641 2228.3908534049988 44149.370511747897 4502.1466357260942 37771.363968223333 23513.058128677309 7581.4874755442142 1558385.0908780992 28875.511730104685 67812.748535312712 147113.62896362692 34688.498971953988 26559.101175256073 12708.207021132112 51844.786131218076 164920.50779182464 11664.187154904008 31316.284974269569 13343.58624625206 37099.731272615492 3692.6988980099559 108348.1945514977 14828.252539455891 24154.9461087659 25648.981147803366 16576.658709838986 43561.650149360299 65519.746350392699 14301.741643160582 6723.6595535054803 5722.0322504118085
leaf_count=54050 19233 521454 25869 314606 249727 94737 1087617 104655 147056 1964982 393973 120385 43469 519419 2033033 84073 244237 63927 33150 10067 140705 26334 64650 134926 114222 76183 133148 71890 54289 64140
internal_value=0 -0.0182968 0.0846779 0.00895971 0.0202493 -0.0329955 0.0890162 0.0290708 0.0623196 -0.0369531 -0.0101928 0.00953845 0.04618 -0.040102 -0.0344212 -0.0166889 -0.00119873 0.00630285 0.0693689 0.0654141 0.0736529 0.0425085 0.0372275 0.0276692 -0.0144822 0.057675 0.0551067 0.0237893 -0.0305229 -0.00428955
internal_weight=0 726498 1.91816e+06 254523 197928 471975 1.60645e+06 157838 311711 419733 44190.3 64330.5 94758.1 375543 228429 63509 52241.4 44659.9 216953 179854 112041 93507.7 78679.4 54524.5 40089.7 48063.8 67748.1 27009.9 56595.1 12445.7
internal_count=9010206 7221819 1788387 1769388 1129505 5452431 1189669 765556 598718 5049530 448023 434991 267740 4601507 2636525 603492 402901 308164 330978 297828 150772 330565 304231 239581 363949 102052 152381 115359 639883 118429
is_linear=0
shrinkage=0.05


Tree=13
num_leaves=31
num_cat=0
split_feature=6 3 6 1 1 4 4 1 6 6 1 5 2 6 2 3 4 0 5 6 0 5 4 5 0 0 3 5 2 0
split_gain=2.01884e+06 108768 73768.2 41264.2 23176.8 23216.2 21721.5 19384.9 18822.7 15202.4 13233.3 14146.5 14333 9322.76 8451.85 8155.16 7174.74 7087.46 6450.67 6206.18 5722.72 5188.27 4518.12 4297.64 4733.4 5258.75 4246 6622.97 4204.03 4128.96
threshold=-0.12833013806993354 1.5000000000000002 -0.10514092576596491 1.0000000180025095e-35 1.0000000180025095e-35 0.011838477918599532 0.027411839425858602 1.0000000180025095e-35 -0.1320464845759235 -0.13216223362764365 1.0000000180025095e-35 4.7492611597348082 1.0000000180025095e-35 -0.13111896243901175 1.0000000180025095e-35 10.500000000000002 0.009401410362362991 0.0038500000000000006 10.655139339873823 -0.13050113970720303 0.010550000000000002 2.3502401828962083 0.099390216052760619 5.4531797844617014 0.52945000000000009 0.15605000000000002 13.500000000000002 6.9749464192404993 1.0000000180025095e-35 0.75970000000000015
decision_type=2 2 2 2 2 2 2 2 2 2 2 2 2 2 2 2 2 2 2 2 2 2 2 2 2 2 2 2 2 2
left_child=1 4 10 26 -1 8 9 29 -6 -5 -2 12 16 22 15 20 -12 -10 -13 -19 -11 -18 -7 -9 25 -25 -3 -28 -8 -4
right_child=2 3 7 6 5 13 28 23 17 14 11 18 -14 -15 -16 -17 21 19 -20 -21 -22 -23 -24 24 -26 -27 27 -29 -30 -31
leaf_value=-0.047570730782549475 0.0041590316432217004 -0.035793282243944007 0.0086648888116084358 -0.0026021693227918584 -0.034831420944441353 -0.0432477708749235 -0.018933127984303622 0.077827235968819602 0.034115243844148976 0.066675257109562278 0.055547118723912048 0.075135320711123665 0.079330614659903431 -0.011552236192255576 0.067877356683850962 0.051661462039156308 0.0038734553404851748 -0.010207240525598019 -0.025498521034971557 0.024225409608898907 0.017571543959836251 0.03949224250634125 0.043937914064453687 0.087027858503488875 0.087284045735727692 0.018599165140805934 0.042247718569071849 -0.044876089166381805 0.088539050125060359 0.05880068238434203
leaf_weight=160627.0831997022 10737.522824443877 46414.900322183967 4528.2556879371405 34593.07348510623 45244.940721929073 132584.49599591643 34947.732776388526 139664.71691115201 16722.057428047061 6444.9458826854825 73532.795113950968 120413.15778377652 37483.22308601439 30276.557202838361 16732.749239139259 30861.235702157021 12407.844438433647 54981.720719479024 1613.7573944032192 17174.236085399985 74776.192228265107 58076.730628460646 1502.8031007125974 5951.2666350901127 1394938.218463093 5315.3032213300467 4736.4429834038019 4043.5202064588666 934.26817205548286 44104.326571241021
leaf_count=2217499 65300 556570 25869 251561 528970 1738769 327382 127374 95158 23899 138228 136234 38909 258591 31757 83097 62035 512251 5512 89311 406900 152500 11882 4046 946244 9953 36040 47273 4909 76183
internal_value=0 -0.0177234 0.0808509 0.00849598 -0.0322567 -0.0240156 0.0190917 0.0852147 -0.0085789 0.026827 0.0587101 0.0606399 0.0517891 -0.0366122 0.0347301 0.0297816 0.0446208 0.00478542 0.0738045 -0.00201174 0.021468 0.033222 -0.0422706 0.0861925 0.0870233 0.0547448 -0.0297617 0.00212376 -0.0161348 0.0541325
internal_weight=0 713599 1.90877e+06 254485 459114 298487 199290 1.5945e+06 134123 163408 314265 303528 181501 164364 128815 112082 144017 88878 122027 72156 81221.1 70484.6 134087 1.54587e+06 1.4062e+06 11266.6 55194.9 8779.96 35882 48632.6
internal_count=9010206 7221819 1788387 1769388 5452431 3234932 1129505 1189669 1225690 797214 598718 533418 391672 2009242 545653 513896 352763 696720 141746 601562 430799 214535 1750651 1087617 960243 13999 639883 83313 332291 102052
is_linear=0
shrinkage=0.05


Tree=14
num_leaves=31
num_cat=0
split_feature=6 6 3 1 1 1 4 4 6 6 4 1 2 5 4 3 4 2 6 6 4 2 6 0 3 5 5 0 0 5
split_gain=1.83266e+06 97131.6 85542.4 31567.3 21918.7 19750.2 20925.3 18060.8 15718.6 14309.9 10308.8 9602.45 9388.47 8753.86 8221.95 7409.95 7058.24 7026.48 6827.6 5592.77 5251.7 4950.15 4842.98 4092.05 4055.36 6194.73 4006.16 4050.68 3954.3 3901.92
threshold=-0.12926285199450757 -0.11348412853921327 1.5000000000000002 1.0000000180025095e-35 1.0000000180025095e-35 1.0000000180025095e-35 0.011838477918599532 0.015410488180480882 -0.1320464845759235 -0.12555503485396274 6.0754336179164111e-05 1.0000000180025095e-35 1.0000000180025095e-35 5.3302974810274764 0.027894427060756923 44.500000000000007 0.099390216052760619 1.0000000180025095e-35 -0.13211179911892459 -0.13111896243901175 0.034926849193949394 1.0000000180025095e-35 -0.13102277530151898 0.52055000000000007 22.500000000000004 6.9749464192404993 3.725620842493838 0.016550000000000006 0.31885000000000002 3.1984648276080736
decision_type=2 2 2 2 2 2 2 2 2 2 2 2 2 2 2 2 2 2 2 2 2 2 2 2 2 2 2 2 2 2
left_child=2 9 5 24 -3 -1 8 10 -7 11 -5 -2 15 21 26 18 19 -10 -12 -8 -11 -6 -9 -15 -4 -26 27 -13 -16 -24
right_child=1 4 3 7 13 6 16 22 17 20 12 14 -14 23 28 -17 -18 -19 -20 -21 -22 -23 29 -25 25 -27 -28 -29 -30 -31
leaf_value=-0.047112204424168802 -0.030989576681243969 0.049206594489435818 -0.033811660759268919 -0.056086581741218305 0.065153826542840354 -0.034072204176267128 -0.042642820644331669 -0.024323014520781092 -0.00079090932974944987 0.062780947436105849 -0.0043680004354500999 0.073421642417503194 0.065723502671990938 0.061478562914604365 0.037372041577575808 0.05683210184796527 0.052743623330102213 0.060619247212460495 0.025114623275197145 -0.016243594359964707 0.039226467531149639 0.083788532367576246 -0.0060085829486277512 0.083830190465215199 0.059126576862317537 -0.043184812834437085 0.058929934682343865 0.031309315356782989 -0.0042230267824874155 0.047710764553038049
leaf_weight=153037.43342502415 5153.7705343067646 51776.585652895272 47151.770615279675 3872.3403836116195 109042.88213701546 43973.079689472914 127862.42104694992 29274.226638920605 78989.299693137407 137277.32915178686 26540.912218131125 6587.5109303593636 13775.71555365622 20777.823289647698 9664.4396996051073 13524.331850990653 2149.5013415291905 4949.8721509799361 75491.457181833684 23796.25132124126 28593.217212423682 52940.12750838697 11612.745101653039 1413467.4984820187 3085.3900356441736 2842.5548869669437 35509.493392765522 42875.476339042187 13977.749641649425 4768.3082162812352
leaf_count=2202895 49440 112091 575980 26962 124738 528970 1738769 307642 658647 210573 200915 12498 26924 23455 37622 30757 14863 20531 358233 221325 74955 39172 87896 975737 21350 34547 61964 126865 78390 25500
internal_value=0 0.0766002 -0.0195715 0.00494916 0.0812235 -0.0326531 -0.0247985 0.0149978 -0.00985578 0.0493532 0.0242996 0.035696 0.0267065 0.082262 0.0388602 0.0220552 -0.0372254 0.00283043 0.0174455 -0.0385006 0.0587206 0.0712441 -0.0121413 0.0835064 -0.0289114 0.0100664 0.0461166 0.0369179 0.0127802 0.00962841
internal_weight=0 1.92764e+06 666698 231940 1.648e+06 434758 281720 178860 127912 279639 133205 113768 129332 1.59623e+06 108615 115557 153808 83939.2 102032 151659 165871 161983 45655.3 1.43425e+06 53079.7 5927.94 84972.5 49463 23642.2 16381.1
internal_count=9010206 1927500 7082706 1696706 1275193 5386000 3183105 1064829 1208148 652307 643791 366779 616829 1163102 317339 589905 1974957 679178 559148 1960094 285528 163910 421038 999192 631877 55897 201327 139363 116012 113396
is_linear=0
shrinkage=0.05


Tree=15
num_leaves=31
num_cat=0
split_feature=6 3 6 1 1 4 1 4 6 6 5 2 6 3 4 1 0 0 5 6 6 1 5 3 5 4 4 5 0 5
split_gain=1.67042e+06 94952.4 73396.1 34180.9 22501.4 21221.1 19510 17648.4 16319.8 12812.7 12364.7 14988.4 8803.43 8368.54 6996.22 6992.99 6060.95 5597.98 5587.06 5357.97 4666.15 4307.89 4295.87 3988.29 5557.77 3905.02 3825.95 3806.93 3753.24 3601.37
threshold=-0.12833013806993354 1.5000000000000002 -0.10514092576596491 1.0000000180025095e-35 1.0000000180025095e-35 0.011838477918599532 1.0000000180025095e-35 0.030279357917151771 -0.1320464845759235 -0.13065568810064918 4.0859410030639109 1.0000000180025095e-35 -0.13111896243901175 8.5000000000000018 0.0047883896309152537 1.0000000180025095e-35 0.0038500000000000006 1.0000000180025095e-35 11.701274624512228 -0.13050113970720303 -0.060636133885891903 1.0000000180025095e-35 8.6058448848231723 8.5000000000000018 7.3534021254575324 0.099390216052760619 0.10982617365743691 2.3502401828962083 0.76665000000000016 4.6774800307930642
decision_type=2 2 2 2 2 2 2 2 2 2 2 2 2 2 2 2 2 2 2 2 2 2 2 2 2 2 2 2 2 2
left_child=1 4 10 23 -1 8 28 9 -6 13 11 14 25 17 -2 -12 -10 -5 -17 -18 -8 -16 -15 -3 -25 -7 -9 -23 -4 -11
right_child=2 3 6 7 5 12 20 26 16 29 15 -13 -14 22 21 18 19 -19 -20 -21 -22 27 -24 24 -26 -27 -28 -29 -30 -31
leaf_value=-0.046629522676571063 0.049875331955733175 -0.035817181256394826 0.0063543701709702126 0.055534012507601371 -0.033314802400465963 -0.042035950250209508 0.073080322055870797 -0.020505876013824902 0.030930091995833915 0.034278239027272589 0.017228156127016944 0.071812450971290187 -0.010791235383633324 0.038834630501139937 -0.050216273371209777 0.065166624288172922 -0.0098302196040122927 -0.00036164063391199125 -0.069469828169526529 0.021952949100735669 0.081034833406886303 0.0046803233674025391 -0.049256406309064034 0.022575228194090129 -0.047497152550428877 0.036217618088388998 0.058603471357367334 0.032580831988748053 0.052558070149788708 0.061899553768821038
leaf_weight=148219.72008127719 44386.187961742282 40399.08016179502 4874.9830246046185 4795.1484904587269 42755.400387719274 123338.23717338592 215072.51938128471 31088.163180969656 17189.725119449198 50527.427862606943 8243.4996597990394 33713.967517763376 29825.406894236803 28809.449422858655 1862.0512392669916 153781.79297594726 54587.980775848031 68016.256480373442 774.42566961050034 17514.577731765807 1291125.4592808783 15433.631114006042 1453.8114602938294 7701.5407571494579 4473.3785932287574 1615.1220989301801 1607.3736660704017 58830.247236952186 44673.775955438614 15397.118712618947
leaf_count=2217499 87362 521454 26439 17066 528970 1738769 189099 300312 95158 170850 44010 36160 258591 99470 14705 187747 512251 490965 3327 89311 898518 70454 8312 62087 56342 11882 10410 154953 75613 32120
internal_value=0 -0.016624 0.0744151 0.00764968 -0.0308111 -0.0226368 0.0788834 0.0170092 -0.00791247 0.0235146 0.0524878 0.0423426 -0.0351986 0.0125044 0.0340982 0.0620988 0.00425081 0.00331949 0.064492 -0.00210971 0.079899 0.0248991 0.0346028 -0.0282571 -0.00317117 -0.0410245 -0.0166167 0.0267825 0.0480122 0.0407294
internal_weight=0 689315 1.87277e+06 254269 435046 286826 1.55575e+06 201695 132048 168999 317026 154226 154779 103075 120512 162800 89292.3 72811.4 154556 72102.6 1.5062e+06 76125.9 30263.3 52574 12174.9 124953 32695.5 74263.9 49548.8 65924.5
internal_count=9010206 7221819 1788387 1769388 5452431 3234932 1189669 1129505 1225690 818783 598718 363634 2009242 615813 327474 235084 696720 508031 191074 601562 1087617 240112 107782 639883 118429 1750651 310722 225407 102052 202970
is_linear=0
shrinkage=0.05


Tree=16
num_leaves=31
num_cat=0
split_feature=6 3 6 1 1 4 1 4 6 6 4 6 6 3 6 2 4 2 5 6 4 0 6 5 5 4 5 3 3 5
split_gain=1.52753e+06 88610.7 73403.1 31121.7 22159 20245.3 19421 15947.1 15199.5 12397.8 10344 8588.66 8560.84 6704.8 6240.55 5477.07 5294.57 4989.82 4934.7 4860.23 4727.92 4590.54 4454.6 4268.91 4063.09 4027.17 4573.16 3996.85 3819.16 5499.85
threshold=-0.12833013806993354 1.5000000000000002 -0.10421780737751667 1.0000000180025095e-35 1.0000000180025095e-35 0.011838477918599532 1.0000000180025095e-35 0.012258156808234326 -0.1320464845759235 -0.12369665300235637 6.0754336179164111e-05 -0.13111896243901175 -0.13209297888864888 4.5000000000000009 -0.13102277530151898 1.0000000180025095e-35 0.010653122040380521 1.0000000180025095e-35 3.2769667020129059 -0.13050113970720303 0.093415608779992623 0.35975000000000007 -0.05601595277419924 4.0689902272260703 8.791714030702682 0.0021651811297893598 0.89587973461402759 64.500000000000014 5.5000000000000009 6.3162613441348103
decision_type=2 2 2 2 2 2 2 2 2 2 2 2 2 2 2 2 2 2 2 2 2 2 2 2 2 2 2 2 2 2
left_child=1 4 9 28 -1 8 -4 10 -6 13 -5 -7 -12 21 -9 19 -11 27 20 25 -16 -2 -8 -18 -20 26 -10 -14 -3 -30
right_child=2 3 6 7 5 11 22 14 15 16 12 -13 17 -15 18 -17 23 -19 24 -21 -22 -23 -24 -25 -26 -27 -28 -29 29 -31
leaf_value=-0.046157799240676062 0.040439040606013658 -0.036760337932821886 0.045504282013847076 -0.055487734116539449 -0.032559299055574399 -0.040396949400867743 0.070765823944241538 -0.02089347262803086 0.037989807585296839 0.06342668439918378 0.0034474303349425815 -0.010336264130332307 0.025729709078017266 0.049729727734954272 -0.0069096692131671291 0.053889030156832766 0.033945537500427066 0.059638543233394695 0.060209222052286772 0.023158933874988241 0.14108741566663049 0.013105837078432487 0.078453310908816534 0.057851780321690943 -0.054037513403580741 -0.01599177702355754 -0.0054869235439791685 0.059469710806844503 0.018692181227801238 -0.040002834830841771
leaf_weight=142395.67406972498 28528.963297404349 35176.137951925397 49652.575895033777 3902.3743293434381 41590.034800820053 120663.84989463538 221808.00190646946 32194.271388314664 9145.9569026455283 131945.99556188285 30279.594343215227 29587.532733634114 86304.35043605417 54922.354607887566 16718.056801982224 5187.8127887621522 34734.885348811746 15612.139331966639 6539.3794923946261 19068.982366532087 557.6393284201622 33280.738240391016 1252747.7369460464 40385.696755595505 883.35629853606224 38178.457860432565 17858.963027760386 9771.1986130177975 8978.6646017953753 7184.6888005882502
leaf_count=2217499 74175 472229 101346 27485 528970 1750651 195070 335977 56595 163618 205857 258591 363838 108424 117428 20624 79708 26400 27000 94379 1995 122855 886311 56880 6049 375590 149532 17476 79078 88576
internal_value=0 -0.0160857 0.0716683 0.00725873 -0.0300865 -0.0219507 0.0762613 0.0160637 -0.00758633 0.0500481 0.0248209 -0.0344774 0.0270284 0.0370175 -0.00638911 0.00402621 0.057394 0.0334214 0.0125172 0.000955917 -0.0021325 0.0257218 0.0772969 0.0467978 0.0466131 -0.00553943 0.00923766 0.0291612 -0.0275161 -0.00739804
internal_weight=0 677779 1.84801e+06 254102 423677 281282 1.52421e+06 202762 131030 323799 145870 150251 141967 116732 56892.7 89440.2 207067 111688 24698.4 84252.4 17275.7 61809.7 1.47456e+06 75120.6 7422.74 65183.4 27004.9 96075.5 51339.5 16163.4
internal_count=9010206 7221819 1788387 1769388 5452431 3234932 1182727 1129505 1225690 605660 641056 2009242 613571 305454 488449 696720 300206 407714 152472 676096 119423 197030 1081381 136588 33049 581717 206127 381314 639883 167654
is_linear=0
shrinkage=0.05


Tree=17
num_leaves=31
num_cat=0
split_feature=6 6 6 3 1 2 1 4 4 1 5 2 5 6 3 4 5 0 4 5 1 5 5 4 4 4 0 5 4 0
split_gain=1.4023e+06 96171 56528.1 36340.7 23058.3 21981.1 19144.3 16462.8 15465.9 15538.6 12827.7 10105.1 13717.3 8742.87 8741.81 7536.74 6544.46 8397.74 6115.55 7155.99 5909.99 5590.97 5521.5 5315.97 4968.66 4668.57 4621.99 4558.19 4531.66 3807.64
threshold=-0.12740961557531644 -0.13109026854112835 -0.099581170153144535 3.5000000000000004 1.0000000180025095e-35 1.0000000180025095e-35 1.0000000180025095e-35 0.027171838253860058 0.010280409268784941 1.0000000180025095e-35 7.7059378970470016 1.0000000180025095e-35 4.4248287033199558 -0.1320464845759235 64.500000000000014 0.093415608779992623 4.1510089048756029 0.0077500000000000008 0.0017946227672781456 1.2424533248940002 1.0000000180025095e-35 3.2769667020129059 8.791714030702682 0.0092747311082021829 0.0035440029437845732 7.2819027051622236e-05 0.50005000000000011 11.701274624512228 0.031305718404944463 0.08865000000000002
decision_type=2 2 2 2 2 2 2 2 2 2 2 2 2 2 2 2 2 2 2 2 2 2 2 2 2 2 2 2 2 2
left_child=1 3 11 5 -3 8 -4 16 9 -1 14 12 23 -11 25 21 17 -6 19 -15 -14 -9 29 -2 26 -5 -19 -22 -27 -18
right_child=2 4 6 10 7 -7 -8 15 -10 13 -12 -13 20 18 -16 -17 22 24 -20 -21 27 -23 -24 -25 -26 28 -28 -29 -30 -31
leaf_value=-0.040536752927697511 0.045394646773425681 -0.039697537151824433 0.04341726103852462 -0.04801999233961482 0.062365505279623139 0.034981185571326942 0.075168194607725711 -0.024146691433374445 -0.041709977798439858 -0.027946875550507563 -0.046692213192171837 0.071291486444570548 0.016979436728953554 0.038146346375927384 0.0649456751214149 0.069095366272426573 0.0098405826811302621 0.019627225287523871 -0.013116887291174299 -0.0093509137893385153 0.060683877698729898 0.016197077677011337 -0.029267456103769126 0.024739224117847909 0.0042789466790946985 0.019039410291975725 0.058412455358760773 -0.065959091231183486 -0.026066827852484487 0.056273698424622293
leaf_weight=75425.642135344446 61369.881852097809 16917.532681461424 49121.507979691029 3332.0122174918652 11584.661152407527 12441.25430393219 1416596.6340656281 27356.991813704371 217860.41318829358 51117.073315434158 9177.7095673233271 51294.29398368299 8467.6777555942535 16652.43080201745 8141.0657420158386 3129.7540320530534 5049.0471462309361 32395.749833650887 45017.806346148252 15139.509770162404 136212.75404313207 12516.797833569348 2296.5669431164861 63257.671091608703 40080.30074198544 42600.396254748106 10068.69770847261 714.23529095947742 6405.5910208076239 35163.931774996221
leaf_count=1193043 109726 235818 98406 30801 30492 59368 1051140 240432 3277225 613760 100352 48639 39121 96448 24588 11951 22876 118703 401881 126871 157016 71708 11021 177138 215312 265687 24810 2927 68666 84280
internal_value=0 -0.0135515 0.0699404 -0.0251342 0.0161073 -0.0305189 0.0741041 0.0213627 -0.0324536 -0.0225368 0.0083884 0.0509474 0.0470828 -0.011924 0.0167469 -0.005618 0.0298541 0.0225005 -0.00126068 0.0155279 0.0575164 -0.0114824 0.0461373 0.0349105 0.0169057 0.00924968 0.0288235 0.0600233 0.0131436 0.0504437
internal_weight=0 699871 1.78703e+06 503311 196560 433654 1.46572e+06 179642 421213 203352 69656.8 321317 270022 127927 60479.1 43003.5 136639 94129.4 76809.7 31791.9 145395 39873.8 42509.5 124628 82544.7 52338 42464.4 136927 49006 40213
internal_count=9010206 7326093 1684113 6258690 1067403 5768596 1149546 831585 5709228 2432003 490094 534567 485928 1238960 389742 324091 507494 389317 625200 223319 199064 312140 118177 286864 358825 365154 143513 159943 334353 107156
is_linear=0
shrinkage=0.05


Tree=18
num_leaves=31
num_cat=0
split_feature=6 3 6 1 6 1 6 0 5 2 4 4 1 4 0 3 1 1 5 1 4 5 5 4 4 4 2 5 2 4
split_gain=1.29072e+06 89238.7 57182.4 29607.7 24016 19498.4 15455.1 13189.5 9670.03 11313.8 9431.59 9408.93 7496.27 9879.77 6606.28 6027.5 5995.21 5671.27 6512.97 5405.92 5000.04 7323.66 4739.12 4675.53 4652.94 4755.3 4390.05 4381.14 4009.78 3879.56
threshold=-0.12740961557531644 1.5000000000000002 -0.099581170153144535 1.0000000180025095e-35 -0.13065568810064918 1.0000000180025095e-35 -0.13065568810064918 1.0000000180025095e-35 4.7492611597348082 1.0000000180025095e-35 0.023600689755612452 0.0025848600194241528 1.0000000180025095e-35 0.0036499998707354552 0.29120000000000007 45.500000000000007 1.0000000180025095e-35 1.0000000180025095e-35 3.0201273556387074 1.0000000180025095e-35 0.0044996988136100065 3.3140206880897671 8.3874261268755443 6.5063154347899164e-05 0.028327463286714798 0.093415608779992623 1.0000000180025095e-35 11.701274624512228 1.0000000180025095e-35 0.099390216052760619
decision_type=2 2 2 2 2 2 2 2 2 2 2 2 2 2 2 2 2 2 2 2 2 2 2 2 2 2 2 2 2 2
left_child=1 4 8 -3 7 -4 10 11 9 19 15 -1 -9 14 -14 23 -10 -6 -19 -2 -8 28 -23 -5 -21 -26 -25 -18 -22 -13
right_child=2 3 5 6 17 -7 20 12 16 -11 -12 29 13 -15 -16 -17 27 18 -20 24 21 22 -24 26 25 -27 -28 -29 -30 -31
leaf_value=0.036183002324637246 -0.037559582352667931 -0.025953954109618246 0.041033427177986276 -0.053976247202137687 -0.041557222329352862 0.073010426953275323 0.041346706528867988 -0.046384570190723846 0.017119182279333338 0.065205781740660024 -0.023748195013670648 -0.021526796308722292 -0.019273987803201831 -0.037152300520468112 0.030256686643646252 0.045631814094521363 0.061454206654902949 -0.0072599745898470278 0.027902814540632925 0.041322661011188727 -0.0016122672308288523 0.057220343637819304 -0.046623391218141061 0.0062652867137148842 0.012785117011067477 0.059079648574905233 0.051382929520331223 -0.063324643964434393 0.05135693188352343 0.16838676983794509
leaf_weight=10004.123421728611 2572.6557938605547 49569.317295558751 49369.710877835751 3022.258909471333 7070.3240936286747 1386306.7538196146 55410.353774726391 115853.47630942613 8344.2690152749419 37386.556599229574 23318.23264978081 29736.143769457936 44716.988240838051 143042.90942205489 7925.1979987770319 11487.999152772129 133626.80272954702 35026.683519005775 21103.117468439043 99186.075956687331 27065.870982296765 13150.185199737549 1198.8584511503577 80247.656955681741 31831.677930742502 6717.6258833706379 5779.9267149120569 707.19291967153549 4116.2070228457451 271.36637465655804
leaf_count=54050 17388 644494 98406 24824 105727 1051140 129794 1962430 37889 38329 266757 392493 485577 2095003 53535 27846 145502 258625 90363 179689 156197 35036 6738 510730 102575 10259 14748 2936 9652 1474
internal_value=0 -0.013098 0.0676486 0.00902414 -0.0277323 0.0719108 0.016737 -0.0328338 0.0485486 0.0407647 0.00490155 -0.00580956 -0.0363046 -0.0303368 -0.0118172 0.0115464 0.0582429 0.000644311 0.00596018 0.0342521 0.0312593 0.0189831 0.0485442 0.00714919 0.0355935 0.0208524 0.0092966 0.0607973 0.00537996 -0.0198094
internal_weight=0 689117 1.75605e+06 274367 414750 1.43568e+06 224798 351550 320373 177695 123856 40011.6 311539 195685 52642.2 100538 142678 63200.1 56129.8 140308 100941 45531.1 14349 89049.8 137735 38549.3 86027.6 134334 31182.1 30007.5
internal_count=9010206 7326093 1684113 1826816 5499277 1149546 1182322 5044562 534567 348240 844905 448017 4596545 2634115 539112 578148 186327 454715 348988 309911 337417 207623 41774 550302 292523 112834 525478 148438 165849 393967
is_linear=0
shrinkage=0.05


Tree=19
num_leaves=31
num_cat=0
split_feature=6 6 6 3 1 4 1 4 1 5 5 2 4 0 5 5 0 0 3 1 3 0 5 1 4 4 5 0 2 4
split_gain=1.191e+06 83011.1 57851.7 31270.8 26424 20293.1 19440.4 13267.1 11858 10908.5 10088.7 11440.8 9427.28 8237.26 8014.79 7176.2 10350.4 7629.04 6311.89 6290.21 6229.4 5391.16 5268.48 4961.29 4484.66 4424.54 4125.65 4069.25 4046.39 3712.89
threshold=-0.12740961557531644 -0.13135101680541586 -0.095882067799032786 3.5000000000000004 1.0000000180025095e-35 0.023141369738825298 1.0000000180025095e-35 0.011704904555368746 1.0000000180025095e-35 7.0250936725460793 4.8789996228937618 1.0000000180025095e-35 0.093415608779992623 1.0000000180025095e-35 2.6735537653587347 3.9981586158983728 0.0059500000000000013 0.58205000000000007 64.500000000000014 1.0000000180025095e-35 4.5000000000000009 0.28565000000000007 8.791714030702682 1.0000000180025095e-35 0.028327463286714798 0.093415608779992623 11.56678786114111 0.75970000000000015 1.0000000180025095e-35 6.937197251663421e-05
decision_type=2 2 2 2 2 2 2 2 2 2 2 2 2 2 2 2 2 2 2 2 2 2 2 2 2 2 2 2 2 2
left_child=1 3 10 7 -3 15 27 8 -1 18 11 23 14 -10 28 16 -6 20 -5 -12 -18 -15 29 -2 -25 -26 -21 -4 -7 -17
right_child=2 4 6 9 5 12 -8 -9 13 -11 19 -13 -14 21 -16 22 17 -19 -20 26 -22 -23 -24 24 25 -27 -28 -29 -30 -31
leaf_value=-0.039027014777826656 -0.03420909835548365 -0.040496971489340415 -0.0077214214253810108 0.0090017513328664363 0.050582565182084364 -0.029749098201038472 0.071226686222591401 -0.042380546146452168 0.023187982761825626 -0.039891401370903745 0.015555747382889076 0.063252542277548271 0.066424517200984551 -0.021879837018142601 0.011984727531629111 -0.041706299574148203 -0.0043037311106319774 0.038371737942786512 0.06075420966194986 0.060030917663305809 0.02511463031774451 0.017399198066519749 -0.030932695757291184 0.039785592845067795 0.01284091625037587 0.055808160670702905 -0.049791707806974561 0.043608591514755941 0.060239553696075747 0.045137970299964705
leaf_weight=70265.960490789264 2684.7913362383842 24329.44624010101 4224.5409997850657 43853.504771657288 19071.253861032426 40210.417177561671 1333532.5137223303 171130.9104100056 13926.865596309304 10568.361892953515 8703.3065352067351 39923.760438896716 3819.5503366664052 87073.672545723617 19390.131743036211 1264.5825792998075 62071.038209509104 20122.662315160036 6806.0369329601526 139722.88668450713 25341.621956661344 9709.9174510911107 2552.5505700074136 106818.00635538995 34086.833550319076 7269.1646534204483 860.42959873378277 44880.692232847214 1289.2528761550784 46003.533969715238
leaf_count=1186034 18169 373952 22587 313765 61103 439961 1030378 2797865 79498 115407 38827 40828 15602 1001585 131205 6340 391439 80097 19613 149686 75965 85396 13439 189071 106281 10886 3316 74084 6999 130828
internal_value=0 -0.0126522 0.0655448 -0.0266648 0.00916577 0.0141765 0.070089 -0.0323997 -0.0229618 0.00631521 0.0470695 0.0394514 -0.00977389 -0.0127655 -0.0145537 0.0229609 0.0166352 0.0106147 0.0159546 0.0568051 0.00422488 -0.0179391 0.0390362 0.0331526 0.0343731 0.0203933 0.0593588 0.0391927 -0.0269535 0.0428146
internal_weight=0 678801 1.72271e+06 413335 265466 241137 1.38264e+06 352107 180976 61227.9 340069 190783 64709.4 110710 60889.8 176427 126607 107535 50659.5 149287 87412.7 96783.6 49820.7 150859 148174 41356 140583 49105.2 41499.7 47268.1
internal_count=9010206 7326093 1684113 5599163 1726930 1352978 1127049 5150378 2352513 448785 557064 365235 593767 1166479 578165 759211 608604 547501 333378 191829 467404 1086981 150607 324407 306238 117167 153002 96671 446960 137168
is_linear=0
shrinkage=0.05


Tree=20
num_leaves=31
num_cat=0
split_feature=6 3 6 1 1 1 6 4 2 3 5 2 4 6 5 1 5 4 5 4 0 6 4 5 3 5 0 4 5 0
split_gain=1.10155e+06 78359.4 58558.5 24848.2 22998.3 19772.5 17251 15746.8 13267.9 10316.6 9409.6 10511.6 8788.58 7424.19 6639.33 5800.02 5566.71 5350.88 4709.52 4485.4 4356.19 5181.02 3798.89 3783.93 3726.04 4459.02 3597.27 3540.23 3493.81 4619.15
threshold=-0.12740961557531644 1.5000000000000002 -0.096953940175054112 1.0000000180025095e-35 1.0000000180025095e-35 1.0000000180025095e-35 -0.13209297888864888 0.015863344970014938 1.0000000180025095e-35 5.5000000000000009 4.8789996228937618 1.0000000180025095e-35 0.099390216052760619 -0.13142819829164495 8.791714030702682 1.0000000180025095e-35 2.8617925509761908 0.0047315132310879514 3.3140206880897671 0.0095255043256225625 0.0038500000000000006 -0.13111896243901175 0.093415608779992623 11.56678786114111 22.500000000000004 7.3534021254575324 0.75970000000000015 6.5063154347899164e-05 5.7153802534577958 0.53805000000000014
decision_type=2 2 2 2 2 2 2 2 2 2 2 2 2 2 2 2 2 2 2 2 2 2 2 2 2 2 2 2 2 2
left_child=1 4 10 24 -1 26 -6 20 9 13 11 19 16 -5 27 -12 -9 -15 22 -2 -8 -22 -19 -17 -3 -26 -4 -11 -7 -30
right_child=2 3 5 8 6 28 7 12 -10 14 15 -13 -14 17 -16 23 -18 18 -20 -21 21 -23 -24 -25 25 -27 -28 -29 29 -31
leaf_value=-0.04432313161154601 0.039932699589627335 -0.029760996248140992 -0.0065911329841075493 -0.013419402660184335 -0.037802104233410669 0.061644285308227742 0.023936526437839143 -0.035223816246657554 0.051063512332750152 -0.049038445123774178 0.014705166252953587 0.060708564830530477 0.072205366977081409 0.02607200498489089 -0.044877281415955067 0.05757899070765167 -0.0045293314660970101 -0.011950869838893423 0.031919180081048479 0.022575771229232149 -0.011733539974317003 0.013706786555114174 0.098247854945295893 -0.048720075913385397 0.047238474064067976 -0.042115253055358237 0.041287684289499395 0.029942529648536161 0.029604094980369568 0.070481322807627533
leaf_weight=123485.15053445101 75252.050455920398 41558.258758373559 4297.9508472532034 47045.252967864275 80153.403292987496 131440.35661190748 19905.309547111392 66394.35532579571 23285.557342119515 1446.6803520917892 8660.4297977387905 38330.630653128028 2227.6352004557848 35407.243218690157 3221.9199276044965 134133.54534594715 18997.876472774893 31663.74987296015 8849.0030576139688 73651.533069476485 52587.238177265972 32308.320239253342 801.87156657129526 842.44934114813805 3615.4500299543142 2274.6452177241445 44978.137103974819 73662.173427276313 6952.0749892145395 1168947.5254134983
leaf_count=2225937 129421 586833 22930 458767 1253355 123547 116199 963962 45342 8229 38416 39955 10505 122203 22779 146210 199213 228150 38285 192077 562436 167670 2786 3303 24189 33472 74244 255781 10221 903789
internal_value=0 -0.0122185 0.0636037 0.00840064 -0.0264223 0.0682036 -0.0183127 -0.0101943 0.015324 0.0112062 0.0447436 0.0373583 -0.0258373 0.00221904 0.0254063 0.0543705 -0.028395 0.0118084 -0.000415695 0.0313475 0.00288426 -0.00205183 -0.00922906 0.0569155 -0.0244861 0.0127317 0.0371116 0.0284213 0.0693755 0.0702397
internal_weight=0 668891 1.68749e+06 272832 396059 1.35662e+06 272574 192421 225383 202098 330871 187234 87619.9 123767 78330.8 143636 85392.2 76721.9 41314.6 148904 104801 84895.6 32465.6 134976 47448.4 5890.1 49276.1 75108.9 1.30734e+06 1.1759e+06
internal_count=9010206 7326093 1684113 1826816 5499277 1134731 3273340 2019985 1182322 1136980 549382 361453 1173680 850191 286789 187929 1163175 391424 269221 321498 846305 730106 230936 149513 644494 57661 97174 264010 1037557 914010
is_linear=0
shrinkage=0.05


Tree=21
num_leaves=31
num_cat=0
split_feature=6 6 6 4 1 1 1 4 2 3 2 5 3 5 0 4 6 0 6 5 4 4 4 0 5 1 3 5 4 0
split_gain=1.02158e+06 82937 49306.8 32266.2 20021.6 19921.8 17497 12454.2 11167.4 8330.34 8058.54 10444 7712.96 5743.78 6861.51 5565.41 5157.64 5126.13 5575.99 4840.69 4189.89 4186.31 3818.82 3790.14 3665.85 3559.25 3549.61 3486.85 3393.19 3388.52
threshold=-0.12647843137389289 -0.13109026854112835 -0.095882067799032786 0.011838477918599532 1.0000000180025095e-35 1.0000000180025095e-35 1.0000000180025095e-35 0.030538748770909622 1.0000000180025095e-35 1.5000000000000002 1.0000000180025095e-35 4.4248287033199558 5.5000000000000009 4.1510089048756029 0.0077500000000000008 0.093415608779992623 -0.1320464845759235 0.27275000000000005 -0.12184666145045414 9.510296802559056 0.0037568585613200847 6.937197251663421e-05 0.0092747311082021829 0.50005000000000011 2.6735537653587347 1.0000000180025095e-35 1.5000000000000002 7.0250936725460793 0.001829955076261773 0.085750000000000007
decision_type=2 2 2 2 2 2 2 2 2 2 2 2 2 2 2 2 2 2 2 2 2 2 2 2 2 2 2 2 2 2
left_child=1 3 10 4 12 -4 -3 13 9 16 11 22 -1 14 -8 24 -6 18 -13 29 23 -11 -2 -16 -9 -19 -5 -14 -18 -15
right_child=2 6 5 26 8 -7 7 15 -10 21 -12 17 27 19 20 -17 28 25 -20 -21 -22 -23 -24 -25 -26 -27 -28 -29 -30 -31
leaf_value=-0.036897466877703261 0.039135246353612173 -0.036089501131142697 0.035350577184760611 -0.04110065044208145 -0.029390403744987921 0.067800670827435766 0.05174258597804552 -0.023997975444131472 0.045246610243839198 -0.049451028880134792 0.062861360342033851 0.034831913234843796 0.027815447740984697 0.0019555281056692639 0.015762568274055234 0.050636850376869061 0.0099280973056936617 0.019597521282063695 -0.05658249468516479 -0.048676067235466421 0.0030586057165974058 0.010369412695767457 0.020992394765878566 0.047164612189090037 0.0067910851978859009 0.054412749316908308 -0.025041051135066817 -0.042694970410747983 -0.014955135832397042 0.045688681102167214
leaf_weight=72764.692924499512 56167.88336070627 15761.459766618907 49132.840648949146 157107.42149121314 36519.165849938989 1266056.8020918816 13622.358389869332 22682.664456233382 11900.068062350154 3053.0802088454366 49951.24460387975 7686.4795475900173 7273.9645034000278 4910.5892685577273 37189.569879382849 4054.3194544911385 22246.885217778385 7789.1021949723363 2130.5116913616657 1537.224052503705 46660.020790278912 69517.373339220881 59972.718015596271 12956.820338383317 16848.915921799839 127629.78191001713 44055.774787511677 2310.1981694325805 35663.090439923108 45185.588657662272
leaf_count=1302165 94163 243530 96671 2782551 527160 1030378 34823 208891 36458 26097 48269 13850 61649 22236 128631 13295 169377 31208 7714 8277 244160 404250 152940 29720 97279 143869 543369 34892 370722 101612
internal_value=0 -0.0104828 0.0623529 -0.0225319 -0.0109421 0.0665884 0.0146818 0.018573 -0.00155101 -0.00488572 0.04446 0.0409434 -0.0313439 0.0249542 0.0185176 -0.00515345 -0.0146755 0.0498811 0.0149929 0.03872 0.0138423 0.00785273 0.0297666 0.0238762 -0.0108752 0.0524102 -0.0375835 0.0108194 -0.00539591 0.0414018
internal_weight=0 683821 1.62652e+06 462412 261249 1.31519e+06 221410 205648 178900 167000 311328 261376 82348.9 162062 110429 43585.9 94429.1 145236 9816.99 51633.4 96806.4 72570.5 116141 50146.4 39531.6 135419 201163 9584.16 57910 50096.2
internal_count=9010206 7391144 1619062 6258690 2932770 1127049 1132454 888924 1534064 1497606 492013 443744 1398706 569459 437334 319465 1067259 196641 21564 132125 402511 430347 247103 158351 306170 175077 3325920 96541 540099 123848
is_linear=0
shrinkage=0.05


Tree=22
num_leaves=31
num_cat=0
split_feature=6 6 6 4 1 1 1 4 2 3 5 2 3 0 5 0 6 4 5 6 4 4 1 3 5 0 4 0 4 4
split_gain=949166 87018.6 41434.1 31373.7 20066.2 19914 14506.2 11066.7 10003.3 7842.77 7440.87 8334.6 7365.76 6616.12 5434.42 6759.62 5013.97 4821.95 4786.3 4591.47 4590.26 4129.63 4090.7 3923.37 3777.39 3757.08 3717.18 3659.32 3565.83 3352.06
threshold=-0.12555503485396274 -0.13088737162507744 -0.090125812294245364 0.011838477918599532 1.0000000180025095e-35 1.0000000180025095e-35 1.0000000180025095e-35 0.027894427060756923 1.0000000180025095e-35 1.5000000000000002 5.2755571088971331 1.0000000180025095e-35 4.5000000000000009 0.27215000000000006 3.6762205501217919 0.0077500000000000008 -0.1320464845759235 0.093415608779992623 2.9174053685313028 -0.12091645070921729 0.0035440029437845732 6.5063154347899164e-05 1.0000000180025095e-35 3.5000000000000004 9.6920254888235515 0.50005000000000011 0.029759714446002325 0.76665000000000016 0.10982617365743691 0.093415608779992623
decision_type=2 2 2 2 2 2 2 2 2 2 2 2 2 2 2 2 2 2 2 2 2 2 2 2 2 2 2 2 2 2
left_child=1 3 10 5 27 12 -3 14 9 16 11 26 -1 19 15 -8 -7 18 -9 -12 25 -11 -15 28 -16 -17 -2 -4 -5 -28
right_child=2 6 4 23 -6 8 7 17 -10 21 13 -13 -14 22 24 20 -18 -19 -20 -21 -22 -23 -24 -25 -26 -27 29 -29 -30 -31
leaf_value=-0.036790543823907944 0.037742704130539394 -0.033749140881460797 -0.011837565249993199 -0.039367273047903148 0.06653386333921664 -0.028650762209529636 0.049498565905264386 -0.019631080522868584 0.042303981225766958 -0.052759612403025485 0.031553918967447629 0.059010783832473962 0.0068678333045177941 0.020892830996645927 0.038399742902228751 0.014302156798204711 -0.0049294693326410047 0.046331217105114848 0.014077084069568251 -0.063702906136463316 0.0019057129142619454 0.0098911115750886028 0.058787271644712882 -0.013013036884717577 -0.04803512398984594 0.044565774344403238 0.012677763719575526 0.037884637170709418 0.021847062349420035 0.050326460072971139
leaf_weight=70191.23164498806 103910.17075945437 13808.181042924523 4035.6817983686924 179866.84285833687 1204667.097102806 35612.179108779877 14874.351693637669 27728.579251006246 12389.73862554878 2727.0593738034368 4171.8281137347221 38477.717108473182 11202.96772127226 7583.870524674654 62551.211304016411 31284.927561208606 59487.480446010828 4715.5878920927644 16979.689504273236 1815.5600544214249 45632.684027440846 74100.802233278751 116876.93223455548 16382.440421499312 1290.0906982049346 15256.439689859748 31871.279161907732 44529.31034553051 2410.8896972946823 7258.7632269412279
leaf_count=1304139 169191 209635 21574 3171958 1003055 527160 35182 244606 36936 24516 7669 38770 117826 28502 141474 106898 553219 13979 80939 6963 225942 419275 117944 169016 6611 32730 83739 72976 27444 10338
internal_value=0 -0.00888981 0.0612047 -0.0214207 0.0652635 -0.0101832 0.0159648 0.0190806 -0.00108705 -0.00421397 0.0448995 0.0383533 -0.0307815 0.0540085 0.0251072 0.0182215 -0.0138124 -0.00175702 -0.0068291 0.00266912 0.0131742 0.00766728 0.0564782 -0.0364511 0.0366531 0.0242227 0.0327965 0.0337528 -0.0385576 0.0196617
internal_weight=0 698493 1.5652e+06 464372 1.25323e+06 265711 234122 220314 184317 171928 311966 181518 81394.2 130448 170890 107048 95099.7 49423.9 44708.3 5987.39 92174.1 76827.9 124461 198660 63841.3 46541.4 143040 48565 182278 39130
internal_count=9010206 7449485 1560721 6351489 1097605 2983071 1097996 888361 1561106 1524170 463116 302038 1421965 161078 548837 400752 1080379 339524 325545 14632 365570 443791 146446 3368418 148085 139628 263268 94550 3199402 94077
is_linear=0
shrinkage=0.05


Tree=23
num_leaves=31
num_cat=0
split_feature=6 6 6 3 1 1 3 4 5 5 5 4 5 2 0 2 5 4 0 5 3 1 6 1 5 4 4 4 4 0
split_gain=884055 80072.9 42281.7 25585.1 21918.7 20302 14955 12586.1 11638.7 9121.2 7988.73 7655.72 7221.22 8021.75 6524.9 6390.56 6389.26 7709.52 6175.06 6166.22 5021.46 4663.57 4161.58 3988 3770.98 3410.86 3347.12 3339.24 3397.05 3305.4
threshold=-0.12555503485396274 -0.13135101680541586 -0.090125812294245364 3.5000000000000004 1.0000000180025095e-35 1.0000000180025095e-35 1.5000000000000002 0.0089170992001971743 0.89587973461402759 7.0488206249888608 3.1984648276080736 0.0021651811297893598 5.2755571088971331 1.0000000180025095e-35 0.0032500000000000007 1.0000000180025095e-35 3.3140206880897671 0.0022030987296742278 0.27215000000000006 9.510296802559056 96.500000000000014 1.0000000180025095e-35 -0.12184666145045414 1.0000000180025095e-35 8.9730345048402338 0.029759714446002325 0.0049607423576646563 7.7127845220357282e-05 0.031305718404944463 0.75970000000000015
decision_type=2 2 2 2 2 2 2 2 2 2 2 2 2 2 2 2 2 2 2 2 2 2 2 2 2 2 2 2 2 2
left_child=1 3 12 7 -3 29 10 8 11 20 14 -1 13 25 -6 16 17 -8 22 -18 27 -10 -14 -20 -12 -2 -16 -5 -29 -4
right_child=2 4 5 9 6 -7 15 -9 21 -11 24 -13 18 -15 26 -17 19 -19 23 -21 -22 -23 -24 -25 -26 -27 -28 28 -30 -31
leaf_value=0.022822652601853538 0.035994267911723624 -0.036687822010294253 -0.012459443270251612 -0.043065735601430205 0.027566295675424436 0.065141383289767207 0.030970494775495377 -0.039392315161692303 -0.040468902439540204 -0.038723626542189464 0.022991114444192412 -0.017747817551291491 0.033368064600160965 0.057156957604603001 0.0016927357398959248 0.045951287587178771 0.033780717936350339 -0.0004150238852291325 0.019659861982724094 -0.054621575053659568 0.061066301101737754 -0.019416379403106657 -0.053950780842684155 0.056934492359475314 -0.041224093708748348 0.018668809646994685 -0.023266150203913059 0.017386004224511663 -0.026025069506205624 0.035945074985526931
leaf_weight=21997.126502152532 103519.71987127513 23059.245008446276 3829.3688537031412 2907.8650998398662 10042.404248565435 1169783.5494287908 29610.520534351468 163425.61133189872 46435.726384438574 9763.8110897652805 34046.621777616441 24667.816609058529 3865.4467080682516 37757.806967332959 19183.389995098114 25829.300749048591 62418.780954658985 57681.847292110324 7654.6360671967268 2036.9406698271632 5102.7520443797112 60681.88139859587 2109.0297495275736 114701.92355567217 2450.7945855222642 39151.421264253557 44808.39722045511 38312.878403909504 5107.247406154871 44651.360352098942
leaf_count=207871 169191 387733 21051 27959 69476 1003055 86552 3019268 906043 114540 161250 305361 6873 38770 109903 43081 152753 328225 28502 12269 13224 711835 7759 117944 17126 94077 481954 235292 57770 73499
internal_value=0 -0.00856997 0.0596388 -0.0240205 0.010219 0.0638274 0.0139732 -0.029731 -0.0194638 0.0055802 -0.000465718 0.00137647 0.0431122 0.0366635 -0.00990373 0.0229607 0.0190474 0.0102313 0.052179 0.030987 0.013991 -0.0285427 0.00254393 0.0546026 0.0186791 0.0312399 -0.015784 0.00880595 0.0122798 0.0321217
internal_weight=0 689571 1.52702e+06 378403 311168 1.21826e+06 288109 317208 153783 61194.6 110532 46664.9 308760 180429 74034.2 177577 151748 87292.4 128331 64455.7 51430.7 107118 5974.48 122357 36497.4 142671 63991.8 46328 43420.1 48480.7
internal_count=9010206 7449485 1560721 5599163 1850322 1097605 1462589 5150378 2131110 448785 839709 513232 463116 302038 661333 622880 579799 414777 161078 165022 334245 1617878 14632 146446 178376 263268 591857 321021 293062 94550
is_linear=0
shrinkage=0.05


Tree=24
num_leaves=31
num_cat=0
split_feature=6 6 6 4 1 1 1 6 4 3 5 2 0 4 4 3 5 0 5 4 1 3 4 3 1 6 5 0 5 4
split_gain=824549 74294.2 43134.9 29827.8 20532.5 19392.3 9845.46 8750.16 8448.86 7174.2 7021.25 7731.04 5769.61 5558.91 6123.57 5209.08 4528.33 5094.63 4341.95 4236.66 4198.91 4393.71 4959.07 3954.12 3887.04 3787.63 3523.32 3377.76 4035.31 3628.08
threshold=-0.12555503485396274 -0.13065568810064918 -0.090125812294245364 0.013225486487115344 1.0000000180025095e-35 1.0000000180025095e-35 1.0000000180025095e-35 -0.1321659420474024 0.031039433442116633 4.5000000000000009 5.2755571088971331 1.0000000180025095e-35 0.27215000000000006 0.0022427398568265903 6.5063154347899164e-05 3.5000000000000004 4.4005842009683471 0.0077500000000000008 1.2424533248940002 0.093415608779992623 1.0000000180025095e-35 5.5000000000000009 0.10982617365743691 8.5000000000000018 1.0000000180025095e-35 -0.12127649191254548 2.9174053685313028 0.66680000000000017 2.524928003624769 0.0036499998707354552
decision_type=2 2 2 2 2 2 2 2 2 2 2 2 2 2 2 2 2 2 2 2 2 2 2 2 2 2 2 2 2 2
left_child=1 3 10 5 -4 9 -3 15 16 -1 11 -2 25 14 -9 -7 17 -8 -16 26 -5 22 -22 -15 -14 -12 -10 28 29 -19
right_child=2 6 4 20 -6 7 8 13 19 -11 12 -13 24 23 18 -17 -18 27 -20 -21 21 -23 -24 -25 -26 -27 -28 -29 -30 -31
leaf_value=-0.035931395837526851 0.029759558678978434 -0.03076299889058054 0.030585983285958671 -0.045841629422870754 0.063849053278367068 -0.024695072244727126 0.045146986722502419 -0.051889944319521097 -0.019129748069386141 0.0065891802491527332 0.029831874810547512 0.055409432273494236 0.018512871096083593 -0.0076695402164091422 0.036415276091227661 0.0069301089137875534 0.036780074088685964 0.014919243645654213 0.0097238745883088604 0.043884988397263597 -0.033369566663498766 0.0089750837763517121 0.051765520997705872 0.035772631431749961 0.055187709615188596 -0.05556042651785105 0.012220472837591071 0.034708939653038444 0.020766352840854801 -0.014741780524541219
leaf_weight=69331.86198425293 142291.45701941848 10743.76511388272 48371.197111949325 61074.451184533536 1134679.2263272554 46684.874193899333 15346.901812553406 3116.4181356653571 23258.842082828283 11576.448034092784 4046.1745126694441 37020.059319227934 7720.6892808377743 59726.503195025027 24575.540109686553 18056.893448919058 46040.100893869996 19238.442942723632 40093.810062281787 4576.3280626684427 115448.54943522066 6890.5715079382062 1736.2248183488846 5741.5561455264688 112472.80485248566 1912.3278378546238 14580.203345954418 16855.638540141284 43986.550081141293 22213.830602698028
leaf_count=1372178 263268 167353 94550 1222664 1003055 650047 37141 27625 207043 122017 7408 38770 28502 546333 120496 92156 96177 64014 231791 12880 2015701 55550 13311 16247 117944 7224 64538 49335 131691 133197
internal_value=0 -0.00826111 0.058164 -0.0195511 0.062489 -0.00922276 0.0159003 -0.000794729 0.0183328 -0.0298475 0.0414134 0.0350551 0.0504511 0.00653187 0.0165681 -0.0158746 0.0234862 0.0182835 0.0198671 -0.00155431 -0.0351094 -0.0298266 -0.0321082 -0.00385966 0.0528319 0.00242598 -0.00704983 0.0142533 0.0102177 -0.000975782
internal_weight=0 680894 1.48851e+06 464054 1.18305e+06 278904 216841 197996 206097 80908.3 305464 179312 126152 133254 67785.8 64741.8 163681 117641 64669.4 42415.4 185150 124075 117185 65468.1 120193 5958.5 37839 102294 85438.8 41452.3
internal_count=9010206 7449485 1560721 6486116 1097605 3178890 963369 1684695 796016 1494195 463116 302038 161078 942492 379912 742203 511555 415378 352287 284461 3307226 2084562 2029012 562580 146446 14632 271581 378237 328902 197211
is_linear=0
shrinkage=0.05


Tree=25
num_leaves=31
num_cat=0
split_feature=6 6 6 3 1 0 4 3 4 3 1 4 1 4 4 5 0 5 5 0 1 5 5 0 0 2 0 5 5 0
split_gain=770913 74623.8 37949.3 28885.9 20882.2 11796.8 9959.43 9660.93 9387.24 7721.36 7315.67 8186.72 6387.55 6226.24 5574.82 5111.34 6782.8 4810.58 4809.49 4624.88 4143.26 3769.96 3519.3 3362.13 3337.1 3189.76 3163.84 4456.87 3089.68 3015.16
threshold=-0.12462816169050879 -0.13065568810064918 -0.090125812294245364 1.5000000000000002 1.0000000180025095e-35 1.0000000180025095e-35 0.032994775127088601 3.5000000000000004 6.5063154347899164e-05 26.500000000000004 1.0000000180025095e-35 0.0043893930684903897 1.0000000180025095e-35 0.011969465990929079 0.0025848600194241528 3.1984648276080736 0.0032500000000000007 7.111919780603535 4.4248287033199558 0.33135000000000003 1.0000000180025095e-35 8.9897560411137434 8.6733418592708933 0.5999000000000001 1.0000000180025095e-35 1.0000000180025095e-35 0.75970000000000015 12.172280569413312 5.9175479584402915 0.76665000000000016
decision_type=2 2 2 2 2 2 2 2 2 2 2 2 2 2 2 2 2 2 2 2 2 2 2 2 2 2 2 2 2 2
left_child=1 3 13 5 29 14 8 12 -5 17 -7 19 -3 20 -1 16 -14 24 -15 -12 -2 -17 -11 -18 -10 -9 27 -6 -28 -4
right_child=2 7 4 6 26 10 -8 25 9 22 11 -13 15 18 -16 21 23 -19 -20 -21 -22 -23 -24 -25 -26 -27 28 -29 -30 -31
leaf_value=0.029213073059406864 0.0076051868890911522 -0.03386603851424886 -0.012209864986916999 -0.051004907620582678 0.051552202367937207 -0.043542618977299427 -0.031154570169859237 0.023375663925114032 0.041364681291168243 0.041069105871767209 -0.016242637792127892 -0.033545077815041832 0.03541721585244919 0.020128014988858359 -0.01404269641087001 0.026283989060830237 -0.011917540201109531 -0.036712484518072803 0.04204147934048235 0.023789792392892112 0.047741945834755398 -0.036474036713212539 -0.043634348129940097 0.012264249234275347 0.0019961249158138667 0.046609821580991688 0.055209390947218807 -0.16749586582235931 0.064158372428732124 0.03284742711736869
leaf_weight=10452.633707117289 6671.967363089323 8902.1985539346933 4052.661759108305 7515.7924111410975 51401.907755419612 89870.075989492238 24735.700535140932 81364.593870475888 5701.261255800724 18280.53194975853 46145.592588789761 113105.26304294541 12861.162466332316 51444.371399149299 25919.397607430816 44878.626768834889 45358.652902491391 7731.0634552836418 48782.269094049931 8551.6921080499887 177146.31962884963 2527.7603794410825 1314.4711489714682 21042.224212870002 96374.407157596201 18049.080184463412 107473.22931881249 233.26933987438679 940443.88538855314 44295.825118646026
leaf_count=54050 27201 145778 21574 101063 56163 1962430 354524 233576 25980 53167 545911 2031328 50899 113058 393967 131579 297719 94631 68273 56876 214510 12681 13604 105683 798585 25528 110783 1116 834993 72976
internal_value=0 -0.00713217 0.0571821 -0.018934 0.0612311 -0.0282679 -0.00195594 0.0157548 0.00331912 0.00647432 -0.0320305 -0.025865 0.00707321 0.0408189 -0.00161181 0.0099504 0.00218276 0.00131485 0.0307937 -0.00998373 0.0462851 0.0229377 0.035387 -0.00425441 0.00419499 0.0275939 0.0626452 0.0505626 0.0632406 0.0290706
internal_weight=0 690682 1.43195e+06 455698 1.1479e+06 294045 161653 234984 136918 129402 257673 167803 135571 284045 36372 126668 79262 109807 100227 54697.3 183818 47406.4 19595 66400.9 102076 99413.7 1.09955e+06 51635.2 1.04792e+06 48348.5
internal_count=9010206 7489559 1520647 6486116 1097605 5044562 1441554 1003443 1087030 985967 4596545 2634115 744339 423042 448017 598561 454301 919196 181331 602787 241711 144260 66771 403402 824565 259104 1003055 57279 945776 94550
is_linear=0
shrinkage=0.05


Tree=26
num_leaves=31
num_cat=0
split_feature=6 6 6 3 1 1 3 4 5 5 0 5 0 4 2 5 0 5 4 1 4 3 5 5 0 5 4 0 6 0
split_gain=721282 69110.6 38860.7 21984.9 21092.3 18216.2 12170.8 11998.4 9622.59 7977.19 7663.11 11088 8527.58 7250.03 6363.67 7870.71 6604.49 4988.14 4394.48 4380.99 4377.33 4237.97 3362.27 3207.66 3202.31 3168.29 7193.44 3685.67 3368.46 4066.74
threshold=-0.12462816169050879 -0.13135101680541586 -0.090125812294245364 3.5000000000000004 1.0000000180025095e-35 1.0000000180025095e-35 4.5000000000000009 0.011704904555368746 0.89587973461402759 7.7059378970470016 0.0020500000000000002 2.9174053685313028 0.50005000000000011 0.0025452188922717904 1.0000000180025095e-35 4.7833076179467886 0.27215000000000006 9.1858939777586226 0.0029002655093755578 1.0000000180025095e-35 0.0048400954489400743 96.500000000000014 9.510296802559056 5.51140854139648 0.10405000000000002 12.263196695359637 0.099390216052760619 0.8085500000000001 -0.030259355115997109 0.76665000000000016
decision_type=2 2 2 2 2 2 2 2 2 2 2 2 2 2 2 2 2 2 2 2 2 2 2 2 2 2 2 2 2 2
left_child=1 3 14 7 -4 -3 10 8 13 21 -7 12 20 -1 15 -2 -17 24 -14 -10 -12 23 -8 -5 -13 28 27 -27 -6 -30
right_child=2 5 4 9 25 6 22 -9 19 -11 11 17 18 -15 -16 16 -18 -19 -20 -21 -22 -23 -24 -25 -26 26 -28 -29 29 -31
