tree
version=v4
num_class=1
num_tree_per_iteration=1
label_index=0
max_feature_idx=6
objective=binary sigmoid:1
feature_names=cov_diff perc_cov_diff cov_change_dir perc_binarized num_samples_scaled junc_len_raw smooth_metric_raw
feature_infos=[20:1160411] [0:1] [0:1] [0:1] [1:2388608] [0:8731613] [0:258093]
tree_sizes=3475 3519 3542 3536 3543 3537 3555 3551 3557 3566 3570 3557 3580 3568 3578 3567 3569 3571 3560 3569 3576 3559 3561 3562 3542 3575 3565 3578 3570 3553 3549 3561 3566 3557 3543 3556 3548 3558 3553 3550 3546 3543 3556 3558 3547 3556 3555 3556 3580 3566 3554 3572 3562 3568 3564 3551 3562 3561 3556 3561 3548 3566 3545 3559 3553 3556 3577 3541 3556 3574 3573 3574 3552 3564 3570 3559 3528 3535 3560 3541 3557 3577 3560 3546 3535 3550 3585 3549 3575 3518 3533 3547 3545 3573 3585 3544 3544 3538 3544 3536 3538 3554 3588 3570 3553 3525 3566 3565 3565 3571 3564 3523 3594 3573 3546 3584 3615 3593 3550 3545 3561 3524 3588 3608 3562 3494 3525 3524 3583 3560 3582 3568 3523 3572 3555 3551 3561 3560 3523 3539 3525 3516 3566 3519 3567 3589 3507 3524 3592 3455 3596 3481 3626 3571 3501 3535 3580 3540 3587 3460 3545 3511 3575 3483 3491 3599 3596 3578 3534 3467 3469 3525 3443 3527 3553 3580 3568 3532 3462 3469 3451 3456 3581 3570 3423 3473 3550 3511 3423 3470 3586 3577 3533 3430 3466 3443 3532 3454 3548 3474 3552 3525 3472 3545 3561 3441 3466 3472 3429 3509 3577 3500 3471 3523 3509 3501 3484 3458 3527 3474 3472 3483 3581 3507 3432 3532 3536 3450 3472 3428 3467 3540 3503 3531 3410 3493 3435 3499 3525 3482 3540 3532 3491 3611 3459 3448 3437 3556 3441 3455 3560 3383 3466 3441 3476 3480 3592 3515 3480 3451 3455 3441 3516 3460 3520 3503 3457 3429 3456 3592 3426 3444 3471 3449 3408 3488 3509 3417 3507 3428 3457 3392 3417 3488 3506 3466 3457 3498 3575 3401 3561 3545 3459 3444 3447 3459 3452 3419 3487 3423 3439 3441 3402 3500 3498 3505 3431 3477 3564 3482 3400 3487 3401 3455 3562 3421 3453 3424 3537 3465 3452 3480 3416 3488 3455 3489 3539 3518 3500 3500 3539 3462 3522 3449 3423 3436 3481 3443 3436 3439 3388 3482 3462 3510 3402 3422 3464 3508 3490 3417 3492 3471 3505 3442 3438 3465 3471 3478 3510 3396 3419 3400 3489 3452 3489 3486 3403 3414 3522 3448 3579 3505 3436 3522 3434 3454 3446 3485 3446 3475 3437 3494 3548 3451 3386 3362 3418 3531 3485 3388 3496 3433 3396 3496 3438 3505 3496 3454 3393 3433 3453 3501 3509 3469 3422 3523 3430 3541 3397 3439 3502 3404 3460 3442 3502 3486 3462 3471 3415 3463 3456 3410 3477 3413 3430 3433 3432 3424 3438 3459 3456 3420 3486 3457 3500 3503 3511 3398 3421 3430 3368 3489 3549 3429 3474 3492 3395 3423 3388 3384 3398 3407 3396 3395 3444 3435 3449 3455 3436 3456 3462 3434 3418 3410 3464 3423 3450 3471 3451 3483 3466 3466 3475 3461 3432 3432 3417 3444 3412 3465 3526 3426 3486 3458 3425 3383 3434 3477 3480 3435 3441 3449 3430 3422 3437 3432 3543 3448 3452 3445 3418 3438 3503 3486 3385 3444 3547 3453 3483 3476 3532 3469 3484 3525 3427 3455 3416 3381 3440 3463 3464 3410 3416 3400 3448 3454 3436 3459 3519 3378 3462 3375 3512 3425 3443 3404 3526 3479 3459 3471 3452 3403 3390 3442 3473 3485 3433 3515 3482 3439 3544 3461 3412 3465 3555 3483 3394 3384 3497 3431 3400 3538 3462 3443 3509 3497 3496 3481 3469 3481 3440 3457 3402 3479 3397 3527 3444 3400 3484 3423 3564 3466 3509 3441 3426 3394 3411 3489 3435 3456 3457 3472 3410 3503 3494 3507 3482 3438 3416 3413 3383 3506 3449 3425 3430 3480 3574 3403 3437 3445 3517 3566 3470 3457 3513 3423 3415 3407 3500 3399 3439 3418 3442 3440 3514 3482 3439 3436 3483 3462 3441 3456 3387 3412 3525 3435 3464 3429 3416 3435 3480 3487 3460 3401 3427 3391 3386 3449 3449 3474 3436 3520 3519 3468 3456 3466 3441 3466 3388 3458 3417 3479 3449 3475 3429 3476 3442 3468 3412 3411 3439 3404 3413 3458 3412 3500 3438 3451 3391 3390 3486 3386 3410 3410 3472 3425 3456 3422 3440 3418 3453 3466 3397 3457 3423 3514 3414 3384 3411 3398 3402 3422 3441 3380 3438 3514 3489 3516 3403 3451 3478 3455 3485 3369 3532 3460 3466 3455 3534 3439 3470 3433 3410 3515 3512 3480 3413 3422 3445 3440 3490 3409 3408 3427 3425 3467 3444 3478 3571 3476 3408 3418 3511 3469 3511 3391 3423 3382 3444 3475 3420 3474 3449 3499 3494 3394 3407 3482 3413 3390 3404 3501 3382 3452 3444 3443 3404 3434 3439 3397 3400 3438 3396 3478 3395 3459 3417 3440 3467 3429 3420 3421 3405 3445 3504 3480 3462 3438 3414 3440 3444 3488 3435 3438 3453 3485 3488 3539 3472 3498 3470 3385 3421 3457 3477 3542 3497 3462 3421 3508 3438 3452 3458 3405 3477 3398 3430 3479 3366 3418 3375 3483 3444 3507 3411 3442 3474 3399 3505 3469 3398 3429 3415 3454 3491 3484 3444 3406 3437 3436 3420 3487 3513 3412 3395 3415 3438 3371 3434 3412 3528 3441 3430 3454 3373 3412 3417 3403 3475 3366 3471 3393 3436 3547 3429 3432 3439 3412 3449 3411 3401 3509 3378 3445 3438 3548 3464 3403 3387 3489 3386 3497 3419 3405 3491 3467 3432 3517 3399 3471 3458 3444 3427 3456 3451 3427 3469 3489 3457 3477 3420 3428 3427 3429 3406 3448 3398 3477 3456 3406 3466 3439 3399 3463 3530 3448 3501 3427 3483 3465 3444 3407 3453 3437 3451 3436 3478 3490 3478 3366 3407 3434 3451 3496 3467 3477 3429 3410 3409 3379 3487 3534 3469 3447 3463 3495 3466 3468 3376 3458 3357 3439 3380 3439 3456 3386 3435 3417 3422 3526 3444 3391 3408 3420 3402 3417 3461 3404 3472 3421 3428 3414 3432 3458 3428 3443 3472 3491 3422 3489 3419 3519 3477 3464 3466 3427 3461 3425 3486 3433 3398 3496 3432 3410 3400 3436 3457 3493 3470 3477

Tree=0
num_leaves=31
num_cat=0
split_feature=6 6 6 2 4 4 2 5 3 2 3 1 4 0 2 5 0 5 3 0 2 6 5 3 0 2 0 5 5 6
split_gain=2.36171e+07 524331 484327 239376 141430 123790 107700 78682.2 71817.7 64068.6 55069.8 54346.6 51729.9 44457.1 40547.9 47212.9 38636.8 29351.2 28707.1 25934.8 25019.2 22616.2 21044.5 18937.9 18212.6 19561.1 17732.3 15680.8 14800.3 14202.9
threshold=7.0057500000000008 3.0003000000000006 26.007800000000003 1.0000000180025095e-35 2.5000000000000004 3.5000000000000004 1.0000000180025095e-35 82.500000000000014 1.0000000180025095e-35 1.0000000180025095e-35 1.0000000180025095e-35 0.76665000000000016 20.500000000000004 15505.500000000002 1.0000000180025095e-35 29.500000000000004 19038.500000000004 154.50000000000003 1.0000000180025095e-35 16462.500000000004 1.0000000180025095e-35 1.9525500000000002 2568.5000000000005 1.0000000180025095e-35 6117.5000000000009 1.0000000180025095e-35 17358.500000000004 72.500000000000014 16.500000000000004 1.7500500000000001
decision_type=2 2 2 2 2 2 2 2 2 2 2 2 2 2 2 2 2 2 2 2 2 2 2 2 2 2 2 2 2 2
left_child=1 4 6 11 10 14 -2 8 16 -6 21 -4 18 20 -3 19 -8 -5 26 -16 -7 -1 -14 27 25 -23 29 -22 -18 -11
right_child=2 5 3 17 9 13 7 -9 -10 12 -12 -13 22 -15 15 -17 28 -19 -20 -21 23 24 -24 -25 -26 -27 -28 -29 -30 -31
leaf_value=-1.8927158546576939 -1.8104435494862441 -1.8935221122723112 -1.8100747043151999 -1.5240036258513008 -1.8776996483146606 -1.8660681597162441 -1.618764276539445 -1.5442393495549369 -1.5249563783050637 -1.8293939608403549 -1.7689469380049914 -1.6113227693372325 -1.6878377390862944 -1.7751086577613941 -1.7633369025159196 -1.7085800484310729 -1.7609538810910608 -1.4851904105879881 -1.6585772045938509 -1.8487994955852494 -1.6953969164403562 -1.89809013833943 -1.8612672064635021 -1.5543405294060952 -1.8809284501350692 -1.8116741335318138 -1.8671540668172095 -1.6041292597719516 -1.674462216566925 -1.7652177311361814
leaf_weight=603078.82366371155 5915.7925198078156 9755.7730782032013 4087.2235352993011 52359.213071107864 41250.80269408226 1277.4933977127075 27477.929606437683 48971.248318910599 12973.289581775665 25993.08248257637 9704.619003534317 21701.907693862915 11918.429951190948 9723.8899102210999 15196.587143421173 15273.383652448654 8300.9147064685822 698628.75638246536 2632.3930697441101 21346.955791473389 12595.550517320633 9180.6776475906372 2050.043247461319 5211.3527970314026 81824.117328643799 22840.997277975082 18891.614913225174 7513.7119929790497 12238.297751188278 12899.768107652664
leaf_count=5008930 40937 81160 28258 109728 332180 10037 101439 119318 27396 188167 60373 77396 57864 61502 93103 79488 50523 1007407 11483 161510 62755 77082 15941 13584 663354 158532 148773 25886 56660 79440
internal_value=-1.84585 -1.86635 -1.50726 -1.49304 -1.87908 -1.75683 -1.60262 -1.59144 -1.62934 -1.82772 -1.88726 -1.64282 -1.80001 -1.68362 -1.80001 -1.7824 -1.65754 -1.4879 -1.82006 -1.81326 -1.65017 -1.88886 -1.71329 -1.63928 -1.86842 -1.83645 -1.82741 -1.6613 -1.70942 -1.80811
internal_weight=0 940160 892655 776777 842265 97894.7 115877 109962 60990.4 115636 726629 25789.1 74385.3 36322 61572.7 51816.9 48017.1 750988 60416.9 36543.5 26598.1 716925 13968.5 25320.6 113846 32021.7 57784.5 20109.3 20539.2 38892.9
internal_count=9010206 7391144 1619062 1222789 6802119 589025 396273 355336 236018 833848 5968271 105654 501668 173764 415261 334101 208622 1117135 427863 254613 112262 5907898 73805 102225 898968 235614 416380 88641 107183 267607
is_linear=0
shrinkage=1


Tree=1
num_leaves=31
num_cat=0
split_feature=6 6 6 2 4 4 2 0 3 0 1 5 6 2 5 2 4 0 2 6 5 0 5 3 3 0 5 4 0 6
split_gain=1.52374e+07 361716 294954 128087 118685 104089 60313.9 53558.9 51103.3 47945.7 35214.8 33651.9 30104.5 29777.1 33788.2 27110.1 23855.5 23419.1 37473 23447.8 22871.9 20209.9 18060.8 20808.1 17725 15462.6 13884.6 13431.2 13000.2 12140.9
threshold=6.0013500000000013 2.5000500000000003 18.002950000000002 1.0000000180025095e-35 2.5000000000000004 7.5000000000000009 1.0000000180025095e-35 30989.500000000004 1.0000000180025095e-35 17171.500000000004 0.76665000000000016 1192.5000000000002 58.470000000000006 1.0000000180025095e-35 29.500000000000004 1.0000000180025095e-35 50.500000000000007 11929.500000000002 1.0000000180025095e-35 0.99990000000000012 29.500000000000004 12502.500000000002 112.50000000000001 1.0000000180025095e-35 1.0000000180025095e-35 108400.50000000001 49.500000000000007 1.5000000000000002 5152.5000000000009 66.171450000000007
decision_type=2 2 2 2 2 2 2 2 2 2 2 2 2 2 2 2 2 2 2 2 2 2 2 2 2 2 2 2 2 2
left_child=1 5 6 10 13 8 -2 22 17 15 -4 16 -5 -3 21 -6 -7 18 -1 -20 25 -15 23 -8 26 -9 -17 -21 -10 -12
right_child=2 4 3 12 9 11 7 20 28 -11 29 -13 -14 14 -16 24 -18 -19 19 27 -22 -23 -24 -25 -26 -27 -28 -29 -30 -31
leaf_value=-0.049519937146466984 0.0084599797777668538 -0.05026334972477306 0.040103047909098619 0.24210726968511503 -0.027305738579647118 0.044854124679032853 0.16587701416550957 0.052987081598653646 0.12167598896173684 0.033900736516269507 0.071052872987460589 -0.033681251204946382 0.26692894276579027 0.051262846120181699 0.088971955883412834 0.10640336082307066 0.15014260358362166 -0.049363028852437867 -0.035545326600262363 -0.010519702030032387 0.16941858367535811 -0.016023914212335014 0.23247982792475699 0.24076843303613538 0.22132031456615209 0.21902539320569289 0.17667642117337587 0.031279456695892764 0.0120529681488909 0.19425676997356922
leaf_weight=150756.41631952673 5206.4141169264913 14344.324220322073 5052.1254039481282 142533.53117984533 2283.0995856299996 23128.293564207852 38421.832887642086 11540.545534037054 5537.7630213946104 14674.751850955188 2178.5666827186942 10754.146325029433 854360.71399030089 17294.307643570006 17420.146280996501 18351.041591472924 7010.4946346208453 402520.19931077212 78775.646399512887 67270.466944530606 11638.851402677596 31458.99079913646 30860.072841472924 12226.273315660655 7085.1766870692372 1596.1222307011485 11392.811091057956 26905.136208698153 5286.0670012682676 24341.219388484955
leaf_count=1303073 37661 124115 33443 240238 18612 151167 136736 69290 27367 98233 11949 87691 956332 109315 94770 91737 30157 3474082 658845 531460 38649 247268 62075 21503 17013 4987 38914 186249 36025 71250
internal_value=0 -0.022314 0.251866 0.26024 0.053461 -0.0353958 0.174619 0.182759 -0.0397038 0.110969 0.161088 0.0422508 0.26338 0.0150448 0.0292015 0.139885 0.069345 -0.0413111 -0.0312987 -0.0154159 0.11838 0.00784479 0.202327 0.183956 0.15025 0.073161 0.13332 0.00142195 0.0681391 0.184136
internal_weight=0 912249 1.13996e+06 1.02847e+06 134305 777945 111490 106284 737052 53786.9 31571.9 40892.9 996894 80517.8 66173.4 39112.1 30138.8 726228 323708 172951 24775.5 48753.3 81508.2 50648.1 36829 13136.7 29743.9 94175.6 10823.8 26519.8
internal_count=9010206 7326093 1684113 1313212 839977 6486116 370901 333240 6217101 264509 116642 269015 1196570 575468 451353 166276 181324 6153709 2679627 1376554 112926 356583 220314 158239 147664 74277 130651 717709 63392 83199
is_linear=0
shrinkage=0.05


Tree=2
num_leaves=31
num_cat=0
split_feature=6 6 4 2 2 6 6 2 0 0 2 0 5 1 4 5 1 3 3 5 3 0 0 3 4 0 5 0 1 2
split_gain=1.10399e+07 263193 243376 94438.1 84484.9 64840.3 53125.1 49117.6 46759.4 34184.9 36506 31230.4 28354.4 26596.6 23714.5 21364.8 17696.6 17162.9 15996.3 14576.7 17543.4 12276.2 11991.7 11164 10983.2 10957.2 10307.7 9418.38 16318.6 10517.8
threshold=5.0084500000000007 14.037050000000002 2.5000000000000004 1.0000000180025095e-35 1.0000000180025095e-35 1.9525500000000002 2.0339500000000004 1.0000000180025095e-35 27129.500000000004 13275.500000000002 1.0000000180025095e-35 14060.500000000002 134.50000000000003 0.75970000000000015 14.500000000000002 40.500000000000007 0.0059500000000000013 1.0000000180025095e-35 1.0000000180025095e-35 51.500000000000007 1.0000000180025095e-35 108400.50000000001 120121.00000000001 1.0000000180025095e-35 17.500000000000004 36609.500000000007 31.500000000000004 5093.5000000000009 1.0000000180025095e-35 1.0000000180025095e-35
decision_type=2 2 2 2 2 2 2 2 2 2 2 2 2 2 2 2 2 2 2 2 2 2 2 2 2 2 2 2 2 2
left_child=2 7 5 -4 13 17 14 -2 19 10 -7 23 18 -3 -5 21 -12 27 -6 20 -9 -10 -11 24 -8 -16 -18 28 -1 -30
right_child=1 4 3 6 12 9 11 8 15 22 16 -13 -14 -15 25 -17 26 -19 -20 -21 -22 -23 -24 -25 -26 -27 -28 -29 29 -31
leaf_value=0.029656665752804463 -0.011796995325688354 0.036525935943963979 -0.030772272199309815 0.0062841734742034184 0.17460671841575684 -0.050020760279369719 0.087414037078141424 0.12100166518856721 0.038850818899042697 -0.030632512303127114 0.11944205992496225 0.032782540123552646 0.21491423718862809 0.15360638074245705 0.096734998379535364 0.14286323389208566 0.014819028123758307 0.03397884044753862 0.21626609836620869 0.18119088235496872 0.19297361436049626 0.17421614887347583 0.11566830330070432 0.18025943088206919 0.15355100724222945 -0.02938942814957192 0.070258622772867763 -0.049708551601207351 -0.051019882534263011 -0.025558407045796094
leaf_weight=9053.7454067617655 5671.8653874546289 5772.8865967094898 41616.219457171857 43001.316715508699 72472.352321192622 14731.076295912266 21027.830907911062 33851.965351343155 16778.579817064106 86779.875103026628 6071.8564229086041 14358.317128352821 1086811.40130651 30362.136736020446 12773.072611682117 10031.089122578502 33939.454398438334 6888.3782891631126 33784.641609251499 37469.745369493961 11291.021296322346 1860.6314574107528 1423.623884499073 6324.7897548079491 8948.8933552801609 1990.3751916736364 11134.835613645613 391921.09334962815 88164.569951951504 75118.084237009287
leaf_count=67938 43798 37314 347973 316845 149828 132469 100177 127954 101669 724086 30852 93529 1068723 86240 61367 31241 235806 42131 38608 78851 18528 5633 8089 14019 28414 15055 62077 3515401 794728 630863
internal_value=0 0.203403 -0.0247096 0.033256 0.210223 -0.036702 0.0578317 0.131729 0.139044 -0.00791776 0.0193336 0.0952045 0.212504 0.134902 0.0250557 0.0840273 0.039309 -0.0444673 0.187852 0.158138 0.139003 0.0523635 -0.0282712 0.119894 0.107158 0.0797312 0.0285144 -0.045425 -0.0356834 -0.0393063
internal_weight=0 1.34616e+06 875267 150041 1.2292e+06 725227 108425 116955 111283 154081 65877.2 50659.8 1.19307e+06 36135 57764.8 28670.3 51146.1 571146 106257 82612.7 45143 18639.2 88203.5 36301.5 29976.7 14763.4 45074.3 564257 172336 163283
internal_count=9010206 1788387 7221819 977379 1380713 6244440 629406 407674 363876 1193379 461204 236139 1257159 123554 393267 138543 328735 5051061 188436 225333 146482 107302 732175 142610 128591 76422 297883 5008930 1493529 1425591
is_linear=0
shrinkage=0.05


Tree=3
num_leaves=31
num_cat=0
split_feature=6 4 6 2 6 2 0 6 2 0 0 2 6 5 1 3 4 3 3 4 0 0 0 2 1 6 6 4 0 5
split_gain=8.50653e+06 224278 186369 81819 62580.2 61228.5 45672.6 37058.8 36130.8 34123.7 31210.6 32797.1 26446.8 21261.8 20237.7 16173 15209.5 14976.3 14060.1 13674.2 11526.6 10380.2 9442.72 14486.8 14084 8747.61 8629.66 7815.53 7802.32 7329.26
threshold=5.0084500000000007 2.5000000000000004 13.005050000000002 1.0000000180025095e-35 1.9525500000000002 1.0000000180025095e-35 27129.500000000004 1.5355000000000003 1.0000000180025095e-35 17171.500000000004 13275.500000000002 1.0000000180025095e-35 42.102250000000005 29.500000000000004 0.77545000000000008 1.0000000180025095e-35 33.500000000000007 1.0000000180025095e-35 1.0000000180025095e-35 17.500000000000004 32871.500000000007 120121.00000000001 11341.500000000002 1.0000000180025095e-35 1.0000000180025095e-35 66.171450000000007 3.0003000000000006 1.5000000000000002 108400.50000000001 15185.000000000002
decision_type=2 2 2 2 2 2 2 2 2 2 2 2 2 2 2 2 2 2 2 2 2 2 2 2 2 2 2 2 2 2
left_child=1 4 8 -3 15 14 7 19 -2 -10 11 -6 20 28 -4 22 18 26 -9 -5 -7 -12 23 -1 -25 -16 27 -13 -11 -15
right_child=2 3 5 6 10 12 -8 16 9 13 21 17 -14 29 25 -17 -18 -19 -20 -21 -22 -23 -24 24 -26 -27 -28 -29 -30 -31
leaf_value=-0.049671007138548981 -0.015144658476447604 -0.029926518995983351 0.036704860664528841 0.010748838338015876 -0.049395279225174005 0.16829464467423141 -0.0101143336103185 0.07024274521017268 0.13820044702009579 0.037772460154014739 -0.029786399082574827 0.0016198281683290504 0.18307605249518133 0.13245548602039628 0.051292303507142027 0.031515234604237163 0.150223247742304 0.14547686082955388 0.14877783349445317 0.081292539957929857 0.13521398832889672 0.10092865250513086 -0.050428332819496435 0.036990743694971601 -0.02964848247266132 0.14126127194377758 0.062875362439552537 0.053269428363059972 0.1480222673846843 -0.019481185170340514
leaf_weight=116492.76314073056 5271.0773183405399 40676.917418144643 6508.4432415813208 26202.719435557723 14185.595741130412 133422.73899815977 22956.065720699728 37251.579223945737 74689.299445033073 19485.268897376955 84832.864785209298 25208.958342708647 1172616.1718182415 14485.025960326195 2968.6555764079094 7051.1341236233711 10126.792097985744 2962.7704602777958 6728.3633045405149 9310.3449222296476 32807.481385052204 1546.4599790647626 310049.78779051453 8543.4364572241902 110208.94073655456 30049.39213822782 14084.010394863784 10323.772108457983 1748.7758785933256 839.74893899261951
leaf_count=1087335 41494 347973 40420 188163 132469 186255 173617 183671 181997 111881 724086 180725 1020855 39947 14491 42131 26491 11219 15410 42054 70859 8089 2900751 62161 958683 70947 74221 62570 4816 4425
internal_value=0 -0.0239735 0.173487 0.0308508 -0.0358829 0.17862 0.0528114 0.0689298 0.112766 0.118826 -0.0076017 0.0180727 0.18043 0.0792456 0.117288 -0.0437242 0.0949783 0.0362751 0.0822576 0.0292431 0.161766 -0.0274462 -0.0446971 -0.0371434 -0.0248542 0.133172 0.0297543 0.0166262 0.0468523 0.12413
internal_weight=0 858743 1.49489e+06 153253 705490 1.37837e+06 112576 89619.8 116519 111248 153144 66765.1 1.33885e+06 36558.8 39526.5 552346 54106.7 52579.5 43979.9 35513.1 166230 86379.3 545295 235245 118752 33018 49616.7 35532.7 21234 15324.8
internal_count=9010206 7221819 1788387 977379 6244440 1403827 629406 455789 384560 343066 1193379 461204 1277969 161069 125858 5051061 225572 328735 199081 230217 257114 732175 5008930 2108179 1020844 85438 317516 243295 116697 44372
is_linear=0
shrinkage=0.05


Tree=4
num_leaves=31
num_cat=0
split_feature=6 6 4 2 2 6 2 0 0 0 2 6 6 1 3 5 3 5 1 0 4 0 2 1 0 4 5 3 0 1
split_gain=6.83495e+06 217447 161992 57080 48479.2 43892.2 43412.1 38082.3 33110.2 24926.8 24086.5 23707.8 20860.6 16187.7 15258.8 14820.8 16568.7 13848 13698.5 10814.9 10548.3 9501.39 15479.5 14974 9369.77 9012.63 8346.66 8285.52 7856.67 7055.17
threshold=4.0024000000000006 12.001700000000001 2.5000000000000004 1.0000000180025095e-35 1.0000000180025095e-35 1.9525500000000002 1.0000000180025095e-35 32871.500000000007 17882.500000000004 10485.500000000002 1.0000000180025095e-35 38.765550000000005 1.5355000000000003 0.75970000000000015 1.0000000180025095e-35 40.500000000000007 1.0000000180025095e-35 23.500000000000004 0.0059500000000000013 108400.50000000001 26.500000000000004 5093.5000000000009 1.0000000180025095e-35 1.0000000180025095e-35 14387.500000000002 26.500000000000004 49.500000000000007 1.0000000180025095e-35 4235.5000000000009 0.22585000000000002
decision_type=2 2 2 2 2 2 2 2 2 2 2 2 2 2 2 2 2 2 2 2 2 2 2 2 2 2 2 2 2 2
left_child=2 6 5 -4 13 14 -2 15 12 10 -7 24 20 -3 21 16 28 19 -12 -9 -5 22 -1 -24 -6 27 -26 -14 -8 -25
right_child=1 4 3 8 11 9 7 17 -10 -11 18 -13 25 -15 -16 -17 -18 -19 -20 -21 -22 -23 23 29 26 -27 -28 -29 -30 -31
leaf_value=-0.048621278943106395 -0.026616563501808028 0.031693829989146619 -0.029003009563872646 0.014660250842241585 0.1487440580625051 -0.048933288800542728 0.1037773141251993 0.0070666249058737134 -0.0067551335169381242 -0.028815253364807454 0.1020330252805442 0.16035953589331589 0.059234216248258025 0.11702520878366141 0.029289381499265472 0.13317098555293547 0.14463184956736153 0.089326414838690915 0.020371270558932626 0.13383480631132549 0.082749323710993097 -0.048469510786991743 0.062018109990777628 -0.029027373313385663 0.098457170714845388 0.12541994403295215 0.13843220634194539 0.12904289549438339 0.061168834689253208 0.023168652383302242
leaf_weight=85460.617081195116 7357.4537977352738 6577.2690815776587 39150.781365193427 26591.756718441844 117195.76272372901 11849.565859735012 19777.273601129651 15930.720313228667 26014.967832572758 83163.754535287619 5934.2685093730688 1283557.276513502 28376.983400605619 35860.202880196273 7203.5440875589848 47222.738765597343 13074.152612157166 12365.797019720078 38148.496135339141 1881.1067142337561 7235.931428745389 364017.9099540785 5466.0304968953133 64883.025680094957 20466.883286684752 9269.672502681613 36072.113776087761 4999.3445360809565 23885.105070888996 7191.5674431920052
leaf_count=827597 62114 40610 342640 183405 150274 115003 63270 106205 195835 722208 26095 1037787 136702 87238 42131 97424 19930 43774 245755 5216 29101 3515401 35069 574252 55363 24110 54462 10791 103833 56611
internal_value=0 0.150889 -0.0262509 0.0223526 0.156479 -0.0364751 0.0916375 0.0981238 0.0419705 -0.0114568 0.0143528 0.158013 0.058546 0.1038 -0.0429891 0.112478 0.0952542 0.048676 0.0313643 0.0204546 0.0292249 -0.043977 -0.0339444 -0.0177684 0.140679 0.0818042 0.123961 0.0696907 0.0804687 -0.0238193
internal_weight=0 1.64122e+06 814958 141639 1.49973e+06 673319 141494 134137 102489 139096 55932.3 1.45729e+06 76473.7 42437.5 534223 103959 56736.5 30177.6 44082.8 17811.8 33827.7 527019 163001 77540.6 173735 42646 56539 33376.3 43662.4 72074.6
internal_count=9010206 1927500 7082706 922584 1425734 6160122 501766 439652 579944 1109061 386853 1297886 384109 127848 5051061 284457 187033 155195 271850 111421 212506 5008930 1493529 665932 260099 171603 109825 147493 167103 630863
is_linear=0
shrinkage=0.05


Tree=5
num_leaves=31
num_cat=0
split_feature=6 6 4 2 6 2 2 0 0 5 0 2 6 3 1 3 3 5 5 3 4 0 2 1 0 4 3 0 4 6
split_gain=5.65439e+06 178087 150797 50438.5 42510.1 41096.8 34368.9 28811.5 28331 24801.8 23015 22235.3 18100.9 14411.5 13563.9 12302.7 12200 11605.4 10842 11273.4 10286.7 9538.93 14183.8 12036.7 8729.93 8670 7955.04 7291.47 6652.75 6578.55
threshold=4.0024000000000006 11.004800000000001 2.5000000000000004 1.0000000180025095e-35 1.9525500000000002 1.0000000180025095e-35 1.0000000180025095e-35 31255.500000000004 28175.500000000004 106.50000000000001 13275.500000000002 1.0000000180025095e-35 1.5202500000000001 1.0000000180025095e-35 0.77545000000000008 1.0000000180025095e-35 1.0000000180025095e-35 40.500000000000007 68.500000000000014 1.0000000180025095e-35 9.5000000000000018 11341.500000000002 1.0000000180025095e-35 1.0000000180025095e-35 108400.50000000001 17.500000000000004 1.0000000180025095e-35 32073.000000000004 1.5000000000000002 66.171450000000007
decision_type=2 2 2 2 2 2 2 2 2 2 2 2 2 2 2 2 2 2 2 2 2 2 2 2 2 2 2 2 2 2
left_child=2 6 4 -4 13 14 -2 18 12 15 11 -6 20 21 -3 27 28 24 19 -8 -5 22 -1 -24 -9 26 -14 -7 -13 -16
right_child=1 5 3 8 10 9 7 17 -10 -11 -12 16 25 -15 29 -17 -18 -19 -20 -21 -22 -23 23 -25 -26 -27 -28 -29 -30 -31
leaf_value=-0.048468785857626054 -0.028866198544475474 0.030828868795042159 -0.02817908141891284 0.0038897380780267866 -0.048615888801999067 0.11984222224563823 0.075268013062181824 0.0097891327106452829 -0.014636422899214067 0.14326537988325402 -0.029448980054952101 0.0076207225197605869 0.04879311687674761 0.027269767480087716 0.039006485012494548 0.14329770329981803 0.11919337364670393 0.08785090346260388 0.12045363602099064 0.12759565931619735 0.057979217243594762 -0.049279661309380669 0.03261060755643868 -0.027915134961193768 0.11700213271577453 0.10679696198969996 0.11497033204398827 0.08926493056864325 0.049160404762411153 0.11161872406301508
leaf_weight=108008.07520665228 6848.697737172246 7363.4154336676002 38302.6077099666 22421.257954657078 12275.927394531667 65019.02998585999 49008.200030773878 17900.053896225989 20038.083238467574 1420602.6188620776 75949.727956593037 32588.767537459731 29922.355451837182 7346.3605799973011 3431.249559648335 41951.638779148459 3315.6817658394575 9675.8189019560814 37006.744192793965 13029.22361420095 14458.35663305223 287315.4827484563 8910.0244752541184 105186.29579017311 2123.9939758479595 12857.643000744283 5353.6395067572594 27846.565989494324 13686.658276006579 34304.527107670903
leaf_count=1087335 59549 44092 342640 162090 123587 106170 173639 115283 156592 1110805 680260 218107 146551 42131 15374 39285 10980 30526 69377 18960 68805 2900751 62161 958683 5527 34639 11267 67966 76127 70947
internal_value=0 0.135295 -0.0255092 0.020938 -0.0356811 0.139956 0.0802764 0.0860823 0.0388466 0.14132 -0.0110077 0.0116313 0.0514528 -0.0422613 0.0929035 0.120825 0.0265451 0.042888 0.0990348 0.086258 0.0250951 -0.043264 -0.0354822 -0.0231886 0.0211614 0.0716479 0.0588365 0.110673 0.0199067 0.105016
internal_weight=0 1.73611e+06 797937 143354 654583 1.60052e+06 135593 128744 105051 1.55542e+06 137817 61867 85013.3 516766 45099.2 134817 49591.1 29699.9 99044.2 62037.4 36879.6 509420 222104 114096 20024 48133.6 35276 92865.6 46275.4 37735.8
internal_count=9010206 1927500 7082706 922584 6160122 1454639 472861 413312 579944 1324226 1109061 428801 423352 5051061 130413 213421 305214 151336 261976 192599 230895 5008930 2108179 1020844 120810 192457 157818 174136 294234 86321
is_linear=0
shrinkage=0.05


Tree=6
num_leaves=31
num_cat=0
split_feature=6 6 4 2 6 2 2 0 0 0 6 2 4 6 3 1 5 3 0 2 1 1 5 0 0 1 5 0 6 0
split_gain=4.77741e+06 152036 140427 44723.8 41124.5 35000.8 30054.7 25139.9 24541.5 21401.7 20474.2 19537.5 16545.4 15154.8 13622.8 10678.6 10298.8 11796.6 9564.72 14956.2 12306.9 9506.9 9156.22 8701.59 7000.41 6721.98 6586.77 6364.75 6268.86 6115.89
threshold=4.0024000000000006 12.001700000000001 2.5000000000000004 1.0000000180025095e-35 1.9525500000000002 1.0000000180025095e-35 1.0000000180025095e-35 36018.500000000007 35136.500000000007 5556.5000000000009 46.340000000000011 1.0000000180025095e-35 33.500000000000007 1.7714500000000004 1.0000000180025095e-35 0.75970000000000015 40.500000000000007 1.0000000180025095e-35 5093.5000000000009 1.0000000180025095e-35 1.0000000180025095e-35 0.0059500000000000013 54.500000000000007 108400.50000000001 18577.500000000004 0.19575000000000004 82.500000000000014 5556.5000000000009 87.982750000000024 120121.00000000001
decision_type=2 2 2 2 2 2 2 2 2 2 2 2 2 2 2 2 2 2 2 2 2 2 2 2 2 2 2 2 2 2
left_child=2 6 4 -4 14 15 -2 16 12 11 24 -6 13 -5 18 28 17 27 19 -1 -21 -13 23 -9 -7 -22 -26 -8 -3 -11
right_child=1 5 3 8 9 10 7 22 -10 29 -12 21 -14 -15 -16 -17 -18 -19 -20 20 25 -23 -24 -25 26 -27 -28 -29 -30 -31
leaf_value=-0.04739946188027308 -0.025013687623428989 0.059482681930085171 -0.027365895413723609 0.01270399364511603 -0.047119938804202406 0.12045416410949349 0.083268401416637661 0.0089133473078588654 -0.018678691699441589 -0.02530050659014766 0.13110956560189096 0.10137023343179417 0.091562040171148107 0.058134855836913912 0.02543031049073324 0.094825370220277427 0.10705883882032502 0.11661738231606458 -0.047263991440133865 0.053391928511861989 -0.028060941452222606 0.025557407733940225 0.081624383189543848 0.10603130908241361 0.083088099590979764 0.018823694176401545 0.11521103803001963 0.04720271189419873 -0.043641343177645842 0.084440480924939831
leaf_weight=79232.580956868827 7074.3986885175109 4722.9387812763453 37489.717903576791 35305.570219025016 8821.3337643221021 164461.38287240267 24858.746148616076 18155.333285391331 17192.033670134842 93112.155337274075 1379823.4767363071 4837.3215129077435 16620.555535174906 38237.26009286195 7480.2720568180084 39829.97413803637 53619.195515558124 14684.526599235833 338102.66980653256 5847.9334368929267 60545.797552064061 28488.459396325052 8996.8215345740318 2642.0716497153044 28549.696607112885 8749.7866099178791 36182.949266150594 24085.453174695373 2142.0990418791771 1287.1351416930556
leaf_count=827597 62114 25510 342640 235463 92463 184888 73372 113296 137437 820700 1002687 17506 47289 159755 42131 87238 99172 20194 3515401 35069 560443 171488 26403 6319 66289 70420 44022 100896 15100 6904
internal_value=0 0.123151 -0.0247848 0.0196499 -0.0348965 0.127572 0.0756512 0.0804943 0.0360683 -0.0105774 0.128811 0.0190474 0.0465073 0.0363249 -0.0415384 0.0848986 0.0909161 0.0773128 -0.0425555 -0.0322435 -0.0162627 0.0365618 0.0394817 0.0212511 0.114972 -0.0221409 0.101044 0.0655205 0.0273049 -0.0238042
internal_weight=0 1.80983e+06 781351 144845 636505 1.65571e+06 154117 147042 107355 136546 1.60902e+06 42147.1 90163.4 73542.8 499959 46695 117248 63628.7 492479 154376 75143.5 33325.8 29794.2 20797.4 229194 69295.6 64732.6 48944.2 6865.04 94399.3
internal_count=9010206 1927500 7082706 922584 6160122 1425734 501766 439652 579944 1109061 1297886 281457 442507 395218 5051061 127848 293634 194462 5008930 1493529 665932 188994 146018 119615 295199 630863 110311 174268 40610 827604
is_linear=0
shrinkage=0.05


Tree=7
num_leaves=31
num_cat=0
split_feature=6 6 4 2 0 2 2 6 0 2 0 1 1 5 6 4 5 3 5 3 1 0 6 4 3 6 1 1 6 5
split_gain=4.10291e+06 135733 132771 61451.1 40370.9 29554.2 27902 24622.2 22140.3 20985.8 26853.2 20789.4 13006.4 12546.6 12515.9 11231 10632 10213.2 9557.52 10701.8 8252.62 7844.7 7780.86 7234.97 7153.35 5717.26 6019.92 5486.84 5425.71 5197.18
threshold=4.0024000000000006 16.005050000000004 1.5000000000000002 1.0000000180025095e-35 17882.500000000004 1.0000000180025095e-35 1.0000000180025095e-35 1.5202500000000001 34268.000000000007 1.0000000180025095e-35 5093.5000000000009 1.0000000180025095e-35 0.087950000000000014 220.50000000000003 2.0003500000000005 9.5000000000000018 25.500000000000004 1.0000000180025095e-35 98.500000000000014 1.0000000180025095e-35 0.75970000000000015 108400.50000000001 2.0003500000000005 10.500000000000002 1.0000000180025095e-35 87.982750000000024 0.52055000000000007 0.0059500000000000013 9.0015000000000018 23.500000000000004
decision_type=2 2 2 2 2 2 2 2 2 2 2 2 2 2 2 2 2 2 2 2 2 2 2 2 2 2 2 2 2 2
left_child=2 6 9 -4 7 20 -2 15 18 -1 11 -11 -13 24 -12 -5 21 23 19 28 25 -10 -6 27 -7 26 -3 -9 -8 -24
right_child=1 5 3 4 22 13 8 17 16 10 14 12 -14 -15 -16 -17 -18 -19 -20 -21 -22 -23 29 -25 -26 -27 -28 -29 -30 -31
leaf_value=-0.050466572738056742 -0.014296333779525086 -0.017142398555919154 -0.034396844779838835 -0.001612620681520068 -0.029041611423787007 0.10055004911894072 0.059099547373874441 0.094071072716554183 0.0098507757369065696 0.063021754115774431 -0.042963690363566676 -0.033736675868039599 0.0077287141743408797 0.1208900755847901 -0.0097780838796639302 0.049983460234352163 0.073206547129718968 0.10575477546988749 0.10377310642920363 0.10867401878208149 0.08706850045960679 0.09895169536186027 -0.0044446650905667021 0.079659429881030488 0.12146092327929965 -0.042739842041417522 0.10976244978742744 0.033964544727128787 0.086425387179485016 0.058931490135755771
leaf_weight=203103.05421033502 8386.1342376098037 1540.4472131431103 63631.266303397715 37328.762258723378 32802.027012161911 129050.00788119435 48689.838353954256 4216.2628920674324 18592.185781463981 9682.2445284128189 211213.11852183193 41323.472233727574 34868.983193539083 1424589.9221982211 32828.046950340271 14700.269299730659 18793.487240195274 9848.2151069790125 56516.97006380558 22179.60744856298 40981.294093057513 2848.833311393857 11370.663375072181 15721.061817109585 59873.15657132864 2079.5186152905226 2375.6331122815609 38165.017274558544 28976.325962051749 4521.0764751434326
leaf_count=2202895 70067 9748 631877 298797 305211 167678 165626 15929 114494 49354 2210225 392297 257328 1009660 273901 64989 52189 20884 84051 27412 85111 6317 88007 45316 46921 15100 9936 197876 63190 27820
internal_value=0 0.113408 -0.0240735 0.00747227 0.0232672 0.118146 0.0750211 0.0388507 0.0788311 -0.037822 -0.0300377 -0.0059905 -0.0147603 0.119284 -0.0384996 0.0129653 0.045753 0.0586708 0.0873426 0.0780422 0.0790527 0.0216895 -0.0151298 0.0506902 0.107177 0.0242628 0.0598426 0.0399442 0.0692945 0.0135854
internal_weight=0 1.86547e+06 765324 232305 168673 1.66049e+06 204983 119980 196597 533019 329916 85874.7 76192.5 1.61351e+06 244041 52029 40234.5 67950.6 156363 99845.8 46976.9 21441 48693.8 58102.3 188923 5995.6 3916.08 42381.3 77666.2 15891.7
internal_count=9010206 1927500 7082706 1696706 1064829 1344154 583346 643791 513279 5386000 3183105 698979 649625 1224259 2484126 363786 173000 280005 340279 256228 119895 120811 421038 259121 214599 34784 19684 213805 228816 115827
is_linear=0
shrinkage=0.05


Tree=8
num_leaves=31
num_cat=0
split_feature=6 4 6 2 0 2 2 6 2 0 0 5 1 6 1 3 6 4 3 6 4 1 6 5 6 0 6 5 1 1
split_gain=3.56926e+06 124968 124488 55823 35497.6 26070.5 25809.8 21042.5 20859.8 25703.7 20693.6 18380.3 18241.5 12174.1 12126.5 9369.83 9201.23 8718.07 7312.18 7193.22 6875.69 6565.71 6013.21 5653.81 5609.78 5336.72 5321.83 5036.83 4980.42 4727.18
threshold=4.0024000000000006 1.5000000000000002 19.004850000000001 1.0000000180025095e-35 17882.500000000004 1.0000000180025095e-35 1.0000000180025095e-35 1.3334000000000001 1.0000000180025095e-35 5093.5000000000009 13122.500000000002 26.500000000000004 1.0000000180025095e-35 2.0003500000000005 0.087950000000000014 1.0000000180025095e-35 69.082100000000011 9.5000000000000018 1.0000000180025095e-35 2.0339500000000004 10.500000000000002 0.75970000000000015 8.001750000000003 29865.000000000004 9.0015000000000018 127443.50000000001 84.848000000000013 30.500000000000004 0.52055000000000007 0.0059500000000000013
decision_type=2 2 2 2 2 2 2 2 2 2 2 2 2 2 2 2 2 2 2 2 2 2 2 2 2 2 2 2 2 2
left_child=1 8 5 -3 7 -2 21 17 -1 12 22 18 -10 25 -14 20 -8 -5 24 -6 29 26 -7 -13 -12 -11 28 -15 -4 -9
right_child=2 3 6 4 19 10 16 15 9 13 11 23 14 27 -16 -17 -18 -19 -20 -21 -22 -23 -24 -25 -26 -27 -28 -29 -30 -31
leaf_value=-0.049971768490388674 -0.010587631496685124 -0.033593744244490381 -0.020485841668046543 -0.0037573718370510416 -0.028176785456199623 0.074260141607967345 0.1027990454017913 0.084323838253092753 0.057400008662435754 -0.042857085213752137 0.010205664874532373 0.081369348736635594 -0.032919477083762229 -0.021552246221211178 0.0073005638293382989 0.096208748437678834 0.11297989626881447 0.043778675219878167 0.099361782379107033 0.012881898312088897 0.071951257425577744 0.080692467065678397 0.09471164661083481 -0.032739597414646264 0.050837770169540164 0.068656902137598896 -0.040855798659426422 0.0223294251204838 0.10410583845494895 0.030282046021177018
leaf_weight=195062.39661695808 9254.5341180115938 61938.297805897892 1236.6982122957706 33564.174274094403 32164.830947712064 61608.003186807036 265467.60776080191 4470.7358412891626 10087.886238515377 203057.5531187132 24112.823010094464 40488.831140190363 40259.175308451056 23533.904984526336 35063.091005757451 10547.430305399001 1353236.8886443526 13534.706912785769 3577.2049877271056 15960.455005228519 17712.356492936611 41892.381614074111 86271.011041820049 1115.4356015026569 13114.939875200391 1078.5894573479891 2060.7060750871897 9055.5190424099565 2282.4561661481857 42646.92752238363
leaf_count=2202895 74904 631877 7975 271502 305873 146534 262466 16016 49354 2201012 138150 86667 392297 207260 257328 21744 922871 58743 7231 115165 50775 83146 122655 4895 46069 9213 15335 66641 8602 225011
internal_value=0 -0.0233798 0.105399 0.00706367 0.0218247 0.0716957 0.110245 0.0361215 -0.0370676 -0.0292538 0.0750024 0.0549245 -0.00574037 -0.0377374 -0.0141967 0.0525039 0.11131 0.00990296 0.031081 -0.0145599 0.0453934 0.0739061 0.0861913 0.07831 0.0245199 -0.0422679 0.0229558 -0.00935899 0.0603219 0.0354098
internal_weight=0 749738 1.90572e+06 232540 170602 239543 1.66618e+06 122476 517198 322136 230288 82409.2 85410.2 236726 75322.3 75377.5 1.6187e+06 47098.9 40805 48125.3 64830 47472.2 147879 41604.3 37227.8 204136 5579.86 32589.4 3519.15 47117.7
internal_count=9010206 7082706 1927500 1696706 1064829 627105 1300395 643791 5386000 3183105 552201 283012 698979 2484126 649625 313546 1185337 330245 191450 421038 291802 115058 269189 91562 184219 2210225 31912 273901 16577 241027
is_linear=0
shrinkage=0.05


Tree=9
num_leaves=31
num_cat=0
split_feature=6 4 6 2 0 2 2 0 6 2 5 3 6 6 0 1 4 6 5 5 3 6 1 5 5 4 6 0 3 3
split_gain=3.13817e+06 125493 104136 54061.7 32609.4 23765.2 21936.1 24928.4 19129.5 19072.4 19036.9 19582.9 16795.2 14597.9 11463.4 9092.88 8042.66 8002.84 7910.7 7533.56 6542.49 6242.19 5880.46 5844.09 5687.2 5105.56 4930.1 4918.86 4696.38 4633.98
threshold=4.5002500000000003 1.5000000000000002 21.021750000000004 1.0000000180025095e-35 14224.500000000002 1.0000000180025095e-35 1.0000000180025095e-35 4419.5000000000009 1.5202500000000001 1.0000000180025095e-35 49.500000000000007 1.0000000180025095e-35 0.99990000000000012 2.0003500000000005 10622.500000000002 0.0041500000000000009 7.5000000000000009 2.0339500000000004 45602.500000000007 232.50000000000003 1.0000000180025095e-35 8.001750000000003 0.77545000000000008 30.500000000000004 23.500000000000004 17.500000000000004 102.67940000000002 115333.50000000001 1.0000000180025095e-35 1.0000000180025095e-35
decision_type=2 2 2 2 2 2 2 2 2 2 2 2 2 2 2 2 2 2 2 2 2 2 2 2 2 2 2 2 2 2
left_child=1 6 9 -3 8 22 -1 12 16 -2 11 14 -8 27 -11 -14 -5 -6 -12 29 25 -16 26 -15 28 -10 -4 -9 -19 -7
right_child=2 3 5 4 17 19 7 13 20 10 18 -13 15 23 21 -17 -18 24 -20 -21 -22 -23 -24 -25 -26 -27 -28 -29 -30 -31
leaf_value=-0.049474540982833312 -0.0031202095679040611 -0.032778501422918577 0.054353735891698764 -0.0020412943347908937 -0.024630737819414904 0.089100656805336451 -0.033719302183921232 -0.04179807653759033 0.038274382159953324 0.065501202925454166 0.087779220026072149 0.095854537259173311 0.058356760189788942 -0.019906545478699134 0.013675488641725943 0.0037566592793591824 0.040081898564903788 -0.010787744098450666 -0.039242012502528387 0.10576950383247544 0.087992830310320083 0.048527304470570846 0.075309287116364587 0.024038622952220132 0.055221615536014547 0.072229927888446885 -0.044042897187381046 0.052430664830883912 0.10461388048460663 0.10640601842306684
leaf_weight=187981.31335988641 8824.7579671889544 60713.540992423892 3778.7211821377277 33276.272847153246 35058.044140100479 117608.22464951873 29169.496109761298 201941.17535448074 48337.869968757033 48981.676702931523 114293.19051925838 27432.705910786986 9396.3178471177816 24701.137682326138 24832.977399975061 40455.758821308613 17183.280682869256 12719.655062027276 1239.0399020910263 1446415.5369080752 10916.911676958203 26619.998597875237 42308.664073094726 10905.598911650479 6115.4755189791322 14358.834695249796 1919.7767677903175 1394.5253824517131 947.27306125313044 57644.96551425755
leaf_count=2209620 67363 635660 17010 267618 334056 134175 294009 2251379 219105 119094 165588 32779 43296 217306 133444 306590 76435 96917 5095 986683 20643 83594 80489 73588 32736 33306 14592 11882 3910 42244
internal_value=0 -0.0218169 0.0990333 0.0079901 0.0218247 0.103557 -0.0359342 -0.0279291 0.0360163 0.0690882 0.0717062 0.0584145 -0.00358456 -0.0359802 0.0481881 0.0140479 0.0123032 -0.0102829 0.086417 0.104583 0.0522709 0.0317066 0.068887 -0.00644706 0.0151442 0.0460509 0.0212047 -0.0411518 -0.0027891 0.0947928
internal_weight=0 745572 1.9219e+06 239627 178914 1.66968e+06 505945 317964 124073 252224 243400 127867 79021.6 238942 100435 49852.1 50459.6 54840.4 115532 1.62167e+06 73613.6 51453 48007.2 35606.7 19782.4 62696.7 5698.5 203336 13666.9 175253
internal_count=9010206 7128056 1882150 1720386 1084726 1275193 5407670 3198050 617107 606957 539594 368911 643895 2554155 336132 349886 344053 467619 170683 1163102 273054 217038 112091 290894 133563 252411 31602 2263261 100827 176419
is_linear=0
shrinkage=0.05


Tree=10
num_leaves=31
num_cat=0
split_feature=6 4 6 2 0 6 6 2 2 3 5 3 4 2 0 6 0 2 5 3 5 0 0 5 6 1 5 1 4 5
split_gain=2.78269e+06 133245 78098.2 55138.8 30808 25876.7 21490 20383.1 15350.3 15095.7 15067.4 16121.2 10470.8 10293.7 15412.7 8759.96 8287.87 8225.79 8373.74 7285.04 8154.83 7997.18 6961.95 6930.8 6281.84 5383.44 4964.06 4883.88 4757.1 7889.13
threshold=5.0084500000000007 1.5000000000000002 28.156400000000001 1.0000000180025095e-35 27129.500000000004 2.5000500000000003 1.7500500000000001 1.0000000180025095e-35 1.0000000180025095e-35 1.0000000180025095e-35 58.500000000000007 1.0000000180025095e-35 6.5000000000000009 1.0000000180025095e-35 5093.5000000000009 0.99990000000000012 36327.500000000007 1.0000000180025095e-35 30.500000000000004 1.0000000180025095e-35 62.500000000000007 3698.5000000000005 108400.50000000001 42409.000000000007 2.0339500000000004 0.75970000000000015 13497.000000000002 0.0041500000000000009 8.5000000000000018 826.50000000000011
decision_type=2 2 2 2 2 2 2 2 2 2 2 2 2 2 2 2 2 2 2 2 2 2 2 2 2 2 2 2 2 2
left_child=1 5 8 28 6 9 12 25 -2 13 11 16 -5 -1 15 -15 -10 -7 -19 20 21 -8 -18 -12 -6 -4 -22 -17 -3 -30
right_child=2 3 7 4 24 17 19 -9 10 -11 23 -13 -14 14 -16 27 22 18 -20 -21 26 -23 -24 -25 -26 -27 -28 -29 29 -31
leaf_value=-0.049177367048303652 0.0081797958141248961 -0.039372132786012627 0.014409307784262982 -0.0045027721537565027 -0.031476070158305704 -0.046716485077195224 0.050515364145767711 0.099209088664469855 0.059717545230158313 0.02965969879271009 0.084851348998093282 0.091738916223073452 0.037653456499209259 -0.033961749536403171 -0.040783370716120038 0.036943730062098466 0.017390501041298717 -0.0069135797221798875 0.040563019222090789 0.081738428232398991 0.071819738808600375 0.011523800156061088 0.083084972453527445 -0.02452214920698239 0.008475925253298747 0.071361997537855618 -0.057402405085249381 -0.0069639551696831893 0.034036218416324315 -0.045256899988203793
leaf_weight=171714.37169192731 9674.3060022518039 47029.582916684449 4599.699580103159 40274.695167303085 24713.508930198848 8445.6542267873883 27521.031643554568 1577335.2039358914 78554.169111996889 8003.9941246286035 140196.64904482663 31969.27865613997 23223.423002250493 30575.404511801898 194630.11174398661 7813.7753590047359 24058.478471279144 31481.623754873872 13174.077987283468 14221.681512318552 22321.950272634625 25183.821843959391 4845.0226630121469 1463.556104183197 16347.11286585778 42371.330895870924 768.79170203208923 33423.961298987269 6416.5817376449704 6137.1581490933895
leaf_count=2111674 63700 521454 26669 330881 249756 97289 104655 1101417 186906 44930 176511 34415 104110 317945 2251547 39139 107430 244237 66343 26334 60380 134926 8983 5373 114193 76983 4270 279327 54289 64140
internal_value=0 -0.0194583 0.0939705 0.0100122 0.0228995 -0.0344609 0.033189 0.0982425 0.0701054 -0.0383879 0.0722367 0.0605681 0.0109152 -0.039631 -0.0334786 -0.0136812 0.0512946 -0.00146553 0.0070927 0.048901 0.0427396 0.0318841 0.0284027 0.0837214 -0.0155703 0.0657848 0.0675174 0.00135573 -0.0320729 -0.00472788
internal_weight=0 753422 1.91507e+06 254159 194576 499263 153515 1.62431e+06 290761 446162 281087 139427 63498.1 438158 266443 71813.1 107458 53101.4 44655.7 90017.3 75795.6 52704.9 28903.5 141660 41060.6 46971 23090.7 41237.7 59583.3 12553.7
internal_count=9010206 7221819 1788387 1769388 1129505 5452431 765556 1205069 583318 5044562 519618 337734 434991 4999632 2887958 636411 303319 407869 310580 330565 304231 239581 116413 181884 363949 103652 64650 318466 639883 118429
is_linear=0
shrinkage=0.05


Tree=11
num_leaves=31
num_cat=0
split_feature=6 6 4 2 0 2 2 0 6 6 6 2 0 6 3 6 1 5 4 6 0 1 0 1 1 4 5 5 0 4
split_gain=2.48597e+06 105546 103791 41989.6 24841 22302 20406.7 22977.6 18454.9 15484.3 14090 12966.3 11464.2 10313.5 8372.76 8094.93 7693.13 6882.06 6636.38 5716.38 5175 4867.63 4818.75 4636.35 4572.08 4550.16 7390.79 4111.09 4557.89 4012.78
threshold=4.0024000000000006 21.021750000000004 1.5000000000000002 1.0000000180025095e-35 17882.500000000004 1.0000000180025095e-35 1.0000000180025095e-35 6117.5000000000009 9.0015000000000018 0.99990000000000012 0.87265000000000015 1.0000000180025095e-35 17171.500000000004 2.0003500000000005 1.0000000180025095e-35 69.082100000000011 0.0041500000000000009 17.500000000000004 10.500000000000002 2.1138000000000008 40529.500000000007 0.010550000000000002 115333.50000000001 0.48290000000000005 0.52055000000000007 9.5000000000000018 826.50000000000011 23.500000000000004 108400.50000000001 6.5000000000000009
decision_type=2 2 2 2 2 2 2 2 2 2 2 2 2 2 2 2 2 2 2 2 2 2 2 2 2 2 2 2 2 2
left_child=2 8 6 25 10 24 -1 9 11 -8 29 -2 -13 22 18 -7 -11 -14 21 -6 -10 -12 -9 -18 -3 -4 -27 28 -21 -5
right_child=1 5 3 4 19 15 7 13 20 16 14 12 17 -15 -16 -17 23 -19 -20 27 -22 -23 -24 -25 -26 26 -28 -29 -30 -31
leaf_value=-0.048532546175205533 -0.02909169366901139 -0.025434657159969305 -0.0382103279683495 -0.014011783871697301 -0.025833808899773714 0.085578461044102327 -0.033598582428388417 -0.04154253584865903 0.075629404772741118 0.045287399261854287 0.072219481810065975 0.059232829286590419 0.0065689791328610476 -0.0094186007753663259 0.077179785247068464 0.095258948866628348 -0.0060779807637617381 0.048677143033196188 0.055850116351192775 -0.010778459959171901 0.050364941948669799 0.020454411704126017 0.051337458302300555 0.039486623873123405 0.062488728706740652 0.036355762198782067 -0.044590305598835596 0.050711262191844311 0.16949619162725074 0.02302566276058076
leaf_weight=172822.25740386546 5605.5522090122104 1525.2193498313427 45970.521800234914 19218.605732440948 30596.592664547265 256134.53508812189 33116.960845477879 176104.24569572508 120236.78949385881 11763.701181069016 4935.6669335737824 82594.139854773879 20677.251812808216 30697.9050289765 12384.399747461081 1376568.4950328767 41029.068979464471 18283.607015289366 23412.537248373032 11108.783687956631 24378.518752224743 56842.963447518647 1407.6280888542533 6462.2505007386208 48354.922723986208 5831.6051227152348 5460.3488807156682 4634.5440009981394 362.04508768767118 11805.349111422896
leaf_count=2202895 53415 10090 525101 165012 307949 240231 356216 2119466 181742 55786 16364 181240 117009 265639 24637 922871 331465 55189 66958 86302 63712 315733 11882 42651 102001 47502 59274 25293 1494 55087
internal_value=0 0.0880643 -0.0214047 0.00594808 0.0180907 0.0927341 -0.034842 -0.0269704 0.0591528 -0.00621549 0.0294332 0.045258 0.0486867 -0.0361783 0.0387654 0.0937403 0.00908861 0.0263296 0.0331811 -0.0131423 0.0713704 0.0245901 -0.040806 0.000122097 0.0598002 -0.0312249 -0.0027866 0.0109686 -0.00508859 8.18412e-05
internal_weight=0 1.95436e+06 705968 232564 175301 1.68258e+06 473404 300582 271776 92372 128600 127161 121555 208210 97575.6 1.6327e+06 59255 38960.9 85191.2 46702 144615 61778.6 177512 47491.3 49880.1 57262.5 11292 16105.4 11470.8 31024
internal_count=9010206 1927500 7082706 1696706 1064829 1275193 5386000 3183105 652307 786118 643791 406853 353438 2396987 423692 1163102 429902 172198 399055 421038 245454 332097 2131348 374116 112091 631877 106776 113089 87796 220099
is_linear=0
shrinkage=0.05


Tree=12
num_leaves=31
num_cat=0
split_feature=6 4 6 2 0 6 2 6 1 6 0 2 0 1 4 2 5 2 4 5 3 3 5 0 1 6 5 1 1 4
split_gain=2.23448e+06 116528 74706.4 45465.2 24626.8 23820.4 19380.6 16733.3 14205.3 14077.1 13947.1 7503.97 10856.2 7524.49 7258.62 7208.48 7192.27 7006.52 6977.96 6557.84 7164.88 6084.67 6718.95 6195.87 5986.42 5400.02 5078.94 4878.66 4873.24 4394.32
threshold=5.0084500000000007 1.5000000000000002 30.505450000000003 1.0000000180025095e-35 27129.500000000004 2.5000500000000003 1.0000000180025095e-35 1.5202500000000001 1.0000000180025095e-35 9.0015000000000018 2999.5000000000005 1.0000000180025095e-35 5093.5000000000009 0.29120000000000007 5.5000000000000009 1.0000000180025095e-35 30.500000000000004 1.0000000180025095e-35 4.5000000000000009 191.50000000000003 1.0000000180025095e-35 1.0000000180025095e-35 74.500000000000014 3992.5000000000005 0.34245000000000009 2.0339500000000004 13497.000000000002 0.26365000000000005 0.75970000000000015 8.5000000000000018
decision_type=2 2 2 2 2 2 2 2 2 2 2 2 2 2 2 2 2 2 2 2 2 2 2 2 2 2 2 2 2 2
left_child=1 5 9 29 7 8 28 14 10 18 -1 -10 13 -13 -5 -7 -17 -11 24 20 -19 22 23 -9 -2 -6 -24 -21 -4 -3
right_child=2 3 6 4 25 15 -8 21 11 17 -12 12 -14 -15 -16 16 -18 19 -20 27 -22 -23 26 -25 -26 -27 -28 -29 -30 -31
leaf_value=0.043377239755620203 0.052619632838705077 -0.037926054407154804 0.0083139928307055071 -0.0066058422016848006 -0.030000799173996909 -0.045588940076453449 0.090005049304011014 0.041701974841708483 -0.048939427429399482 0.02018758020775864 -0.024907393706665476 -0.023859657384576606 -0.041238043512935613 0.025650859696058539 0.029513448428297357 -0.0067667349202810041 0.036816971637964789 0.05774828101475097 0.060832897687896209 0.019313488853520647 0.085830729147510734 0.07083105232203328 0.062459302466689376 0.0092367230033944103 0.018073904737139553 0.0072181859461219874 -0.057584112652922605 0.084474353419546316 0.062886525699214324 -0.0042891816815244397
leaf_weight=9539.3765024021268 22786.786810785532 44166.924645803869 4515.3626241385937 34803.129041351378 23620.758185498416 7833.203947737813 1556127.9517448545 32983.600990392268 147146.23618157208 7022.7945577204227 34602.793439604342 54598.726064905524 164412.39155047387 8928.9995514899492 23169.821490332484 31356.219826564193 13559.006056308746 101705.68567451835 43944.201133131981 2981.702609911561 29244.144105032086 15115.323576763272 24183.000160872936 26506.366332933307 27889.466421321034 16590.526908174157 914.44047787040472 78464.163458898664 43508.556977465749 12445.605466738343
leaf_count=54050 63144 521454 25692 294855 249756 97289 1085432 123190 1962430 34800 393967 541098 2031328 61689 108291 244237 66343 189437 92691 6428 27195 27071 66023 140784 111905 114193 5342 75608 76055 118429
internal_value=0 -0.0182908 0.0846737 0.00897964 0.0202832 -0.0329955 0.0890396 0.0291907 -0.0369799 0.0623722 -0.0101507 -0.0401373 -0.0344552 -0.0169008 0.00782981 -0.00132867 0.00639031 0.0693239 0.0462517 0.0709486 0.0640197 0.0416111 0.0363897 0.0272367 0.0336075 -0.0146448 0.0580854 0.0820888 0.0577554 -0.0305314
internal_weight=0 726476 1.91819e+06 254499 197887 471977 1.60415e+06 157676 419229 314039 44142.2 375086 227940 63527.7 57973 52748.4 44915.2 219418 94620.5 212396 130950 99702.7 84587.4 59490 50676.3 40211.3 25097.4 81445.9 48023.9 56612.5
internal_count=9010206 7221819 1788387 1769388 1129505 5452431 1187179 765556 5044562 601208 448017 4596545 2634115 602787 403146 407869 310580 333468 267740 298668 216632 362410 335339 263974 175049 363949 71365 82036 101747 639883
is_linear=0
shrinkage=0.05


Tree=13
num_leaves=31
num_cat=0
split_feature=6 4 6 2 2 0 0 2 6 6 5 3 6 4 2 0 1 6 5 3 5 0 0 6 1 6 3 4 5 5
split_gain=2.01846e+06 108867 73962.5 41326.4 23303.6 23290.7 22037.9 19306 18742.9 15409.2 13382.4 16083.5 9492.47 7921.23 7687.11 7485.17 7209.65 6177.73 5879.49 5303.48 6246.72 5713.46 4916.3 4468.4 4302.52 4298.95 4228.76 4226.19 7115.48 4010.57
threshold=5.0084500000000007 1.5000000000000002 30.505450000000003 1.0000000180025095e-35 1.0000000180025095e-35 13737.500000000002 31809.000000000004 1.0000000180025095e-35 0.99990000000000012 1.7500500000000001 45.500000000000007 1.0000000180025095e-35 2.0003500000000005 7.5000000000000009 1.0000000180025095e-35 5556.5000000000009 0.0038500000000000006 2.6667500000000004 120724.50000000001 1.0000000180025095e-35 74.500000000000014 3992.5000000000005 115333.50000000001 81.588750000000019 0.75970000000000015 8.001750000000003 1.0000000180025095e-35 13.500000000000002 1068.5000000000002 13497.000000000002
decision_type=2 2 2 2 2 2 2 2 2 2 2 2 2 2 2 2 2 2 2 2 2 2 2 2 2 2 2 2 2 2
left_child=1 4 10 27 -1 8 9 24 -6 13 11 15 22 -5 -12 -2 -10 -18 -16 20 21 -11 -7 -9 -4 -17 -8 -3 -29 -22
right_child=2 3 7 6 5 12 26 23 16 19 14 -13 -14 -15 18 25 17 -19 -20 -21 29 -23 -24 -25 -26 -27 -28 28 -30 -31
leaf_value=-0.047591663674602276 0.055289542396224835 -0.035785817849246525 0.0078559012808927433 -0.0042528016338022915 -0.034749584973256441 -0.043275269146685801 -0.019088892252972472 0.079750641435899217 0.034491295197640159 0.040364531289481698 0.020471444240913184 0.078097558082054333 -0.01121998026073568 0.032105001485669367 0.070637547074361734 0.010675912715535906 -0.010191733501143843 0.024165247495609169 -0.067376217713067579 0.066756117969443238 0.060298671693891803 0.0090454686168971211 0.050211075097285951 0.087333699721011973 0.058981774265698776 0.037032138720132821 0.088764078052016498 0.044633771791109361 -0.04538455692622835 -0.05608571858507394
leaf_weight=160910.97102472931 37985.155986696482 46412.534964896739 4539.0997012853622 43288.637897960842 45096.637137055397 132804.17067465931 35058.592640720308 227922.58617481589 16649.047715984285 31467.417718403041 8204.690509647131 31892.455896310508 30106.009942553937 22909.00187651813 170637.33967089653 24224.340603843331 54955.371004201472 17172.411682628095 775.18108934164047 15184.047410264611 22540.573765829206 27105.51500364393 1421.3653504997492 1315703.6206265092 44054.598983377218 42819.781074523926 933.0308772996068 4634.7543627247214 4170.6701570004225 765.34587935358286
leaf_count=2217499 78032 556570 25692 357454 528970 1738769 327382 195335 95158 111880 46024 34276 258591 93784 214433 111090 512251 89311 3350 27037 56844 145734 11882 890097 76055 114003 4909 36040 47273 4481
internal_value=0 -0.0177171 0.0808487 0.00851525 -0.0322566 -0.0239819 0.0191225 0.0852372 -0.00850024 0.0269301 0.0587743 0.0469993 -0.036594 0.00832953 0.0677504 0.0375563 0.00483383 -0.00201191 0.0700134 0.0396157 0.0345827 0.0258712 -0.0422853 0.086214 0.0542061 0.0275091 -0.016293 -0.0297608 0.00199679 0.0564767
internal_weight=0 713586 1.90876e+06 254470 459116 298205 199252 1.59222e+06 133873 163261 316539 136922 164332 66197.6 179617 105029 88776.8 72127.8 171413 97062.9 81878.9 58572.9 134226 1.54363e+06 48593.7 67044.1 35991.6 55218 8805.42 23305.9
internal_count=9010206 7221819 1788387 1769388 5452431 3234932 1129505 1187179 1225690 797214 601208 337401 2009242 451238 263807 303125 696720 601562 217783 345976 318939 257614 1750651 1085432 101747 225093 332291 639883 83313 61325
is_linear=0
shrinkage=0.05


Tree=14
num_leaves=31
num_cat=0
split_feature=6 4 6 2 2 2 0 0 6 0 6 2 5 5 3 6 4 1 3 5 0 0 0 0 5 1 1 3 6 6
split_gain=1.83221e+06 90690.8 89301.6 33593.3 21509.7 20958.9 21252.8 18821.5 16222.5 13476.8 12025.1 9715.89 8186.95 8092.65 8019.9 7697.44 7185.66 7026.75 6898.85 5458.51 7277.47 4731.97 4577.32 4526.94 7139.43 5998.3 4450.58 4332.06 4166.23 4071.14
threshold=4.5002500000000003 1.5000000000000002 22.026450000000004 1.0000000180025095e-35 1.0000000180025095e-35 1.0000000180025095e-35 13737.500000000002 31809.000000000004 0.99990000000000012 39120.500000000007 0.87265000000000015 1.0000000180025095e-35 205.50000000000003 185.50000000000003 1.0000000180025095e-35 2.0003500000000005 44.500000000000007 0.011350000000000001 1.0000000180025095e-35 42.500000000000007 108400.50000000001 70.500000000000014 115333.50000000001 4112.5000000000009 19.500000000000004 0.49980000000000008 0.52055000000000007 1.0000000180025095e-35 2.7197000000000005 9.0015000000000018
decision_type=2 2 2 2 2 2 2 2 2 2 2 2 2 2 2 2 2 2 2 2 2 2 2 2 2 2 2 2 2 2
left_child=1 5 9 -3 -4 -1 8 10 -7 11 -5 -2 27 14 29 22 17 -12 28 20 -11 -19 -8 25 -25 -23 -14 -6 -10 -13
right_child=2 3 4 7 12 6 15 -9 18 19 16 13 26 -15 -16 -17 -18 21 -20 -21 -22 23 -24 24 -26 -27 -28 -29 -30 -31
leaf_value=-0.047125075553337774 -0.0014216535899042124 -0.028907185673722219 0.049478174514902815 -0.0025730498746861078 0.065655516325436133 -0.03399043048135654 -0.042670389856127866 -0.018115948845217826 -0.005556594535921164 0.0027287137470496468 0.065637118493616767 0.036158489515047146 0.059425234714828981 0.072260228489068198 0.073465785849991333 -0.011817694744882817 0.064458244044647839 -0.056959039457148752 0.060731602618753988 0.046522591449263406 0.070421141879474736 0.026902150574503417 0.045853767257156113 -0.004683753383042894 0.040906365190638949 0.077825780435212752 0.08386822848390324 0.083358544613292881 0.023579145153635413 0.05458464511189981
leaf_weight=153893.13778124005 7153.7120824679732 53483.46040148288 51348.839768067002 34342.621044285595 104768.69620348513 43831.110248304904 128072.93995635957 33100.881397373974 65520.023579113185 24827.714700333774 10327.444484226406 59438.771870397031 18871.877597004175 67090.332767531276 32463.522056907415 25931.804438576102 14156.304828897119 1851.4189292788506 4946.6836282387376 21827.756002619863 4726.2849358096719 46961.593297928572 1477.0914611294866 25477.646871887147 12953.465725660324 6594.7405906841159 1411690.8848782182 51565.964006394148 15096.694921411574 60477.761392459273
leaf_count=2209620 51121 635660 110619 250555 118315 528970 1738769 318356 583138 124721 29442 169198 21657 77493 34772 233242 27539 11765 20540 49499 8810 204559 11882 164452 60218 17840 974010 38061 81509 103874
internal_value=0 -0.0187538 0.0768815 0.00601038 0.081328 -0.032257 -0.0242251 0.0160634 -0.00925479 0.0506795 0.0234742 0.0559213 0.0823586 0.0577905 0.0514197 -0.0366837 0.0310343 0.0264919 0.0034164 0.0275596 0.0135541 0.0221838 -0.0416611 0.0237767 0.0106827 0.0331727 0.0835458 0.0714947 -0.000100488 0.0454514
internal_weight=0 678019 1.91625e+06 239250 1.63825e+06 438769 284876 185766 129395 278006 152665 226624 1.5869e+06 219470 152380 155482 118323 104166 85563.4 51381.8 29554 93838.9 129550 91987.4 38431.1 53556.3 1.43056e+06 156335 80616.7 119917
internal_count=9010206 7128056 1882150 1720386 1262662 5407670 3198050 1084726 1214157 619488 766370 436458 1152043 385337 307844 1983893 515815 488276 685187 183030 133531 458834 1750651 447069 224670 222399 995667 156376 664647 273072
is_linear=0
shrinkage=0.05


Tree=15
num_leaves=31
num_cat=0
split_feature=6 4 6 2 2 0 2 0 6 6 6 6 4 0 1 3 0 6 6 0 0 4 5 1 2 5 1 2 1 0
split_gain=1.67047e+06 94953.6 73150.9 34212.7 22635.4 21284.6 19457.7 17571.9 16260.8 12795 12225.7 8962.74 8367.09 6717.08 6222.82 5834.98 5304.24 5067.19 4671.45 4486.19 4273.54 4189.34 6429.93 4020.09 4017.26 3982.95 3908.57 3744.33 3709 3697.9
threshold=5.0084500000000007 1.5000000000000002 30.505450000000003 1.0000000180025095e-35 1.0000000180025095e-35 13737.500000000002 1.0000000180025095e-35 35136.500000000007 0.99990000000000012 2.5000500000000003 10.006250000000001 2.0003500000000005 45.500000000000007 21323.000000000004 0.0038500000000000006 1.0000000180025095e-35 12362.000000000002 2.0003500000000005 81.588750000000019 80.500000000000014 115333.50000000001 8.5000000000000018 826.50000000000011 0.35975000000000007 1.0000000180025095e-35 59.500000000000007 0.76665000000000016 1.0000000180025095e-35 0.33135000000000003 2652.5000000000005
decision_type=2 2 2 2 2 2 2 2 2 2 2 2 2 2 2 2 2 2 2 2 2 2 2 2 2 2 2 2 2 2
left_child=1 4 10 21 -1 8 26 9 -6 12 13 20 15 24 -10 19 27 28 -8 -5 -7 -3 -23 -15 -2 -18 -4 -12 -16 -30
right_child=2 3 6 7 5 11 18 -9 14 -11 16 -13 -14 23 17 -17 25 -19 -20 -21 -22 22 -24 -25 -26 -27 -28 -29 29 -31
leaf_value=-0.046651696488036208 -0.014530347296447211 -0.035928448665056213 0.0056078128227189227 -0.052204357046935247 -0.033233102456182245 -0.042063623666029823 0.073250171346035911 -0.016538254949781474 0.031438626447845258 0.040723193774311731 0.019173975874817503 -0.0104743079457328 0.05322165301503038 0.041617888018413721 -0.019567270473268214 0.056055116294294653 0.036973120292681814 0.016867823678131773 0.081081956101687086 0.0065600649618157373 0.042038027396087932 0.030563779799359671 -0.042918641609855673 0.0059544680825024962 0.049166368058251746 0.060306895137730902 0.052710341586057446 0.067620657974240592 0.045015013820840034 -0.0102811605095612
leaf_weight=148493.96636840701 2553.8026495724916 40587.475652970374 4886.4584001600742 3380.7382621914148 42619.543578974903 123539.89298272133 223662.0473651737 32673.744126297534 17091.531905658543 65905.193063385785 4119.0275412499905 29685.007575638592 11244.226234972477 13326.279093615711 35871.436563260853 5802.0825152620673 34725.921954862773 23621.461459599435 1280356.6261692941 82591.548023968935 1529.191512145102 6647.8022136688232 5391.34302932024 19412.698652513325 80573.107800483704 38635.906739220023 44628.043129563332 125644.72082701325 5063.4205966889858 7504.6278885155916
leaf_count=2217499 21516 521454 26260 26088 528970 1738769 195335 310722 95158 202970 19273 258591 28341 41573 365231 16234 80158 131906 890097 545150 11882 54289 64140 88861 153504 54562 75487 141761 32290 72135
internal_value=0 -0.0166216 0.0744239 0.00765482 -0.0308087 -0.022598 0.078902 0.0170265 -0.0078297 0.0235186 0.0526148 -0.0351731 0.0125122 0.0396543 0.00431446 0.00752447 0.0600077 -0.0021189 0.0799173 0.00424924 -0.0410353 -0.0282453 -0.00234295 0.0204711 0.0472095 0.0492618 0.0480619 0.0660828 -0.0113778 0.0119966
internal_weight=0 689244 1.87252e+06 254224 435020 286526 1.55353e+06 201598 131772 168924 318991 154754 103019 115866 89152.5 91774.4 203126 72060.9 1.50402e+06 85972.3 125069 52626.6 12039.1 32739 83126.9 73361.8 49514.5 129764 48439.5 12568
internal_count=9010206 7221819 1788387 1769388 5452431 3234932 1187179 1129505 1225690 818783 601208 2009242 615813 305454 696720 587472 295754 601562 1085432 571238 1750651 639883 118429 130434 175020 134720 101747 161034 469656 104425
is_linear=0
shrinkage=0.05


Tree=16
num_leaves=31
num_cat=0
split_feature=6 4 6 2 2 0 2 3 6 4 5 3 0 6 5 2 5 6 0 1 2 6 5 6 5 4 5 0 1 0
split_gain=1.52743e+06 88626.8 73415 31147.5 22284 20296.6 19022.4 15931.4 15138.4 14060.2 13213.8 14746.1 9830.81 8740.22 7527.58 7187.19 6939.66 6809.22 5807.39 5497.86 5266.03 4798.95 4677.7 4570.57 4222.2 4065.68 6313.46 3999.15 3905.66 3586.48
threshold=5.0084500000000007 1.5000000000000002 35.17860000000001 1.0000000180025095e-35 1.0000000180025095e-35 13737.500000000002 1.0000000180025095e-35 1.0000000180025095e-35 0.99990000000000012 8.5000000000000018 114.50000000000001 1.0000000180025095e-35 5616.5000000000009 2.0003500000000005 6243.5000000000009 1.0000000180025095e-35 120724.50000000001 1.9525500000000002 10909.500000000002 0.0038500000000000006 1.0000000180025095e-35 2.0339500000000004 19.500000000000004 2.0003500000000005 9.5000000000000018 22.500000000000004 1068.5000000000002 115333.50000000001 0.75970000000000015 75.500000000000014
decision_type=2 2 2 2 2 2 2 2 2 2 2 2 2 2 2 2 2 2 2 2 2 2 2 2 2 2 2 2 2 2
left_child=1 4 10 25 -1 8 28 9 -6 12 11 15 17 27 29 -2 20 -5 -17 -10 -12 -14 -23 -21 -20 -3 -27 -7 -4 -11
right_child=2 3 6 7 5 13 -8 -9 19 14 16 -13 21 -15 -16 18 -18 -19 24 23 -22 22 -24 -25 -26 26 -28 -29 -30 -31
leaf_value=-0.046179994582554541 -0.038293459600591939 -0.032569576671444694 0.00034440984079674375 -0.00063201036248500958 -0.032477692398437778 -0.04145434343820633 0.077508928533761234 0.059281402849633513 0.029278827078256537 -0.05116426332780321 0.023622832479775747 0.069463595426485558 -0.021687792216081164 -0.010030549811870126 -0.046274292567590317 0.04670963614613266 -0.05081201103319103 0.032027418186750582 0.0011349170173930525 -0.01091913341912624 0.065518731543539682 -0.0070963923993938721 0.038584055109781419 0.015854126782157831 0.032646982143382026 0.061245068172459463 -0.042243641490289426 0.038669843203267829 0.050211169854039228 0.040331296053575265
leaf_weight=142658.39981748164 3216.5758159682155 45490.976886183023 4304.8924788683653 29718.44589240849 41460.07077921927 119198.51081217825 1450556.5439066142 19305.090776912868 17425.736430630088 1095.7144884318113 7925.0853959023952 40574.804162025452 39399.954563684762 29454.40044631809 2783.3102196976542 79092.145408421755 1345.0928272753954 34471.665154486895 12766.00993257761 47992.980036176741 139938.36377169192 20679.008588649333 7687.5548683553934 23868.632865317166 63524.174042016268 3067.9485992714763 2836.1193318367004 1577.9455391094089 44678.920861646533 47577.141047850251
leaf_count=2217499 24441 582876 24023 225908 528970 1738769 1056915 40521 95158 5550 40037 42402 390223 258591 18778 142498 6677 122051 62035 469656 155798 135377 34958 131906 158747 21738 35269 11882 74814 156139
internal_value=0 -0.0160828 0.0716704 0.00726259 -0.0300862 -0.0219151 0.0764741 0.0160768 -0.00751026 0.0115293 0.0509942 0.042566 0.0028845 -0.0344518 0.0336984 0.0356847 0.0622448 0.0169069 0.0372161 0.00408322 0.0632732 -0.0103979 0.00528336 -0.00202647 0.0273739 -0.0275033 0.0115325 -0.0404075 0.0458287 0.0382716
internal_weight=0 677750 1.84792e+06 254113 423637 280978 1.49954e+06 202718 130747 183413 348382 199174 131957 150231 51456.2 158599 149209 64190.1 155382 89287.3 147863 67766.5 28366.6 71861.6 76290.2 51395 5904.07 120776 48983.8 48672.9
internal_count=9010206 7221819 1788387 1769388 5452431 3234932 1155752 1129505 1225690 1088984 632635 430123 908517 2009242 180467 387721 202512 347959 363280 696720 195835 560558 170335 601562 220782 639883 57007 1750651 98837 161689
is_linear=0
shrinkage=0.05


Tree=17
num_leaves=31
num_cat=0
split_feature=6 6 6 4 2 3 2 0 0 2 5 3 5 6 4 0 5 1 0 5 5 5 5 2 0 0 0 0 1 2
split_gain=1.40308e+06 95939.8 56019.6 36435.7 22678.6 22090.1 19198.6 15721.5 15628.9 15950.8 13332.7 9478.55 12631.6 8953.16 8569.62 8163.89 6818.77 8523.05 6426.16 6792.24 5928.56 5166.16 4946.53 4841.76 4666.83 4717.24 4433.85 4412.54 4314.73 3834.52
threshold=6.0013500000000013 2.0626500000000005 35.17860000000001 3.5000000000000004 1.0000000180025095e-35 1.0000000180025095e-35 1.0000000180025095e-35 31530.500000000004 13737.500000000002 1.0000000180025095e-35 2220.5000000000005 1.0000000180025095e-35 82.500000000000014 0.99990000000000012 64.500000000000014 108400.50000000001 62.500000000000007 0.0077500000000000008 2123.5000000000005 2.5000000000000004 25.500000000000004 120724.50000000001 6578.5000000000009 1.0000000180025095e-35 84.500000000000014 36327.500000000007 10762.500000000002 4298.5000000000009 0.56555000000000011 1.0000000180025095e-35
decision_type=2 2 2 2 2 2 2 2 2 2 2 2 2 2 2 2 2 2 2 2 2 2 2 2 2 2 2 2 2 2
left_child=1 3 11 5 -3 8 -4 16 9 -1 14 12 23 -11 24 20 17 -6 19 -15 -9 29 -18 -2 -5 -26 -25 28 -19 -14
right_child=2 4 6 10 7 -7 -8 15 -10 13 -12 -13 21 18 -16 -17 22 27 -20 -21 -22 -23 -24 26 25 -27 -28 -29 -30 -31
leaf_value=-0.040699023573448588 -0.038349661226492769 -0.039600905099539549 0.043349827619227121 -0.047888491321066234 0.062300816338676492 0.035278077032062684 0.075122315377357515 -0.024132894299525805 -0.042139818804792638 -0.028244290516337468 -0.046894116275960525 0.070748670268268046 0.023563345888099749 0.037260724379692266 0.064333324741814898 0.073915516588161298 0.050479667652896687 0.019624967763319061 -0.013374227627372882 -0.0087379733922293406 0.017898770449677203 -0.04758878839206139 -0.026331614964699129 0.04632542537022287 0.019445352087477295 -0.026323706926733248 0.027166181694989956 0.0043647393237202436 0.058928889622794293 0.060070949746640505
leaf_weight=79102.209368254989 2190.6044518724084 16660.378694001585 49189.396701455116 3316.3732210770249 11620.058365918696 12406.965776413679 1422516.5285407603 27346.803486175835 208689.0032855235 53510.625382751226 9442.9482628256083 50156.182873755693 7604.3501886352897 16926.904247313738 8252.8008878678083 3030.9306327328086 39783.314993977547 34787.285437718034 48414.099239140749 15260.624196067452 12102.258113823831 1165.97685854882 2212.5656019374728 59831.173171788454 42591.417710036039 6487.1483893543482 60967.719668060541 39057.029792286456 8736.2599741369486 132823.93275919557
leaf_count=1249520 15926 230566 98837 30875 30492 59378 1056915 240432 3144433 650417 100954 47785 36079 97773 24785 11861 104597 125502 446700 129104 69861 5615 10799 102661 266695 68854 166271 211637 20858 154024
internal_value=0 -0.013559 0.0699658 -0.0250804 0.0161917 -0.0304789 0.0740604 0.021394 -0.0324126 -0.0228919 0.00837108 0.0508197 0.0470419 -0.0123889 0.016976 -0.00516265 0.0296771 0.0222072 -0.00186273 0.015452 -0.0112383 0.0572238 0.0464328 0.0353197 0.00951663 0.0133957 0.0366557 0.0165655 0.0275142 0.058094
internal_weight=0 699738 1.78645e+06 504401 195337 434310 1.47171e+06 178677 421903 213214 70090.7 314740 264584 134112 60647.7 42480 136197 94200.6 80601.6 32187.5 39449.1 141594 41995.9 122989 52394.9 49078.6 120799 82580.6 43523.5 140428
internal_count=9010206 7326093 1684113 6269488 1056605 5777325 1155752 826039 5717947 2573514 492163 528361 480576 1323994 391209 322154 503885 388489 673577 226877 310293 195718 115396 284858 366424 335549 268932 357997 146360 190103
is_linear=0
shrinkage=0.05


Tree=18
num_leaves=31
num_cat=0
split_feature=6 4 6 2 2 2 6 0 6 0 5 3 5 5 0 4 5 1 0 0 5 0 2 5 3 3 4 5 1 3
split_gain=1.29155e+06 89151.1 56621.2 29544.7 24040 19322.3 18659.3 16493.4 15655.8 9853.85 9558.82 10702.5 7504.28 6557.07 6167.67 5747.32 5100.41 4828.88 4585.58 5172.76 4541.25 6665.3 4359.51 4193.55 4022.03 3935.33 3869.68 5522.53 3835.77 3661.05
threshold=6.0013500000000013 1.5000000000000002 37.022550000000003 1.0000000180025095e-35 1.0000000180025095e-35 1.0000000180025095e-35 2.0003500000000005 3810.5000000000005 2.5000500000000003 27129.500000000004 130.50000000000003 1.0000000180025095e-35 2.5000000000000004 19.500000000000004 75.500000000000014 26.500000000000004 120724.50000000001 0.00045000000000000004 32871.500000000007 108400.50000000001 34.500000000000007 4819.5000000000009 1.0000000180025095e-35 16187.000000000002 1.0000000180025095e-35 1.0000000180025095e-35 5.5000000000000009 539.50000000000011 0.0032500000000000007 1.0000000180025095e-35
decision_type=2 2 2 2 2 2 2 2 2 2 2 2 2 2 2 2 2 2 2 2 2 2 2 2 2 2 2 2 2 2
left_child=1 4 10 26 -1 -4 7 12 9 14 11 18 25 28 -5 24 22 -9 -2 -20 21 -10 -12 -22 -16 -6 -3 -28 -8 -23
right_child=2 3 5 8 6 -7 13 17 20 -11 16 -13 -14 -15 15 -17 -18 -19 19 -21 23 29 -24 -25 -26 -27 27 -29 -30 -31
leaf_value=-0.045237895095207516 0.040687131127384452 -0.035515108164548517 0.041167300373012972 -0.05429361997131045 0.0073094894643620347 0.073051218689227523 0.035367483577780696 -0.012282452467318024 0.039711430790660647 -0.024148609483038715 0.022747413128145863 0.064831398427699513 -0.022949574477144685 0.02295471413023762 0.0056434932337941909 0.041747882909092551 -0.045493931098009616 -0.03813956849085251 0.012804230279492511 0.060005418673368005 0.048649524880494691 0.0012608938144488884 0.061693790524801395 -0.056257478416803314 0.049832183039945271 0.064829359661296909 0.020881840638186721 -0.03835498759676239 -0.014675334626042182 0.05023090828029117
leaf_weight=133139.11276440322 105598.059926413 33683.573505975306 49210.475297361612 3421.4177687168121 26851.263482943177 1381486.402812615 4301.5092287808657 20757.703278414905 32245.625674426556 23739.91602216661 7601.7590794712305 38460.626770049334 26043.0011164397 26687.261596791446 75507.017889425159 15657.090432658792 1165.0700037553906 138738.84573302418 33697.675154730678 7012.2412655130029 34495.376739427447 28703.33345772326 131146.61818701029 979.65864770114422 5526.3639436215162 3343.9442642182112 8801.631898291409 7115.2232725173235 34874.762121684849 4402.014961913228
leaf_count=2225937 197688 475098 97966 26479 217694 1046230 25458 256371 81264 267970 35009 39312 296790 137428 496298 40087 5676 2056937 110605 10667 76886 163510 140960 5676 14071 10669 79599 89797 271993 10081
internal_value=0 -0.0131048 0.0676766 0.0090114 -0.0277308 0.0719545 -0.0194535 -0.0265651 0.0167218 0.00481315 0.0488263 0.0413608 -0.00328284 0.00384026 0.011681 0.0140155 0.0586852 -0.0347744 0.035191 0.0209346 0.03135 0.0235318 0.05956 0.0457525 0.0086571 0.0136795 -0.0259148 -0.00559847 -0.00918069 0.00777243
internal_weight=0 689016 1.75538e+06 274278 414737 1.4307e+06 281598 215735 224678 123852 324682 184769 56238.2 65863.5 100112 96690.5 139913 159497 146308 40709.9 100826 65351 138748 35475 81033.4 30195.2 49600.4 15916.9 39176.3 33105.3
internal_count=9010206 7326093 1684113 1826816 5499277 1144196 3273340 2838461 1182322 844905 539917 358272 525153 434879 576935 550456 181645 2313308 318960 121272 337417 254855 175969 82562 510369 228363 644494 169396 297451 173591
is_linear=0
shrinkage=0.05


Tree=19
num_leaves=31
num_cat=0
split_feature=6 4 6 2 2 2 0 6 6 6 3 5 3 5 0 5 0 0 5 1 1 0 5 3 6 0 4 5 0 1
split_gain=1.19167e+06 82737.9 57349.1 26873.2 23545.8 19910 17958.9 14280.1 13585 10191.2 8755.44 11549.5 7497.6 7536.83 9117.33 6740.36 5362.49 4774.39 4370.69 4799.08 7924.65 4222.14 4166.74 4136.16 4287.72 4002.65 3799.14 5063.68 3747.06 3609.45
threshold=6.0013500000000013 1.5000000000000002 35.17860000000001 1.0000000180025095e-35 1.0000000180025095e-35 1.0000000180025095e-35 13737.500000000002 1.3334000000000001 0.99990000000000012 2.0003500000000005 1.0000000180025095e-35 58.500000000000007 1.0000000180025095e-35 27.500000000000004 4235.5000000000009 6578.5000000000009 17171.500000000004 108400.50000000001 232.50000000000003 0.53805000000000014 0.15605000000000002 4755.5000000000009 120724.50000000001 1.0000000180025095e-35 2.7197000000000005 115333.50000000001 22.500000000000004 1560.5000000000002 211.50000000000003 0.76665000000000016
decision_type=2 2 2 2 2 2 2 2 2 2 2 2 2 2 2 2 2 2 2 2 2 2 2 2 2 2 2 2 2 2
left_child=1 4 10 26 -1 29 8 16 -6 25 11 21 13 14 -9 28 -5 -16 -7 20 -20 -2 -13 24 -10 -8 -3 -28 -15 -4
right_child=2 3 5 7 6 18 9 12 23 -11 -12 22 -14 15 17 -17 -18 -19 19 -21 -22 -23 -24 -25 -26 -27 27 -29 -30 -31
leaf_value=-0.044757302320586674 0.043921763623630997 -0.030423837506291174 -0.0028303793067003392 0.0047864807767546589 -0.030505009691607916 0.061660904385756603 -0.03969309947380889 0.029032197822451856 -0.0046484978104396934 -0.0075118063084454421 0.065600217056422591 0.051993166981186112 0.051751901212800301 -0.00091664021467741824 -0.0068746979862873555 -0.038336325710332249 -0.027587666016030354 0.11093881889778584 0.072459742040905814 0.072121052915955441 -0.025800092736497887 0.022973956409010832 -0.044595482574176427 0.047096555572460841 0.020001142146028245 0.041625790583663821 0.050614468424369952 -0.0431992317072417 0.042475126729967672 0.043131162708027235
leaf_weight=127971.59620944038 36213.485002622008 42567.672440819442 4720.6033236533403 48945.615678139031 38630.597282245755 114696.43755362928 107726.35066058859 35611.398317113519 64250.579428143799 34890.217588700354 48996.647569179535 154553.90954021364 21044.328541785479 5555.0762990489602 45297.982475586236 3062.4692528620362 17316.573258303106 876.58093494176865 5356.4137706756592 1236583.3141192049 3326.1494595557451 71641.641483366489 1124.6909449175 5424.7206371948123 24319.512203931808 1534.7897272631526 3515.543372258544 2434.421937957406 47666.914893463254 44911.088723540306
leaf_count=2225937 63198 586833 24585 327098 528970 110197 1738769 123284 583138 284358 47785 216607 37860 19027 308659 19915 199782 3324 4036 934635 8047 195156 5615 20681 105542 11882 24189 33472 143373 74252
internal_value=0 -0.0126603 0.0655691 0.00856247 -0.0270219 0.0698655 -0.0188216 0.0158291 -0.00554337 -0.0310382 0.0461915 0.0425829 0.023951 0.0197137 0.0100227 0.0337955 -0.00367399 -0.00463812 0.0710007 0.071861 0.034818 0.0300074 0.0512954 0.00471553 0.00211978 -0.0385508 -0.0251929 0.0122307 0.0379461 0.0387596
internal_weight=0 678643 1.72212e+06 273895 404748 1.40959e+06 276777 225377 132625 144151 312530 263534 159115 138070 81786 56284.5 66262.2 46174.6 1.35996e+06 1.24527e+06 8682.56 107855 155679 93994.8 88570.1 109261 48517.6 5949.97 53222 49631.7
internal_count=9010206 7326093 1684113 1826816 5499277 1155752 3273340 1182322 1238331 2035009 528361 480576 655442 617582 435267 182315 526880 311983 1056915 946718 12083 258354 222222 709361 688680 1750651 644494 57661 162400 98837
is_linear=0
shrinkage=0.05


Tree=20
num_leaves=31
num_cat=0
split_feature=6 4 6 2 2 2 6 0 6 0 5 3 0 5 0 2 4 2 1 6 5 1 5 0 0 5 4 5 6 1
split_gain=1.10192e+06 76755.1 58341.7 24443.6 23035.1 19743.6 17305.4 15813.6 12936.3 9362.39 9310.79 9862.56 8349.39 6084.22 5601.55 5184.54 5104.18 4618.78 4486.48 4852.95 3978 5322.74 4108.85 3837.1 4285 3823.11 3638.14 5016.45 3625.55 4248.18
threshold=6.0013500000000013 1.5000000000000002 38.765550000000005 1.0000000180025095e-35 1.0000000180025095e-35 1.0000000180025095e-35 0.99990000000000012 18408.000000000004 2.5000500000000003 115333.50000000001 114.50000000000001 1.0000000180025095e-35 27386.500000000004 16.500000000000004 75.500000000000014 1.0000000180025095e-35 54.500000000000007 1.0000000180025095e-35 0.0038500000000000006 2.0003500000000005 100.50000000000001 0.007150000000000001 4390.5000000000009 32871.500000000007 105950.50000000001 105533.00000000001 5.5000000000000009 879.50000000000011 106.61070000000002 0.76665000000000016
decision_type=2 2 2 2 2 2 2 2 2 2 2 2 2 2 2 2 2 2 2 2 2 2 2 2 2 2 2 2 2 2
left_child=1 4 10 26 -1 -4 -6 18 12 13 11 17 14 -9 -5 -12 -16 -2 -8 -20 21 -10 -22 -19 -25 -17 -3 -28 -7 -30
right_child=2 3 5 8 6 28 7 9 20 -11 15 -13 -14 -15 16 25 -18 23 19 -21 22 -23 -24 24 -26 -27 27 -29 29 -31
leaf_value=-0.044273198310718624 -0.035963933351187277 -0.034179125781325842 0.037124842418709517 -0.053624738618075367 -0.037559135604933895 0.063632806208779633 0.024592661804212018 -0.035326481310327222 0.054756604988750068 0.077397437656860579 0.016375527162888003 0.059982326547513655 -0.023111933352359171 -0.0027256244187585993 0.0086042507899023023 0.056970714066282527 0.046128799661926331 0.037542056642047975 -0.011382390486713299 0.013262623760553255 0.052443448513494612 0.017321292914334468 -0.018249281213534443 0.011421787764166766 0.053931785950643241 -0.049764247135766208 0.017040558590588444 -0.041562809233380377 0.040699966620767428 0.070911587947349239
leaf_weight=123027.99510497972 2515.9140252619982 31840.604969423264 49241.837234437466 3313.3167318627238 81069.839787367731 227090.46707758307 19783.628827597946 66652.633329600096 11074.103726901114 2146.9870850071311 8617.3356758579612 37501.994785189629 22912.019275650382 18224.751650031656 87778.076252855361 139688.52153342962 10105.521181151271 101383.62448398769 51728.419412240386 32540.651568219066 22016.340136662126 66605.831009507179 2267.131151586771 32405.01395432651 7255.2487248927355 844.03447125852108 9829.4765900820494 5810.1430755406618 11763.838909730315 1068836.7121761292
leaf_count=2225937 17528 475098 97196 26479 1270365 204337 116199 963962 30166 10374 38954 39298 266757 190744 528904 153805 22765 181985 554026 167670 42782 254626 9843 102963 11294 3303 88564 80832 15049 818401
internal_value=0 -0.0122252 0.0636187 0.00813464 -0.0263188 0.0682054 -0.0182023 -0.00998964 0.0149842 -0.0257181 0.0447707 0.0371505 0.00414316 -0.0283265 0.010314 0.0540213 0.0124783 0.0311862 0.00316487 -0.00186567 0.0281799 0.0226581 0.0458435 0.032384 0.0191984 0.0563297 -0.024479 -0.00473068 0.0693758 0.0705827
internal_weight=0 668727 1.68714e+06 273553 395175 1.35693e+06 272147 191077 226072 87024.4 330212 181062 124109 84877.4 101197 149150 97883.6 143560 104053 84269.1 101963 77679.9 24283.5 141044 39660.3 140533 47480.2 15639.6 1.30769e+06 1.0806e+06
internal_count=9010206 7326093 1684113 1826816 5499277 1134983 3273340 2002975 1182322 1165080 549130 353068 844905 1154706 578148 196062 551669 313770 837895 721696 337417 284792 52625 296242 114257 157108 644494 169396 1037787 833450
is_linear=0
shrinkage=0.05


Tree=21
num_leaves=31
num_cat=0
split_feature=6 6 6 4 2 2 0 0 5 5 0 0 5 3 5 1 5 1 4 1 6 4 2 5 1 2 5 0 1 0
split_gain=1.0223e+06 82171.1 48888.3 28409.9 24376.7 20008.1 17927.9 13326.8 11256.7 10468.5 9287.73 9190.32 7883.11 8607.77 7633.65 9571.52 7222.9 6849.07 6418.84 5597.61 5703.95 5566.64 5036.32 4887.78 4189.21 3675.57 3670.41 3551.11 3489.69 3479.46
threshold=7.0057500000000008 1.7500500000000001 40.365150000000007 3.5000000000000004 1.0000000180025095e-35 1.0000000180025095e-35 31530.500000000004 13582.500000000002 1.5000000000000002 1123.5000000000002 2512.5000000000005 108400.50000000001 191.50000000000003 1.0000000180025095e-35 53.500000000000007 0.0059500000000000013 13.500000000000002 0.58825000000000005 5.5000000000000009 0.27275000000000005 12.001700000000001 96.500000000000014 1.0000000180025095e-35 13497.000000000002 0.08865000000000002 1.0000000180025095e-35 2993.0000000000005 11053.500000000002 0.75970000000000015 3365.5000000000005
decision_type=2 2 2 2 2 2 2 2 2 2 2 2 2 2 2 2 2 2 2 2 2 2 2 2 2 2 2 2 2 2
left_child=1 3 12 7 -3 28 14 8 10 21 -1 16 13 27 15 -6 -8 18 -17 20 -14 -5 -10 24 -16 -21 -13 -2 -4 -19
right_child=2 4 5 9 6 -7 11 -9 22 -11 -12 26 19 -15 23 17 -18 29 -20 25 -22 -23 -24 -25 -26 -27 -28 -29 -30 -31
leaf_value=0.022418305397177471 0.040348281791121793 -0.038678718979284266 -0.0080703716358601109 0.0099321155370394078 0.045971819774917558 0.067810915683738301 -0.027266200418739783 -0.041427943731862586 -0.041409138621022058 -0.039763037912534216 -0.020055785332256548 0.076855980097276011 0.038215325702467211 0.059325384984376874 0.0073178725518716313 -0.0035662670377552457 0.0098545613950892352 0.055067326285440379 0.025797506401092202 0.022671816858414309 -0.057531638602113126 0.065622499618837468 -0.020804824040631734 -0.04748268899794432 0.04473788024118109 0.059654712855871816 -0.05939127269804443 0.024985142223263382 0.039393275092356239 0.016634032808361253
leaf_weight=22216.46009061113 76245.364289291203 23824.373810328543 4237.8581832498312 45724.963557623327 21403.603816516697 1265117.4413273633 38281.385036777705 160636.27215129882 52992.478712536395 10358.901915945113 30595.689469572157 3923.4350159578025 6559.3579079136252 38275.683687031269 8844.3010219037533 73299.480167903006 19925.163693107665 10625.399540320039 24944.752969652414 7166.9660515040159 2039.0174955427647 4975.4272982627153 67351.318003177643 1683.2087741531432 48463.603998746723 107331.9641071409 565.56461450085044 74235.716726273298 44934.135167732835 13210.78954545036
leaf_count=207871 122509 381664 22491 320277 68659 1029349 417757 2797865 971689 115407 384128 13098 11542 39284 43491 448810 128907 25228 69775 28690 7438 13101 788825 10304 114039 109264 3848 174437 74058 66401
internal_value=0 -0.0104912 0.0623717 -0.025319 0.00976801 0.0665947 0.0141207 -0.0310553 -0.0214325 0.00603912 -0.00218823 -0.00924283 0.044574 0.0381543 0.0213552 0.0151301 -0.0145591 0.00972284 0.00388936 0.054418 0.0155099 0.0153972 -0.0298778 0.0364963 0.0389629 0.0573398 0.0596903 0.0327693 0.0353026 0.0337663
internal_weight=0 683847 1.62614e+06 394852 288995 1.31429e+06 265171 333792 173156 61059.3 52812.1 62695.5 311854 188757 202475 143484 58206.5 122080 98244.2 123097 8598.38 50700.4 120344 58991.1 57307.9 114499 4489 150481 49172 23836.2
internal_count=9010206 7391144 1619062 5599163 1791981 1125898 1410317 5150378 2352513 448785 591999 563610 493164 336230 846707 678873 546664 610214 518585 156934 18980 333378 1760514 167834 157530 137954 16946 296946 96549 91629
is_linear=0
shrinkage=0.05


Tree=22
num_leaves=31
num_cat=0
split_feature=6 6 6 0 2 2 2 3 0 4 4 6 5 3 1 5 1 0 6 5 0 5 2 4 0 1 2 1 0 0
split_gain=950283 86637.8 40959.8 33114.1 21431.7 20090.5 11832.1 10591 10263.7 8417.14 7725.04 7464.12 7108.94 7867.91 6579.3 5455.55 6719.26 5322.16 4623.69 4516.3 4405.82 5462.02 4382.48 5084 4884.04 4325.58 3600.54 3505.5 3481.11 3472.76
threshold=8.001750000000003 2.5000500000000003 46.340000000000011 13737.500000000002 1.0000000180025095e-35 1.0000000180025095e-35 1.0000000180025095e-35 1.0000000180025095e-35 35437.500000000007 3.5000000000000004 4.5000000000000009 0.90205000000000013 194.50000000000003 1.0000000180025095e-35 0.27215000000000006 38.500000000000007 0.0077500000000000008 108400.50000000001 13.005050000000002 17.500000000000004 2556.5000000000005 2.5000000000000004 1.0000000180025095e-35 5.5000000000000009 127443.50000000001 0.66680000000000017 1.0000000180025095e-35 0.75970000000000015 34533.500000000007 232.50000000000003
decision_type=2 2 2 2 2 2 2 2 2 2 2 2 2 2 2 2 2 2 2 2 2 2 2 2 2 2 2 2 2 2
left_child=1 3 12 4 10 27 -3 9 15 11 -1 -6 13 28 18 16 -8 19 -14 -10 21 -13 -5 24 -24 -18 -16 -4 -2 -11
right_child=2 6 5 22 7 -7 8 -9 17 29 -12 20 14 -15 26 -17 25 -19 -20 -21 -22 -23 23 -25 -26 -27 -28 -29 -30 -31
leaf_value=-0.036847597600063252 0.037999726870496742 -0.03231843330909704 -0.012214852309953169 -0.046337107618262534 -0.025749407868697029 0.066536569648700875 0.049527090836259204 0.043713991769117361 -0.020507348239312828 -0.014739531013462563 0.0076083228613477195 0.029854884483254202 0.031696254177681571 0.058708609638926039 0.022719525628797626 0.037830194365084488 0.008112631699897576 0.050615882972935837 -0.06393975094148803 0.01474606032969317 -0.01138374607005359 -0.0067903647233591435 -0.034248165252067968 0.0092002463604788677 0.049205667907720622 0.036470449398726991 0.058529352926403801 0.037654173090509745 0.020490832358669039 0.021721622225683589
leaf_weight=71186.846389420331 103980.28683959693 11379.332594111562 3825.5193267315626 67732.836796130985 46985.849995676428 1204377.7615658343 15188.268401697278 12761.519170157611 24516.237806744874 7924.8704960346222 11326.80417098105 19758.939938150346 4168.0283271819353 38404.610076949 7467.5158602297306 59801.797312736511 70820.407662510872 4392.2368114367127 1813.800902761519 14433.473857983947 47828.388074371964 20949.992665961385 128557.55942133069 7508.9545646607876 1777.4195939153433 16599.310375384986 116985.60317802429 44700.164021849632 39049.50810559094 37119.360298499465
leaf_count=1325391 169245 167353 21020 1270997 627660 1002687 36796 37844 209814 40712 120471 111397 7669 38789 28536 130953 291777 12880 6964 65265 456721 173816 2093941 57610 13311 48531 118226 73493 94092 156245
internal_value=0 -0.008907 0.0612297 -0.0207326 -0.00941199 0.0652657 0.0173126 -0.00030694 0.0200575 -0.0034181 -0.030745 -0.00964176 0.0450155 0.0386148 0.0539187 0.0258265 0.0188305 -0.0015599 0.00269765 -0.0074436 -0.00109359 0.0109962 -0.0359226 -0.0308053 -0.0331101 0.0134972 0.0563807 0.0337228 0.0332195 0.0153068
internal_weight=0 698550 1.56477e+06 481419 275843 1.2529e+06 217131 193329 205752 180567 82513.7 135523 311869 181434 130435 162410 102608 43341.9 5981.83 38949.7 88537.3 40708.9 205577 137844 130335 87419.7 124453 48525.7 143030 45044.2
internal_count=9010206 7449485 1560721 6486116 3050257 1097200 963369 1604395 796016 1566551 1445862 1369594 463521 302126 161395 508057 377104 287959 14633 275079 741934 285213 3435859 2164862 2107252 340308 146762 94513 263337 196957
is_linear=0
shrinkage=0.05


Tree=23
num_leaves=31
num_cat=0
split_feature=6 6 6 0 2 2 2 0 3 4 5 3 4 1 5 1 0 6 5 6 0 4 5 4 2 1 5 0 0 1
split_gain=885067 79668 41849 30483 20324.1 17781.5 14576.8 10197.3 9219.76 7102.11 6922.88 7597.05 6649.86 6142.07 5092.82 5860.16 5045.54 4724.27 4706.98 4194.32 4094.39 4051.37 3720.27 3682.48 3535.67 3359.29 3336.58 3208.09 3309.23 3166.08
threshold=8.001750000000003 2.1138000000000008 46.340000000000011 11929.500000000002 1.0000000180025095e-35 1.0000000180025095e-35 1.0000000180025095e-35 32369.000000000004 1.0000000180025095e-35 4.5000000000000009 194.50000000000003 1.0000000180025095e-35 1.5000000000000002 0.27215000000000006 62.500000000000007 0.0077500000000000008 108400.50000000001 0.90205000000000013 13.500000000000002 12.001700000000001 75.500000000000014 1.5000000000000002 16187.000000000002 4.5000000000000009 1.0000000180025095e-35 0.08865000000000002 1123.5000000000002 34533.500000000007 108400.50000000001 0.76665000000000016
decision_type=2 2 2 2 2 2 2 2 2 2 2 2 2 2 2 2 2 2 2 2 2 2 2 2 2 2 2 2 2 2
left_child=1 3 10 5 29 9 -3 14 12 -1 11 27 17 19 15 -8 18 -7 -9 -12 -14 -5 25 -17 -15 -16 -11 -2 -29 -4
right_child=2 6 4 21 -6 8 7 16 -10 26 13 -13 20 24 22 23 -18 -19 -20 -21 -22 -23 -24 -25 -26 -27 -28 28 -30 -31
leaf_value=-0.035903044238600954 0.036237819837581398 -0.033450851141546854 -0.010633992973618861 -0.039414645318368816 0.065144079002884811 -0.028163208714152083 0.046690088404373553 -0.021279718363695417 0.041967819954060875 0.023289388189761437 0.033550751235948514 0.056872529055616475 -0.052841202395526879 0.021357085592473356 -0.0020216006134826207 0.0061141256795183676 0.046982147351654291 -0.0040649596484667308 0.011009057553110367 -0.054133699913606052 0.010033599538129233 -0.02250061791350846 -0.046985729369113577 0.025469373969150444 0.056692363024160364 0.041557573835927758 -0.042624852901149132 0.012489204806434374 0.049895647826302653 0.035917560948695915
leaf_weight=64306.760133847594 103593.92489258945 14862.085356008261 3979.4455016851425 154929.77890526131 1169501.7696551681 31957.763366643339 15054.660625383258 25870.441655144095 11927.554757453501 8264.3119520321488 3860.135842166841 37680.740170896053 2689.9723750278354 7544.6448983177543 4848.9875819608569 65873.36629036814 4741.9933357089758 55933.720340650529 20022.745232477784 2108.9120825603604 69159.787243880332 45890.177054252476 1327.4557993784547 39197.115149632096 114793.45690992475 50231.539656691253 2500.9216677024961 31857.505521096289 7259.9284629449248 44461.704126626253
leaf_count=1235833 169245 235379 21543 2913745 1002687 478351 35193 232095 35010 74923 6873 38789 24081 28536 20562 306632 14432 520868 105493 7760 394675 573576 7194 99492 118226 103972 37979 83754 10338 72970
internal_value=0 -0.00858795 0.0596618 -0.0210855 0.0638296 -0.00931336 0.0145224 0.017661 -0.000437166 -0.0296108 0.0432185 0.0369037 -0.00360346 0.0520968 0.0233345 0.017515 -0.00211898 -0.0128272 -0.00719244 0.00257114 0.00767964 -0.0355496 0.0357277 0.0133347 0.0545132 0.0377211 0.00797654 0.0316312 0.0194316 0.0320933
internal_weight=0 689591 1.52664e+06 447561 1.21794e+06 246741 242030 227168 171669 75072 308699 180392 159741 128307 176533 120125 50635.2 87891.5 45893.2 5969.05 71849.8 200820 56408 105070 122338 55080.5 10765.2 142711 39117.4 48441.1
internal_count=9010206 7449485 1560721 6289041 1097200 2801720 1160444 925065 1452985 1348735 463521 302126 1417975 161395 573045 441317 352020 999219 337588 14633 418756 3487321 131728 406124 146762 124534 112902 263337 94092 94513
is_linear=0
shrinkage=0.05


Tree=24
num_leaves=31
num_cat=0
split_feature=6 6 6 4 2 2 4 0 5 5 0 0 0 5 3 1 2 4 5 1 5 1 6 1 2 0 5 1 0 0
split_gain=825523 73738.5 42688.5 24296.4 20552.1 20300 13626.4 12597.4 10192.7 9109.78 8321.51 8018.86 7039.31 6768.3 7304.93 5676.37 4665.54 4638.55 4602.38 4156.81 6082.38 5990.72 3925.86 3482.51 3467.9 3341.95 3333.06 3317.45 3190.36 3091.61
threshold=8.001750000000003 1.7500500000000001 46.340000000000011 3.5000000000000004 1.0000000180025095e-35 1.0000000180025095e-35 3.5000000000000004 13582.500000000002 1.5000000000000002 1150.5000000000002 26560.500000000004 2953.5000000000005 108400.50000000001 156.50000000000003 1.0000000180025095e-35 0.27215000000000006 1.0000000180025095e-35 96.500000000000014 13.500000000000002 0.0059500000000000013 24.500000000000004 0.48290000000000005 13.005050000000002 0.0032500000000000007 1.0000000180025095e-35 89.500000000000014 13497.000000000002 0.10595 36327.500000000007 13122.500000000002
decision_type=2 2 2 2 2 2 2 2 2 2 2 2 2 2 2 2 2 2 2 2 2 2 2 2 2 2 2 2 2 2
left_child=1 3 13 7 -4 -3 10 8 11 17 19 -1 18 14 29 22 -10 25 23 -7 21 -21 -15 -12 -17 -5 -8 -22 -27 -2
right_child=2 5 4 9 -6 6 26 -9 16 -11 12 -13 -14 15 -16 24 -18 -19 -20 20 27 -23 -24 -25 -26 28 -28 -29 -30 -31
leaf_value=0.01951942436181707 0.03669066880489906 -0.036108514924618938 0.030559418438579213 -0.043037185991622866 0.063851752582793339 0.035754932532521246 0.028598503461237691 -0.039786953478847226 -0.039830827837887231 -0.038918626208264737 0.011158035580355035 -0.019938729271400453 0.054125805072268711 0.029030031405777947 0.054939141419387619 0.019741701863950759 -0.019245086172369821 0.058930720217698865 0.0052751306047517914 -0.010668996192704762 -0.0018437192683416533 0.019793713471625975 -0.057908221879307865 -0.0316475945913538 0.054179205562576972 0.017236616791257552 -0.050910022917542076 0.033674733997413019 -0.025248515760409287 0.021483815872037383
leaf_weight=24562.955249596387 70879.993456304073 22452.524364870042 48331.167518392205 2907.4613954499364 1134404.907054469 16526.094890031964 103881.98040224612 144918.25527441874 47869.150862637907 9721.2088925465941 5601.2242627292871 27061.74955553934 3954.5918153487146 4369.5656998753548 35810.101661548018 7778.7520223632455 64758.930171910673 5138.7292784377933 18730.442824073136 45211.50569203496 8590.0518270805478 25098.704145297408 1847.5932059437037 31320.741775095463 121426.81651693583 38326.939060360193 1335.0616680383682 28012.339501302689 4994.6615764275193 63246.513100221753
leaf_count=229901 110913 387733 94513 27959 1002687 56118 273817 2797865 971689 114540 58399 362098 13095 8050 37737 29228 788825 13224 120855 305448 55323 115692 7059 374556 129316 235292 7981 81305 57770 141218
internal_value=0 -0.00827631 0.0581883 -0.0233486 0.0624913 0.0096844 0.0132512 -0.029042 -0.0195618 0.00546552 0.00500923 -0.0011646 -0.0103323 0.0415216 0.0348765 0.0498604 -0.0279944 0.0138651 -0.0149126 0.0124175 0.00881005 0.000205307 0.00319403 -0.0251538 0.0521059 0.00885569 0.0275896 0.0253391 0.0123384 0.02952
internal_weight=0 680975 1.4881e+06 370260 1.18274e+06 310715 288263 309171 164253 61089 183046 51624.7 59607 305359 169937 135423 112628 51367.8 55652.4 123439 106913 70310.2 6217.16 36922 129206 46229.1 105217 36602.4 43321.6 134127
internal_count=9010206 7449485 1560721 5599163 1097200 1850322 1462589 5150378 2352513 448785 1180791 591999 566905 463521 289868 173653 1760514 334245 553810 613886 557768 421140 15109 432955 158544 321021 281798 136628 293062 252131
is_linear=0
shrinkage=0.05


Tree=25
num_leaves=31
num_cat=0
split_feature=6 6 6 0 2 2 2 6 5 0 4 5 3 5 1 1 3 4 2 4 0 4 0 5 1 5 5 1 1 2
split_gain=771545 74125.9 37597.9 28990 20898.9 18214.7 9373.7 8646.98 7946.55 10642.2 7054.2 6792.34 6014.23 7488.89 6532.36 5758.92 5204.35 4680.28 4115.31 4164.86 4642.22 3852.19 3891.54 4252.68 3162.25 4397.88 3193.1 2911.1 2888.76 2853.27
threshold=9.0015000000000018 2.5000500000000003 46.340000000000011 15347.000000000002 1.0000000180025095e-35 1.0000000180025095e-35 1.0000000180025095e-35 0.87265000000000015 26.500000000000004 4112.5000000000009 8.5000000000000018 9757.5000000000018 1.0000000180025095e-35 118.50000000000001 0.27215000000000006 0.0032500000000000007 1.0000000180025095e-35 3.5000000000000004 1.0000000180025095e-35 5.5000000000000009 127443.50000000001 7.5000000000000009 2602.5000000000005 2.5000000000000004 0.75970000000000015 193353.50000000003 370.50000000000006 0.089450000000000016 0.75970000000000015 1.0000000180025095e-35
decision_type=2 2 2 2 2 2 2 2 2 2 2 2 2 2 2 2 2 2 2 2 2 2 2 2 2 2 2 2 2 2
left_child=1 3 12 5 28 10 -3 17 9 -8 -1 27 13 29 -15 -11 21 -7 -5 20 -20 22 23 -9 25 -6 -26 -10 -4 -2
right_child=2 6 4 18 24 7 8 16 11 15 -12 -13 -14 14 -16 -17 -18 -19 19 -21 -22 -23 -24 -25 26 -27 -28 -29 -30 -31
leaf_value=-0.033980821888727385 -0.035102461513550329 -0.029429122262746406 -0.012543773831340511 -0.045408342579052213 0.051536577937693444 -0.024154009695524118 0.028291885944413193 0.027306654470996006 -0.012809543535713428 0.030158985461982812 0.016621186988479041 -0.036939051682780048 0.057386509395606314 -0.013952303454642373 0.048205030902554638 -0.0066736361516220857 0.03830264134356634 0.0057501709381833953 -0.032813713107176991 0.008368931526161116 0.048452156647375039 0.024612901021564659 -0.00939478240985764 -0.0027290081871057001 0.055059753404464465 -0.16507770145078299 0.064173230232945619 0.033690161309557654 0.032640656814344936 0.029268263521286149
leaf_weight=70941.32168449834 1748.9287928342819 10993.22917804867 3843.052073597908 58537.206239916384 51213.056927338243 45976.18528708443 49452.678702816367 20629.356881558895 3504.0054553151131 12519.500421270728 7627.9137155637145 3738.7493961602449 46356.84704323113 4379.0238281264901 121704.03661134094 69669.079990886152 11864.81064183265 18289.066993713379 112751.55960548297 6930.4191803261638 1785.1351394876838 18471.119617208838 54128.4553501755 27488.174347043037 107049.94591119885 235.39676201343536 940786.69883210957 85378.814618937671 44464.354150548577 109753.72767627239
leaf_count=1423480 9471 171328 21020 1222664 55959 650357 128125 113521 14873 53001 70715 18070 46420 12336 156844 422796 33629 92258 2015701 55550 13311 56930 526861 211139 110675 1116 834937 195250 73493 198376
internal_value=0 -0.00714093 0.0572029 -0.0189138 0.0612335 -0.00871533 0.0156496 -0.00059175 0.0178593 0.0099645 -0.0290681 0.02908 0.0409126 0.0376982 0.0460462 -0.00106305 0.00670423 -0.0156437 -0.034518 -0.0292697 -0.0315471 0.00359855 -0.000197776 0.0101481 0.0626479 0.0505455 0.0632422 0.031857 0.0290461 0.0282586
internal_weight=0 690677 1.43154e+06 455421 1.14759e+06 275416 235256 196847 224263 131641 78569.2 92621.6 283943 237586 126083 82188.6 132582 64265.3 180004 121467 114537 120717 102246 48117.5 1.09929e+06 51448.5 1.04784e+06 88882.8 48307.4 111503
internal_count=9010206 7489559 1520647 6486116 1097200 3178890 1003443 1684695 832115 603922 1494195 228193 423447 377027 169180 475797 942080 742615 3307226 2084562 2029012 908451 851521 324660 1002687 57075 945612 210123 94513 207847
is_linear=0
shrinkage=0.05


Tree=26
num_leaves=31
num_cat=0
split_feature=6 6 6 4 2 2 4 0 1 5 5 2 3 0 1 5 0 5 5 1 4 2 5 5 1 1 5 0 0 0
split_gain=721851 68347.8 38503.1 21789.9 21107.8 17985.1 12135.1 12048 9298.19 8379.83 7609.56 6742.52 6410.28 5998 5400.99 5304.11 6237.95 4958.83 4360.66 4326.01 4226.38 4008.39 3514.74 3176.32 3922.3 8798.34 3179.01 7235.3 3162.52 2949.57
threshold=9.0015000000000018 1.7500500000000001 46.340000000000011 3.5000000000000004 1.0000000180025095e-35 1.0000000180025095e-35 1.5000000000000002 13582.500000000002 1.0000000180025095e-35 2220.5000000000005 23.500000000000004 1.0000000180025095e-35 1.0000000180025095e-35 13889.500000000002 0.0032500000000000007 26.500000000000004 2512.5000000000005 13497.000000000002 82.500000000000014 0.28565000000000007 64.500000000000014 1.0000000180025095e-35 7886.5000000000009 302.50000000000006 0.54555000000000009 0.16055000000000003 211756.50000000003 115333.50000000001 89.500000000000014 5756.5000000000009
decision_type=2 2 2 2 2 2 2 2 2 2 2 2 2 2 2 2 2 2 2 2 2 2 2 2 2 2 2 2 2 2
left_child=1 3 13 7 -4 -3 10 8 -1 20 14 -10 15 21 -7 16 -8 -17 -15 -13 28 -2 -12 -6 25 -25 -26 -28 -5 -16
right_child=2 5 4 9 23 6 12 -9 11 -11 22 19 -14 18 29 17 -18 -19 -20 -21 -22 -23 -24 24 26 -27 27 -29 -30 -31
leaf_value=0.015705027389243165 0.0068040926572546572 -0.034402411590116019 0.027681812712110683 -0.043794752889377751 0.052894982952321236 0.023640989042278571 0.026968690196846445 -0.038655906588844088 -0.036886987118122369 -0.045609825287693168 0.021489646338591212 -0.018117544810554064 0.042675508000756139 0.019333640316402903 0.0012730220266121614 0.02926312025025244 -0.00054291763002742028 -0.050521288880209937 0.040282104367497684 0.017333012777192229 0.045913918574846002 0.046209004512729634 -0.038419646513516197 0.063716336843372509 0.062982698782803867 -0.0714457151491458 0.048511629618261908 -0.096871084264115295 0.0095796126230368612 -0.021921849791266251
